23520
0.184128
-1.00596
-0.34198
-0.0447241
0.278441
-0.580894
-0.151515
-1.14743
-0.611
-1.18952
0.872265
-0.0155418
1.16668
-2.15865
0.756167
-1.6905
-0.348794
-1.72951
0.696312
0.564962
0.479861
-0.295945
-0.420309
-0.859614
-0.407915
1.24758
-1.82938
-1.59652
0.690312
0.928122
1.58654
0.401306
-1.26969
0.469359
1.3344
1.28718
0.228048
0.270744
-0.667675
-0.198031
0.488007
0.863153
-2.06029
-0.771817
-2.75752
1.15611
-0.59828
0.970085
-0.0545971
1.19789
1.28761
0.164258
-1.15362
0.0697348
0.942503
-0.607014
-0.459123
-0.0170042
0.846012
0.0112808
-0.808538
-0.555091
-0.459613
0.39007
0.274574
-0.66246
-1.21332
-1.43861
-2.54517
0.921923
0.336609
1.3441
0.316586
0.30505
1.2293
-0.667335
0.156181
0.195594
0.611711
-0.342614
1.27571
0.179035
-0.707464
-0.634093
-0.133681
-1.36109
-1.30023
0.00983767
-1.05412
-1.10691
-0.138894
0.876452
-2.01707
0.810242
-1.05474
-0.159507
-1.37924
-0.936448
-0.894691
-0.641786
0.991263
-1.69739
-0.77668
0.0685353
-0.192942
0.635639
2.01864
-0.220226
1.26949
-0.842801
0.764036
0.573633
0.575938
-1.81618
0.955186
-2.33827
-1.3673
0.619704
-0.291267
0.903491
0.011401
0.290983
-0.408281
-0.722696
-1.13172
-1.46902
0.856516
-1.22214
1.34892
-0.148472
1.65622
-0.101819
1.34325
1.97022
0.308245
-1.06054
1.35911
0.762808
-0.469406
1.25533
-0.894301
-0.208829
1.13096
-0.230666
-1.26809
-1.01797
-0.119571
-2.31596
-2.50258
-3.47917
-2.94765
-0.0190429
1.02321
-0.218498
0.72497
1.0396
-0.502188
0.992873
-0.632795
-0.316318
-0.285174
0.631418
0.734846
0.607019
0.814067
0.17394
-0.394668
-1.81056
1.32138
-0.466407
1.40686
1.6442
-0.188508
-1.10983
-1.72147
-1.36683
0.755431
-1.09609
-1.31134
1.21805
0.506532
1.63078
1.69841
1.40863
0.758704
0.351104
0.360125
0.857867
0.661958
-0.843061
0.994368
-1.67336
0.756125
-0.56939
0.563459
0.863747
0.0944665
-1.08596
0.442885
0.9657
-1.13149
-0.242034
-0.884524
-0.586399
-0.515355
-1.00921
1.25724
1.82684
-1.46038
-0.934707
1.047
0.976364
-0.140234
-1.84232
-0.892882
-0.930662
0.390758
-0.00526605
-0.60292
1.49283
1.16366
0.28803
-0.412135
1.54221
0.061109
-0.67824
0.275941
0.917858
-0.711827
-0.221035
0.112262
0.207806
0.987856
-1.14333
0.0693662
-0.0373755
0.315481
1.54503
-0.720602
1.07889
0.63569
-1.77339
-1.07737
-3.36076
-3.39898
-1.39683
0.967595
3.08879
0.220934
0.29936
-1.20559
-0.74769
0.496716
0.119324
0.25653
0.780869
-0.0859048
-0.408235
-0.09549
1.63281
-0.501894
0.710629
-2.68752
2.25924
0.439641
0.9428
-0.356436
-0.665493
-1.97374
-0.757635
1.61314
0.361362
0.885149
0.35494
1.87086
-0.211602
1.33473
0.303187
-0.222748
0.878556
-0.248095
-0.647841
0.0588809
-0.375921
0.0585441
-0.681557
0.531514
0.606872
1.15724
0.320884
-0.521254
-0.146477
1.82839
0.327201
-0.419465
0.942681
-2.10958
-0.30162
-1.93159
-1.45663
0.593183
0.759069
0.59808
0.79718
0.171795
1.9756
0.880578
0.114031
-0.174047
1.58671
0.0247553
-0.740568
-1.04401
0.0842486
-0.120382
-0.28806
0.908841
1.04235
2.78848
1.57438
0.183123
0.620775
-1.21228
-1.01609
-0.0461123
-2.01598
0.692262
-0.204845
0.997764
1.20452
0.13204
-0.871723
-0.393917
-0.896658
0.310217
-0.0879735
-2.02836
0.81456
0.365696
-0.847558
-0.206875
2.32478
0.823912
0.307802
-0.505569
1.69456
0.325644
1.24446
0.356483
0.462916
-0.913052
-0.583828
-0.909714
-0.0601532
-1.1894
0.384214
1.80809
0.933012
-0.825698
0.850427
-0.392137
-0.0473211
0.512865
0.891791
0.138813
-0.602997
1.56153
-0.0466882
-0.879725
0.0679696
0.675242
1.22867
2.69093
2.22642
1.44066
1.82252
-0.0115033
0.14481
-1.15865
2.6185
-1.08466
-1.70715
0.900233
0.16822
-0.0142932
-0.142593
0.0283107
1.7526
-0.863211
-0.728445
-1.01542
1.77343
-0.235943
1.21377
0.155438
1.4675
-0.000606526
-0.265993
-0.33767
0.636129
1.16145
0.480524
0.239887
-0.208838
-0.5581
1.31678
1.51659
1.14304
-0.215615
-0.760512
0.181936
-0.985477
-0.748627
1.5029
0.731346
0.0133077
1.44021
-0.560908
1.72004
-0.0646263
-0.487469
-0.779523
-1.2115
0.838245
0.613112
-1.75556
0.124003
1.21294
0.136504
-0.155415
0.0135667
-0.557579
-1.4939
0.761441
-0.602722
0.30543
0.412031
0.935287
0.313536
-0.90532
-1.71234
-0.556223
-1.47482
-0.955887
0.16191
0.412629
-0.663661
-0.631138
0.396262
-0.440025
-1.54017
-0.281572
0.0840882
0.664944
1.26895
0.64553
-0.877132
1.1781
-0.403833
-1.079
0.135995
-0.129278
-1.85485
0.708151
-0.684175
-0.965634
-0.330129
-0.254366
0.113037
-0.019045
0.403905
0.359047
0.0681345
-2.50105
1.33363
-0.184129
0.102654
0.695216
0.309702
0.526947
1.73959
1.58331
0.858101
-1.22433
0.319838
0.903298
-2.19019
-0.271135
1.13787
1.38447
1.72625
0.166525
-1.0508
-0.729982
-0.0362977
-1.51638
-1.26618
-1.35875
0.228399
-1.41051
2.10827
0.18897
0.195636
0.512312
-1.08376
0.329225
-1.21203
-2.93319
-0.0983418
-2.16048
2.53471
-0.129472
-0.234711
0.464171
-0.511336
-0.821594
-0.109177
1.3984
1.57727
1.17574
-0.469686
-0.247776
-1.91757
0.86827
0.533882
-0.395226
0.778371
-0.967991
-1.02893
0.770241
0.907223
-0.480782
-0.487765
1.05702
0.0580182
1.73348
0.0633784
-0.951013
0.393976
-0.037206
-0.144667
0.307128
-1.20448
-0.385016
0.74423
0.481203
-0.671207
-2.19598
0.303072
-0.58577
0.941479
-0.338485
-0.954021
0.509449
2.06018
0.738353
-0.374518
0.974653
1.07978
-1.43409
-0.792682
0.149926
-1.07069
-0.776141
1.82511
-1.78166
-1.04142
-2.57231
-0.516064
-0.103812
0.235218
0.0535626
2.32672
0.447791
-1.05365
-2.17571
-1.19988
-1.0698
-0.715464
0.23396
-0.0878883
-1.44177
-0.00879408
0.970996
0.584619
0.0633704
0.0808554
0.701438
-2.12961
0.0458519
-0.0808577
-0.845914
-1.14075
-0.651335
1.42036
0.0678602
0.215086
-0.892203
-0.524231
1.09123
1.29568
-0.059887
0.213502
-0.553341
-0.618195
0.937176
-0.483229
0.859538
-0.0327576
-0.877358
0.829046
1.51171
1.88493
-0.383969
-0.47315
-0.308815
0.519185
0.628905
0.389356
-1.42243
-0.0928189
0.866199
-0.248323
-2.69925
-0.00758413
1.73456
1.80587
0.69089
-0.0996226
-0.624886
-0.0756985
0.326597
-0.108098
-0.614682
-0.734882
-0.669035
0.913296
0.690545
-1.93959
-0.0944856
0.460576
-0.297803
-1.8343
-1.05276
0.453855
-0.841721
-0.96623
2.41888
0.585497
-0.670278
-0.463541
-1.0897
-1.3487
0.766509
-0.599688
1.42364
-0.674436
-2.19816
0.691292
0.11556
-1.32829
-0.475968
-0.124046
0.260738
-1.10871
2.82381
0.86833
0.402693
0.642095
-0.702766
1.05743
2.11346
-0.299195
0.0694235
1.21685
1.42718
0.129277
-0.64079
-0.844008
-0.191683
-0.642704
-0.411191
1.17961
1.94033
-0.852791
-0.636445
-0.246499
0.0479562
-1.25825
0.922485
0.0260453
-0.556281
1.00438
-1.14692
2.39916
0.0554344
0.0901062
0.861551
0.668384
-0.953488
1.51832
-0.813793
-0.183853
-1.30634
0.282801
-1.35815
-1.09475
-0.87998
1.73971
-1.57004
2.11571
0.814223
1.57968
-0.383785
0.407011
-0.210516
1.26326
1.37833
0.985055
-0.734894
0.424977
-1.32856
1.77348
-1.6703
-0.882352
0.282136
-0.311212
0.361512
-0.300894
0.378516
0.531008
0.737098
0.290514
0.617522
-0.242187
-0.15766
-0.380209
0.809496
0.622902
1.10541
1.36302
-0.374866
0.697616
0.325384
0.570342
-1.06785
1.38241
-0.827333
1.12171
0.0863972
0.428727
-1.06037
0.729854
-1.3876
-1.99384
-1.561
0.0801717
-1.33295
0.630058
-0.0858116
-0.758566
0.344784
0.55514
0.715056
1.60581
0.810011
0.349105
1.03617
-0.514683
-0.0288569
-0.147917
0.559143
0.499571
-0.107985
-0.658013
-0.414883
-1.12459
0.0783274
-1.51604
0.507969
-0.370618
2.53274
1.62098
2.06599
-1.05625
1.39227
-0.520569
-0.982848
-0.407771
-0.498097
-1.26008
0.143906
-1.14702
-0.496974
1.08032
-0.85004
0.768654
-0.981664
0.569278
-0.577749
0.079244
-0.481935
-0.216238
-0.125664
-0.571962
0.303772
0.633427
0.236837
0.203871
1.53561
0.0430285
-2.90163
-0.387815
-0.829255
-2.16848
0.294327
-0.116464
0.198728
1.32703
0.0391013
-0.763159
1.37385
1.4791
0.738451
-0.830353
-0.344076
2.24475
-2.56544
0.375399
-0.149306
0.439158
0.392075
0.0140756
2.10367
-0.466061
-0.777039
-0.205531
-0.0573256
0.292806
-0.156303
-0.671449
0.0465351
0.0738165
0.149621
0.193252
0.269537
-0.672908
-0.428594
-0.868546
-0.591475
0.729097
0.420626
-0.804685
0.315147
-0.144465
-0.788422
-0.0443054
-0.928205
0.0512281
-0.197301
-1.29593
0.725767
-1.10822
0.222757
-0.655517
-0.331218
1.71177
0.426714
1.68715
0.316777
0.605585
1.21612
1.25186
0.506388
-0.578399
0.942877
-0.0709942
-0.707534
-0.786219
0.250102
0.929287
-1.33393
1.05617
0.350451
0.749181
-1.28892
-0.548301
0.944279
-1.6424
-0.47097
0.310568
-0.751454
1.98635
0.400341
0.279533
-1.1834
-0.974313
1.06914
0.228118
-0.779071
0.0817785
0.119003
1.52402
0.971224
-0.983772
-1.13001
0.135924
-1.83197
-1.37119
-1.36839
-0.558248
-0.806678
-1.4292
-1.57995
-0.585276
0.0695808
-0.140273
-0.239294
0.707751
0.583875
0.608581
-0.508545
1.12149
0.381979
2.57458
-0.51123
0.417797
-0.678902
2.13378
-0.7206
0.150882
0.913801
0.380726
-0.362697
0.794887
1.65371
0.273922
-0.792379
-2.45232
-1.25521
0.123592
0.989332
-0.0859849
2.45393
-0.520334
-0.55376
0.503882
0.825761
-1.07887
0.126815
0.0198624
0.29336
0.578068
-0.808946
1.06175
0.225798
0.779632
1.07924
1.55992
0.654342
0.349071
0.599066
1.00963
-0.299275
0.847434
0.174271
-0.0184642
-2.45611
-0.113753
-0.376906
-1.55762
0.935086
-0.561473
0.00897861
0.84563
-0.805352
-0.243922
-0.453256
-0.98789
-1.60214
1.19118
-0.36107
1.05357
0.636193
0.060645
0.70126
-0.952281
-0.439312
1.40707
-2.12441
0.823459
-0.163942
1.36951
-0.697913
-1.52518
-1.55257
-0.529476
2.18187
0.471023
1.03943
-0.641679
-0.170558
0.297355
0.928056
-0.165447
0.645069
0.0989754
-0.468167
0.464133
-0.473996
-0.768637
-0.0336459
0.196369
1.3558
-0.424968
-0.808397
-0.856571
-0.819173
-1.48841
1.6623
-0.491926
-0.473912
-1.54801
-0.52727
1.45127
1.26303
1.61987
2.37513
0.0649413
-0.737982
-0.432069
0.21837
0.809486
-0.10826
-0.190908
-0.87987
0.65759
0.098795
0.391931
0.850347
-0.934431
0.394765
-0.861535
-0.562679
-0.389746
0.886903
0.656858
-0.905244
-0.0812481
-1.08829
-1.79278
1.95161
1.26645
0.526789
-0.977607
0.940705
-0.160518
1.65254
-0.214355
0.510433
-0.191821
-0.499995
-0.41197
1.5883
-1.19402
1.40008
0.848067
1.11082
-0.876216
0.0524622
0.00616274
-0.660938
0.250115
0.421151
0.840079
-0.226696
-0.379153
-1.70143
-2.54407
0.301293
1.22615
0.31418
1.54162
1.06331
-0.00821576
1.27456
-0.471843
-0.735205
-0.575158
-0.253031
1.24628
0.834333
1.36033
0.803479
0.402742
1.35569
-0.646048
-0.368046
0.926118
0.243405
1.93156
-1.79387
1.18352
1.61251
0.244803
-2.06284
-1.77866
0.0160763
1.86928
0.991007
0.905701
0.0418423
-0.501509
0.857833
1.3581
-0.989325
-0.161007
0.944492
2.41686
0.182934
-1.06409
-1.64368
-0.461705
1.37227
-0.1765
1.83439
-0.435482
0.914275
-0.064059
0.528266
1.73528
0.238167
-0.370462
0.326828
0.841643
-0.772534
-0.707924
0.567639
-0.685769
0.446526
-0.955556
-1.24495
0.341882
-0.116559
-1.46352
-0.559186
-0.688319
0.582462
-0.0417403
-0.626335
-0.614079
1.28571
-0.160917
0.219944
0.0939193
-0.0653105
0.724174
1.35033
1.14106
0.310666
-1.23445
-1.16281
0.551186
-0.34742
0.0381199
0.389982
-1.31588
-0.138584
0.164104
-1.02979
-0.184606
-1.48747
1.54382
-1.60334
-0.655414
1.32238
-0.338943
1.71077
0.382959
0.722133
0.900121
-1.17038
0.652182
1.11921
0.520555
0.602306
-0.827217
-1.63395
-0.95327
-1.15492
0.289762
2.15517
0.895428
-0.0683136
1.40451
1.24595
-0.805181
0.477484
-0.378988
1.93908
-0.104772
-1.26424
0.831111
-0.345236
0.332964
-1.04221
-0.832695
-1.19419
0.214963
0.742968
-0.434076
-0.532791
0.196024
1.62463
1.78609
2.6503
1.3447
1.18851
0.0900738
0.470072
-1.92108
0.928716
0.356538
-0.170858
0.191055
0.647095
1.8704
0.679351
-0.62754
0.48796
0.804371
0.428552
-0.269045
-0.857441
-1.95353
2.06469
0.646114
0.531115
-0.942905
-0.143736
0.250693
0.0681869
-0.455504
-2.04765
0.378619
1.10293
-0.0381199
1.25222
-0.442928
1.01625
-0.604901
0.385779
0.927162
0.253541
0.203138
0.472357
-2.22859
-0.400099
-0.73662
-0.528582
2.48885
0.27711
-0.0675051
-2.10935
-0.934644
-0.491494
0.559801
-0.889288
-0.990265
-1.90553
-2.3864
-2.20334
-1.43495
-0.220759
-1.31078
-0.534784
-0.859234
-0.444332
-0.831368
0.561672
1.2483
-0.342452
-1.25069
-0.630213
0.711233
0.0468905
-0.350096
0.766721
-0.0961273
0.560391
1.2662
-0.450518
-0.0191384
-1.49978
-2.43038
-2.23755
-0.744351
-1.56141
-1.82892
-0.92699
-1.20735
-1.28545
-0.536975
0.527883
-0.632642
0.410947
-1.83116
-1.04397
0.832544
-1.17158
-0.558617
0.545346
-0.273136
0.608911
-0.175471
0.530766
-0.596447
1.87158
-1.58189
-0.496154
-0.682662
-1.99763
-0.509472
-2.76542
-0.821955
-0.383356
-2.40509
-1.70825
-0.892867
-1.50455
-0.856733
-1.67014
-0.062033
0.148534
0.658875
-0.915896
-0.575968
-0.988593
0.421322
-1.41416
-0.417114
-0.588384
-0.155124
-1.60187
-0.38449
0.0172291
-0.730893
-0.67042
0.327561
-0.412636
-0.43066
-1.76442
-0.767121
-0.134598
-0.427052
0.909413
-0.486577
-0.684076
1.19721
-2.42272
-1.75669
-0.393279
0.761638
-0.29094
0.0798229
-0.397999
-1.11217
-1.00784
0.90892
0.585835
1.83768
-0.714661
0.38076
1.2643
-1.05901
2.04219
-0.0529995
1.49529
-1.90647
1.0747
1.40576
0.456785
0.570116
0.978475
-1.71637
-1.36946
-0.0338117
-1.75772
-0.785164
-0.86369
0.248552
-0.824103
1.26459
0.362518
-0.651263
-1.10407
-0.059324
0.878417
0.30088
1.15924
2.53034
1.15228
0.276673
-0.414597
0.498403
0.124819
2.21242
1.2471
-0.165303
1.56503
0.0379798
1.97279
0.0731128
0.790102
-0.919561
0.688833
-0.98012
-0.84385
0.208402
-1.81632
-0.322589
-0.618556
-1.6522
-1.15623
-0.0489147
1.47285
-0.360836
1.16888
-0.0937175
0.999366
-0.217288
1.75901
-0.600536
1.49304
0.840882
0.504906
1.24709
0.179969
-0.469633
0.912385
-0.157007
-0.614396
-1.08941
-0.208495
-2.46037
0.185463
0.395123
0.225602
0.493673
-1.30357
-0.523535
-1.41901
2.13173
1.15151
-0.0494458
-0.247271
0.0704535
-0.161868
0.327959
-0.121975
1.11958
1.7307
1.68445
1.20712
-1.59821
0.0314361
1.21122
-1.20044
0.762833
-0.278033
-0.152154
-0.21027
-1.81437
-1.51262
1.17866
-0.589173
-0.310999
0.775177
-0.878418
-1.11184
0.891957
0.799272
-0.445127
-0.275347
-1.9449
-0.506997
-1.71708
1.91206
-0.270653
1.66624
-1.43609
1.04971
-1.20931
-0.657299
-1.89141
-0.789871
-0.472328
0.816411
-0.202911
-1.80247
1.38994
0.0783685
1.26661
-1.1309
0.285929
-1.38011
-1.55767
0.505752
1.5243
-0.850503
0.905241
0.766692
0.0146754
0.207764
-1.62375
-0.316373
-1.15036
-0.217527
-3.1304
1.25816
-0.514893
-0.593042
-0.931636
-0.631334
0.174416
-0.299526
1.19506
-1.58655
0.0838197
0.981247
-0.124456
1.37478
-0.0620005
1.3477
0.454309
2.7856
0.1044
0.725109
0.297234
0.60679
-0.109215
0.694859
0.642349
1.44348
-1.04843
-1.0749
0.295006
0.383484
-1.38251
-0.480352
-0.965955
-1.7737
-0.0619375
-0.491254
-0.941324
-0.636198
0.601762
-0.667756
-0.665017
0.308884
1.63096
-0.264802
1.37842
2.20085
1.17234
1.87034
-0.397109
-0.519859
1.66574
-0.866263
-0.174872
-0.379949
-0.180241
0.128236
0.723321
0.379343
0.444032
0.888039
-1.08252
1.26151
0.0155996
-1.06934
-0.0669476
-1.77157
0.137244
0.37511
0.752652
0.757016
-1.73513
-0.323303
-0.229684
-0.855036
-2.06597
-0.00650685
-0.243745
0.51069
-0.789291
-0.881429
0.143373
-0.295214
0.93401
-1.54782
2.05406
-0.614208
1.54856
0.298973
-0.676861
-0.206266
-0.0617843
-0.828581
0.850101
-1.34021
0.997903
0.265306
-0.393636
-0.0886454
-0.162433
0.653488
0.287987
0.837147
-0.89053
-0.52224
1.41075
1.15432
-0.833712
1.42398
0.0310729
-1.4655
0.341159
-0.889901
-0.43994
-0.26306
-2.14069
0.465336
0.634411
0.650077
-0.211554
0.0427171
0.0579212
0.392182
0.611841
0.186795
-0.358254
-2.61275
0.0519238
2.1474
0.106561
0.869495
-0.0355129
0.802774
-0.0599173
0.178701
0.43878
-0.98537
0.376124
-0.59245
0.0648604
1.47915
-1.49651
-1.22358
-0.769206
0.989088
0.534486
0.757284
0.178245
1.56428
0.85511
1.15347
-0.553696
0.159136
-1.03909
-0.614659
0.466392
-2.25944
0.236497
-0.335534
0.832444
-0.102119
0.359871
0.0954035
-2.04738
0.908856
-0.767525
1.35938
1.1589
0.870587
1.19583
0.698753
0.895017
0.715468
1.78875
-0.0826246
1.43834
0.384853
-0.0747449
-0.758545
0.192571
0.580706
1.22548
0.157268
0.706676
-0.550852
-1.31346
0.518005
-0.939919
0.28481
-0.978204
1.67612
0.607665
0.479444
0.908167
0.362662
0.351886
0.170177
-0.908495
1.71092
-0.107173
-1.05979
0.338986
0.460179
0.602926
0.568214
-0.424788
-0.73904
0.86574
0.353286
-0.686082
-0.570575
0.377174
-1.24196
0.732457
-1.68835
-1.10011
0.191527
0.124511
0.252215
-1.34327
0.467211
0.026812
0.816291
1.00937
0.903683
2.0631
-0.578091
-0.649376
1.1055
2.15209
-0.171369
0.332697
0.334081
-0.159534
1.61363
0.803402
-0.0226471
-0.790258
0.137255
-1.4436
1.21144
0.661118
-1.19236
-0.452647
-0.581324
0.342269
-1.06518
0.885993
-1.2317
0.572907
-0.331212
-0.958422
0.265086
-0.988951
0.0788609
0.491495
-0.349733
0.00766601
0.283947
0.177401
1.57235
0.701807
-0.598528
-0.623209
-0.340683
-0.437108
0.996735
-0.453199
0.428955
-0.558746
0.177703
-0.478803
1.61173
0.316284
0.316391
-1.2222
-0.834916
1.73693
-0.321875
2.58433
1.88703
-0.956221
1.86309
-0.969963
0.182381
0.178938
1.90907
-0.454195
1.09438
0.953625
0.509188
-0.503574
-0.634068
0.749702
-0.727157
0.920251
-0.690227
-0.64146
-1.24662
-0.21519
-1.17259
0.668021
-0.549656
-0.144037
0.638828
-1.39841
0.0243773
0.401831
1.43536
0.55787
2.31955
1.83588
0.0379063
1.69479
0.821574
0.732645
-0.932005
-1.051
-0.595446
0.485921
0.475048
1.31963
-0.434367
-0.420512
0.916046
0.419636
1.01667
-1.36276
-1.04837
1.84601
1.19507
-1.88917
0.3379
0.758481
0.0517775
-1.71562
-2.53762
-1.18808
-1.1066
-0.0637818
-1.60066
-2.69616
-3.9152
-2.92018
-3.45967
-3.13525
-1.0821
-1.58613
-0.483682
-1.32478
0.147275
-0.144407
0.788172
-0.75303
-0.133109
-1.23403
-1.23562
0.709136
0.810126
-0.678081
0.251404
-0.0526748
-0.924753
0.760668
-2.42664
-3.71058
-3.1426
-4.90929
-5.25431
-6.23939
-3.47801
-3.18177
-0.935362
-0.19737
-1.23938
0.609774
-0.286333
1.14215
0.453613
-0.103466
-0.544267
0.290996
1.49219
2.05031
-0.0790162
-0.434668
0.475613
0.42072
-0.0665168
-1.52523
-0.393873
-1.61293
-2.95022
-3.91913
-5.73214
-3.48312
-3.98857
0.367031
-0.828267
0.985799
-0.295451
0.511382
0.126658
0.474363
-0.78081
-0.542615
-0.105607
0.525529
-0.306979
0.0167645
-0.168201
1.58068
0.0506858
1.46251
-0.0546162
0.530787
-0.694144
-0.80123
0.0556893
-3.2541
-2.63196
-2.68828
-0.684471
-1.949
0.218814
1.13716
0.140777
1.11245
1.52903
-0.0697433
-1.29797
0.892464
-0.562047
0.790409
-0.707458
-1.00743
-2.21069
0.487415
-2.00913
2.12622
0.128078
-1.98299
-0.793974
-1.20224
-0.148651
-1.66561
0.779191
-0.323282
0.717968
-0.881518
-0.0540742
1.19048
0.919072
0.460471
0.778972
0.659228
0.657713
0.759723
-0.0485191
1.16432
-0.458545
0.818807
-0.0923988
0.351813
-0.0386933
-0.37168
-1.04981
0.0106901
0.921597
0.257075
0.619433
0.951474
1.68193
0.380939
-0.764526
-1.1075
-0.387094
2.11801
1.56413
1.63057
1.95542
-0.927598
0.532107
-1.06505
0.571091
-0.00741784
0.244528
-0.0377664
1.13251
-0.610806
-0.424422
0.0551451
1.00565
-0.000961151
-0.344007
0.425833
2.166
-1.39572
1.10931
0.501134
-0.523485
-1.21682
-0.241076
0.626661
1.86582
-0.137686
-0.0550934
-0.337233
0.399817
-0.595384
0.633142
0.392525
-0.00323089
-0.133785
0.834339
-1.72159
-0.412513
0.906336
0.603538
-0.667054
1.09742
0.688873
1.44164
1.3113
1.8591
0.735688
-0.442135
-0.169865
0.53577
-0.137649
0.205861
2.61229
0.423581
-0.0124131
-1.81968
0.653043
0.355365
0.0333463
-1.71074
0.111394
0.395103
-0.207853
0.774288
0.885233
0.639287
-1.43162
-0.946035
1.32523
-1.02086
1.86139
-0.560068
-0.489441
1.6246
2.00614
0.696036
0.793593
0.562622
1.10878
-0.00452217
2.00612
0.486365
-1.12628
-0.433155
0.328082
0.174037
0.995931
-0.156
0.398772
0.88933
-0.09621
-0.850792
-0.0180966
0.566709
1.90756
0.392466
0.168307
1.03541
-0.795383
0.423254
0.590566
-0.455305
0.0576652
-0.276359
0.570451
0.151449
-0.0824197
0.852138
1.06256
0.761666
-1.29922
-0.378226
-0.0986209
-0.61697
-0.193948
0.944555
-0.795948
1.49806
0.27283
0.214818
0.0748518
0.405723
0.347306
-0.91172
-0.397161
0.136316
-2.69373
-0.945342
0.945643
1.75241
-0.347714
-0.863459
0.0962322
-0.191148
-0.293107
0.681458
1.33957
0.708858
-0.108124
1.05909
-0.211355
0.0480367
-0.156896
0.302239
-0.803809
-0.566306
0.816005
-0.623761
0.0583566
-0.707138
-1.19355
-1.00252
0.00107811
0.0244489
-0.880598
0.421377
-0.56856
1.88771
0.790178
0.168982
0.339479
-0.603556
0.358992
1.43734
0.208408
1.20552
-0.296739
-0.724189
-0.100184
0.0968752
0.295788
-0.212235
0.742949
0.292543
-0.23902
-1.07338
-0.473589
-0.969609
-0.531274
1.33595
-0.501183
0.621098
1.18692
0.564604
-0.782032
1.33544
0.187404
0.210158
-0.326221
1.50938
-0.109974
0.28524
2.95274
1.11711
-0.0840581
1.30313
0.320785
-0.280168
0.0437414
0.340094
-0.973782
0.982541
-1.0183
1.65008
-0.578099
0.113974
0.549827
-0.461695
0.200787
0.192158
0.0398104
1.16875
-0.249218
-0.813606
1.12352
0.98163
1.02714
0.117399
1.15266
-2.61418
1.6885
-0.406771
0.545414
0.194255
-1.30872
0.0126601
-0.267284
0.229086
-1.1444
-0.966051
0.426634
0.403833
0.688078
-0.852682
-0.170661
0.162634
-1.03146
-0.520408
-0.560388
1.11577
0.368857
0.386476
1.9122
0.955481
1.02814
2.50105
0.711564
0.571001
1.8694
0.453057
-0.859493
1.4908
0.775659
-0.306034
0.692762
0.837511
0.452909
0.222107
0.360462
0.0563045
-0.154852
0.962156
0.506371
-1.04849
-1.40431
-0.0424302
-0.33259
1.98105
-0.864255
2.92415
-1.53019
0.827622
0.549853
-0.286321
0.219046
1.67352
1.39575
0.346173
0.0379194
0.420927
-1.96794
-0.15207
1.18515
-0.0328639
0.102657
0.289329
-0.883301
-0.00268556
0.798091
-0.25151
-0.997292
1.0668
-1.23437
-0.0672167
-1.06647
-2.01822
1.09343
0.941553
-0.198986
1.78362
-0.343744
-1.26502
-0.233831
-0.276742
-0.486506
0.878773
0.352946
-0.239237
-0.804788
0.660868
-0.0742288
1.55475
1.56997
-0.463419
1.9736
0.581545
-0.0986651
0.387475
0.208133
0.265677
-0.95852
-0.576158
0.910553
-0.210651
-0.840171
1.31537
0.296803
-0.794544
-0.503983
0.827334
-1.41601
1.16539
-1.0589
0.0433305
0.813226
-1.53727
0.323348
1.0228
-1.08885
-1.84618
0.00149035
1.76347
-1.54394
-0.560218
-0.324258
2.19622
-0.447873
-0.389682
1.94695
-0.0813853
0.443138
-0.987913
0.791823
0.868047
-0.712422
-1.19189
2.03845
-0.6428
-0.33291
1.2586
0.190012
-0.0919851
0.832776
0.1892
0.59451
0.888552
-0.566892
0.0705785
-1.14977
-1.08016
0.000353717
-1.00979
-0.0832232
-1.89143
0.825337
-0.450631
-1.16016
0.869455
-1.82851
-1.07793
0.709836
-0.809757
0.12039
1.39394
1.03836
1.64357
1.47652
1.18128
-1.90188
0.132321
-0.774877
0.138523
0.660226
-0.97926
0.582408
0.125716
1.69253
1.88368
-0.235106
1.12698
1.42052
2.18813
-1.63371
-0.844111
1.43277
0.22218
-0.882538
0.925945
-0.525864
1.20978
-1.65581
-0.837305
0.886138
0.606594
0.120155
-0.319555
0.292854
0.577423
0.825631
-1.98407
-1.50933
-0.330696
1.36211
0.662623
1.23246
-0.520438
0.293493
1.48936
1.08708
-0.826781
-1.14143
-0.911242
-0.996686
-0.419491
-1.05586
0.790539
0.432269
-0.597951
-1.47767
1.19782
-0.530483
0.460016
0.752816
0.37134
-1.00429
-0.511749
0.337246
-2.33367
-1.05919
-0.0521719
-0.322839
-0.874814
-0.404889
-0.364908
1.52263
1.00562
0.403139
-1.26444
0.693946
1.0276
1.17604
0.482623
-0.30746
-1.71523
0.896984
0.239476
0.142367
-1.42199
-0.126203
0.181883
-0.881037
1.06018
-0.303605
-0.387989
-0.825291
0.850618
-1.90189
-2.25486
-0.77474
0.0117935
0.560035
-0.526822
-0.497845
0.632746
1.21065
-0.331253
-0.443044
0.375737
0.137891
0.20294
0.668612
-0.928134
1.38864
-0.199777
0.368845
-0.729472
-0.506084
-1.43719
-1.60909
0.742376
-1.91412
2.55851
1.96751
-1.24185
-0.520519
-1.41096
-2.02949
-1.61751
-0.779898
0.256709
0.699973
-0.450227
-0.123736
-1.06451
-0.500994
0.0931925
0.276183
-0.396634
1.08763
-0.0834733
0.893283
0.987647
1.29583
0.922666
-0.411632
0.288398
-0.710232
-0.414079
0.554702
0.165198
0.267487
-0.549248
-0.147364
0.175302
-0.974062
-0.506289
-0.508619
0.262984
0.317288
-0.342699
-1.16755
-0.488898
0.205851
-0.494674
0.546943
0.136135
-0.178679
1.26857
0.804195
-0.730195
-1.48695
0.236815
-0.380048
0.912498
-1.26221
0.778739
-0.113338
-0.723082
0.772484
0.518303
-1.2897
-0.69866
0.283375
0.326902
0.261823
1.22553
1.00144
-0.825767
0.391727
0.796953
0.315668
0.213408
-0.304574
-0.0812149
0.453356
0.851105
1.14724
0.0784675
-2.61203
-0.298333
0.48642
1.77491
-0.144003
-0.553217
1.28505
-0.0558681
-2.03173
-0.165965
-0.701281
-0.212918
-0.645318
-1.06556
-0.694941
-0.653439
0.952307
0.75962
0.68552
0.615437
-0.386253
0.40181
1.38332
-0.760185
1.21357
0.0804136
1.22148
2.1334
2.04398
1.50399
0.982107
0.775566
1.55724
-1.4044
0.295269
-0.166752
0.963204
-1.01428
0.209483
0.957029
0.311609
-1.45308
-0.0755818
0.787592
1.48261
1.85904
0.960487
0.896127
0.806951
0.89186
1.5748
-1.1942
-0.393021
-0.0456809
-0.146393
0.0598223
0.113162
1.44409
-0.211045
0.191039
-2.20877
0.558644
-0.477833
0.101495
-0.771817
-0.40291
0.987569
-0.375595
0.373174
-0.263197
0.556244
1.72754
0.595165
0.660443
-0.000895366
-0.926345
0.911045
0.0964682
1.06194
0.779121
1.09029
1.13929
0.335501
-1.15377
0.837346
0.304109
-1.65953
1.60827
1.0634
-0.447971
-1.44078
0.274737
-1.37065
-0.515315
0.102481
0.225417
0.238384
-1.91796
1.47163
2.31096
3.5022
1.80545
1.88682
-0.269391
0.38417
0.341599
0.687024
-0.0106618
-0.255074
-0.73302
1.60621
-0.81345
0.560707
-1.05178
0.767223
-0.977021
1.32864
0.534642
0.805255
1.38689
0.204683
0.56891
2.02524
0.333723
0.125047
-0.571666
0.983357
2.22369
1.903
1.12704
1.98493
0.665843
0.75125
1.56878
-0.0248971
0.631237
0.293026
-2.23867
-0.568314
-0.0779824
1.07735
-0.257672
0.429158
-0.705289
-0.416653
1.53347
0.146676
1.5012
0.0216849
-2.08178
-0.939227
-1.8298
-1.08784
0.813227
0.432402
0.0309231
-0.18031
0.838332
1.44583
0.433743
-1.21117
-0.154071
1.01581
-0.35425
-0.915528
-2.09027
1.77899
-1.7812
-0.742662
-0.333089
-0.311696
-0.488527
-1.61495
-0.812434
-1.04018
0.241883
0.804992
-1.71835
-0.653543
-0.492893
0.805482
-1.80203
-2.40423
-0.605932
-0.530865
0.0803886
-0.815895
-0.0109855
0.520794
-1.74603
1.01778
1.15957
0.269288
-0.340182
-1.0995
-1.57864
1.01657
-0.914058
-0.516892
-0.201625
-0.722094
1.27451
0.897524
-0.115616
1.34518
-0.350035
1.08912
-1.81339
-2.08111
-1.9759
-0.603608
-2.08275
1.15329
0.841316
0.148823
-0.6176
-1.08032
1.29787
0.540794
1.8352
1.9947
0.959074
-0.434707
1.0029
-0.637888
-2.58311
0.597573
0.0873506
0.106314
-0.295523
0.169459
-0.222319
-0.463696
-0.0112393
-0.038735
-2.39315
-1.58993
-0.988862
-1.6704
-1.43455
-2.18447
-3.06515
-0.78563
-0.849268
0.246499
-0.873739
-2.37024
-1.30888
0.23895
-0.287887
-0.3264
-1.36384
0.84438
-1.0562
0.460821
0.214867
-0.575885
0.334164
0.416323
0.783567
1.34194
1.05913
-0.562526
-2.58734
-1.54931
-0.049525
-2.19049
-2.35497
0.736092
-1.23298
-1.91488
-2.04853
-1.03822
0.260374
-0.0711042
-0.266334
0.627885
-0.149044
0.815018
0.64949
2.18618
-0.0297012
0.54448
0.54491
-0.13235
1.27581
0.765726
-0.373425
-1.66976
-0.0561285
-0.318765
-0.551848
-1.25749
-0.599837
-1.74895
-0.222497
0.4486
-0.320633
-1.37464
-0.709366
-2.47818
-1.52208
0.957484
-0.137079
0.300397
-0.14551
1.20689
0.263161
1.07038
-0.0735043
-0.870002
2.03133
-0.685881
-0.233643
-1.08137
-0.804788
-0.177249
-0.00139899
1.12497
-1.85049
0.0561079
-1.09726
-0.25938
0.63162
0.443846
-0.0104423
0.833748
-1.06555
-1.18236
-0.796634
-0.830585
-1.43972
0.198822
-0.209228
-0.615296
0.388061
-0.210655
0.43169
-1.08524
1.98355
0.997952
-0.443398
0.608788
-0.255876
1.30414
-0.176409
1.79234
-0.375988
0.0921069
0.378182
0.304462
-0.0684141
-1.08148
-1.13769
-1.36619
-1.31737
-0.82302
-0.312899
0.311221
-0.111448
-0.563794
0.382716
0.194917
0.425314
-0.419164
0.517799
-1.60255
0.197892
-0.866328
1.13918
1.59043
0.649018
2.57193
-1.67519
2.1415
0.877969
0.462261
0.494371
0.75317
1.4713
0.793665
0.703658
-0.673471
-2.14947
0.786634
-0.538826
0.831254
0.780655
0.414707
-1.86582
1.20738
2.71412
1.96036
0.170454
0.70203
0.603453
0.0828542
0.365538
-1.83696
0.442884
0.684048
1.48788
-0.317502
1.28115
0.513989
0.190653
-1.85191
-1.49154
0.477661
0.357103
-1.59372
-2.13171
-1.55206
0.695835
-0.608421
-0.209452
-0.441811
-0.543265
-1.48003
0.902216
1.47948
2.17335
-0.650966
-2.08556
0.449467
0.607822
0.41456
2.08982
-1.88372
-0.0740282
-1.4594
0.0879264
0.235296
-0.19524
0.408376
0.550942
0.783306
-1.32129
-0.885797
-1.0681
-0.543897
-0.416758
-0.474622
-1.10868
-0.0479335
-0.772309
1.49284
0.0994143
-1.83438
-1.4796
-1.14869
0.255124
-2.53077
1.15222
1.10809
-0.648624
1.1819
0.668869
-0.324016
-1.81715
0.78265
-0.390412
-0.466477
-0.79955
-1.83095
0.28723
-1.14831
-1.91814
-2.44791
1.1445
-0.344394
-0.707495
-0.971941
-0.051004
-0.0706217
1.36317
-0.0948999
1.20134
0.638664
0.979584
-0.781105
0.150075
0.0644027
-0.14178
-0.777343
1.1302
0.243009
1.03367
1.46303
-0.410735
1.35629
1.12346
-1.62766
0.488351
-0.836793
1.08778
0.11182
-0.597858
-1.20776
-1.30472
-0.97638
-0.496213
0.417214
0.448687
-0.849799
-1.27213
0.851885
-0.454005
0.548147
-0.945494
-0.502648
0.142491
0.163527
0.238982
-0.507994
0.568637
-0.217265
-2.21653
0.649161
0.953625
-1.14216
1.35648
3.05984
1.63884
1.02994
-1.88483
1.66564
0.108558
-0.104717
0.787229
1.16802
0.33877
-0.552001
0.893362
-0.765783
2.02253
-1.00984
-0.559417
0.666981
-1.44259
1.17626
-1.15103
-0.237276
0.231613
0.457709
1.18797
1.81901
0.959253
0.328702
-1.49019
0.850942
0.461664
1.25591
-0.216997
-2.28328
0.618049
-0.232807
0.263561
0.597161
0.657804
-1.13846
1.17171
-0.561144
-1.35352
0.236968
-0.939675
1.09663
0.834114
0.103197
-0.880542
0.0600108
0.317268
0.240002
-0.550034
1.1524
0.43107
0.87113
0.328509
0.354282
-0.68517
1.6595
0.806848
1.27434
-0.109231
0.150801
-1.1255
1.51539
1.48964
-0.685443
-0.665127
-1.084
-0.819499
0.748464
-0.578881
-0.282592
-0.339612
-0.561063
-0.159133
0.981224
0.427493
0.613834
1.60648
-0.00366769
0.479834
-1.59305
-1.11159
-1.04637
0.934345
-0.12447
-1.25462
-2.16207
1.66686
-1.21729
-0.930095
-0.208469
-0.676786
-0.84506
-0.290339
-0.334494
-0.336393
-0.924736
1.241
0.264911
-1.24843
1.27622
-2.0191
0.22366
2.71098
0.916714
-0.350274
-0.830521
-0.49545
1.13984
0.155114
-0.6645
0.0889745
0.969853
1.64967
-0.744017
0.768839
1.31585
0.954472
-0.978872
-0.00960233
-0.472161
0.118653
-1.03867
0.13078
1.45316
-1.19181
-0.691209
0.994313
0.654221
1.65436
1.25937
0.732554
-0.130906
0.0373957
0.337128
0.0600028
1.39663
0.361759
1.39271
0.0922242
0.797327
1.79417
1.39415
0.495211
0.472318
0.42888
-0.00382834
-0.696826
0.231323
-0.0575601
-0.270105
0.0937807
1.97381
0.242355
0.474565
-0.051807
-1.13931
-0.204842
0.0739865
0.00390048
-2.01068
0.49935
-1.55413
-0.867361
-0.761221
0.879908
-0.470994
0.0171784
-0.552106
0.500856
-0.107361
1.30324
0.333012
1.16282
0.65751
1.37864
-0.105151
-0.342202
-1.08032
-0.0438713
-0.784844
-0.774627
0.328663
-0.178396
0.459693
1.10251
-0.411653
0.317618
-0.326838
-0.772438
-0.57745
-0.973021
0.500833
0.0173549
0.934793
1.15219
-0.86095
0.160924
0.0643247
0.857016
-1.0378
-0.71258
-0.897735
1.17605
1.55854
2.43789
1.14231
-1.92611
-0.612115
-0.679613
0.131788
1.23199
1.75425
1.24533
-0.00674697
-1.33447
0.37443
-0.503222
-1.78585
-2.01464
-0.705585
1.4876
-1.44586
-0.188406
-0.832659
-0.258476
-0.992256
0.213325
-0.380986
0.407772
-0.632338
-0.177284
1.32911
-0.225649
-0.0573104
-0.242453
0.155388
0.795277
0.917668
0.580873
-0.600258
0.127164
-0.874448
-0.381962
1.31697
-0.889662
-1.47058
-1.84698
-1.86529
-1.02655
-1.09976
-1.02651
0.166674
-0.511997
-0.849174
0.233488
1.4148
-0.412222
-0.737157
0.655517
-0.572967
0.396197
0.41932
1.09526
-0.800202
1.66281
-0.0448682
1.03828
-0.115523
-1.76047
1.20836
-0.334738
0.93368
0.118394
-2.90099
-1.78484
0.25139
-0.881873
0.522408
-1.29028
-1.9864
-1.87495
-0.560447
-1.30234
1.54344
2.00665
-0.111791
0.50112
-0.22674
1.45415
-0.0847336
0.351731
-0.297431
-1.29764
1.39164
1.59034
2.01912
0.532161
1.52595
0.302999
0.993434
1.31573
-1.03915
0.0745097
0.0818399
-0.623863
-1.50201
-0.692101
-0.805856
-0.845635
0.854435
-0.853197
-0.603416
-0.534003
1.81247
-0.6029
0.550985
-0.356074
-0.115176
0.118539
0.886
-0.378167
1.27759
0.784313
-0.159423
-1.75684
-0.258506
1.6815
1.88234
-0.286195
-0.332373
2.42527
-0.138563
-0.395291
-0.393381
-0.523126
0.691071
-0.452775
0.84753
-0.163367
-0.971257
0.604211
0.656411
0.637715
0.0464989
-0.541017
0.000984868
-0.283994
-0.945916
1.2526
2.98735
1.31691
0.512306
0.864477
0.207484
1.31481
0.114436
0.593124
1.16861
1.00491
-0.231691
-1.24097
0.188202
0.19906
-0.376204
0.652256
0.0339883
0.00674129
1.03006
0.504794
-0.516355
1.66105
-0.838937
0.586594
0.771252
0.853091
-0.508677
0.235606
0.227848
0.072133
0.0235523
-0.428619
1.72932
-0.399251
1.68907
1.45768
-1.12357
-1.37199
1.39006
0.15227
-0.686461
0.649849
0.485535
0.569095
0.687992
-0.827945
0.139162
-0.296758
-0.41279
2.58862
-0.51103
1.04116
1.14184
0.077846
0.896144
-0.718373
-0.470114
1.56862
-0.336966
0.392281
2.39913
0.0752645
-2.20305
-1.2686
-1.28015
-0.489796
0.0981102
0.0435167
-0.540985
-0.657675
0.690877
-1.59038
-0.787392
0.839332
-2.06774
0.480606
1.33835
-0.258777
1.5097
-0.454433
-1.01467
-0.908772
0.350802
0.241423
0.767328
-0.227523
0.911135
-0.407177
-1.95986
-1.15019
-1.869
0.726065
0.283852
-0.746516
0.246487
1.09058
0.365065
-2.04354
-0.962892
0.467084
0.548053
-1.13471
1.38481
0.0685621
0.478038
-0.0571469
0.226465
0.133574
-0.369542
-1.47852
-0.564971
0.879866
-0.00650506
-2.15323
-0.56435
-0.346054
-0.450949
-2.6233
0.417805
-1.76255
-0.203534
-0.899724
-0.673048
1.14698
-0.199048
0.679219
-1.32283
-1.43713
-1.30002
-2.05864
1.64948
-0.318742
0.0994847
-1.52338
0.264509
0.995795
1.13981
-0.0210132
-1.79031
-2.32473
-0.0698961
0.523519
-3.00554
-0.556951
-1.66737
-0.515681
-1.29179
0.880533
0.281734
0.265579
1.34628
0.531831
0.117001
-0.86989
-0.131394
0.382303
-0.667592
1.06108
0.789227
-0.463151
0.6896
0.92455
0.841215
0.299437
0.469892
-0.672558
-0.126877
-1.31554
-0.631575
-1.59098
-1.81504
-1.05074
-0.828052
-0.606268
-0.960221
0.852901
-0.962817
0.140127
0.457173
-0.645797
0.256703
1.00681
2.02562
0.449676
1.23574
0.805752
0.0344829
0.400825
-1.29133
0.0687157
-0.442951
1.60394
0.155319
1.3744
1.73848
0.662995
-0.226878
-1.09707
0.369455
-0.0497723
-0.333767
-0.119163
-1.93213
-0.0646245
-0.159399
1.00482
0.57768
0.142062
2.02904
2.93781
0.488206
-0.4145
1.19095
2.01328
-0.646031
0.53397
1.15753
-0.974498
-0.104811
0.690916
2.20665
2.73559
-0.399689
-1.10826
-1.53568
-1.66119
0.558519
1.99959
0.504904
2.04146
-0.739077
0.621609
1.5877
0.0512303
0.637563
2.20546
1.55828
1.9086
-0.277716
1.49018
1.6867
-0.050385
1.8321
0.724365
1.7668
1.50226
-1.26906
0.151005
0.844718
-0.527357
0.260598
2.61319
-1.76146
-1.31592
-2.18832
0.723405
1.27089
0.770032
1.2343
0.301101
2.22072
1.13947
0.403302
1.29736
-1.42087
0.774532
-0.857575
0.500795
-1.86772
1.83227
-0.505252
0.764812
0.164745
-0.907492
-1.36437
0.826208
-0.0191458
-0.525638
1.86396
0.118833
0.387307
-1.52256
-2.46691
-0.438797
0.13224
1.69428
0.588514
1.95652
2.03989
0.0134479
1.29142
0.297437
-0.0523034
0.212264
-1.55758
0.193584
0.265676
-2.0234
0.833348
0.782835
1.23786
-0.709895
1.06235
1.07369
0.211896
-0.958189
0.829723
0.388928
-0.831042
0.420451
0.93166
-0.421643
-0.895806
-0.245156
0.960735
-0.318569
0.260391
-1.24308
-0.839302
0.214426
0.348571
-2.13787
0.482536
-0.224143
-0.475848
-0.363915
1.24327
0.684444
-1.05922
1.09291
-0.835777
0.374769
-0.786803
0.101775
0.454653
0.28438
1.63265
0.0655444
0.672966
-1.37037
0.37278
-1.14709
-0.932293
-2.36392
-0.843019
-1.57011
-3.05943
-0.561033
0.32019
-0.702009
-0.941344
1.07097
1.78095
-0.142916
-0.953553
0.0508605
-0.574877
0.984464
-0.521212
-0.104777
-0.579597
0.729743
-1.99189
0.315747
0.641165
0.206054
1.04039
-0.412804
0.238183
-1.9091
-0.866094
0.652386
0.269073
0.414109
0.13822
0.0925088
0.368139
1.77451
-0.76471
0.0653367
-0.376153
1.04676
-0.363503
-0.863358
1.60218
-0.492029
1.0933
-1.28667
-1.13131
-0.337933
0.576284
-1.13702
-0.459972
1.08091
-0.366201
-0.776432
0.143483
0.0782115
-0.0406288
0.528654
0.328186
1.39352
0.475657
1.82285
1.69086
0.802129
1.72817
-1.38364
-1.9168
-0.774941
-0.601409
0.0647678
-0.0387281
-0.956551
1.08772
0.501142
-0.228322
-2.05037
-0.932703
0.709642
1.54929
-0.333113
0.359479
0.66706
0.0580101
1.5643
-0.77583
0.421027
0.650441
-0.316642
-0.0142236
1.02809
-1.4311
0.573628
0.35224
-2.03545
-0.162211
1.24874
-0.714372
0.74676
0.803403
-0.950075
1.30872
0.6091
-0.192043
-0.0996485
-0.0144868
1.00476
-0.4718
-0.836573
2.62238
-0.199977
0.458834
0.670476
-0.345143
-0.896468
-1.58203
0.277434
-0.0635368
0.0244057
-0.625529
0.883199
-0.196805
-0.590445
-0.30634
0.207597
0.145831
-1.6401
1.64227
0.392981
-1.70541
1.19091
-0.99226
-2.06558
-0.276156
-0.0810021
-0.748465
1.05417
-0.623581
0.213328
0.988451
-1.2523
0.352364
-1.2185
-2.91229
0.0149418
1.21753
-0.0370248
0.634852
-0.308038
-0.348223
0.675354
0.675296
1.89954
-0.564409
-0.614111
-2.38571
-1.55481
0.26089
1.78732
-0.651458
-1.53582
0.0516268
0.0946003
-0.625982
-0.881639
0.101107
-0.692479
1.22663
-0.243268
0.640788
0.923005
0.70335
0.429387
1.10244
-0.0389389
0.213325
1.33886
0.997423
2.13793
1.10032
0.153126
-0.628039
1.20905
0.783405
-1.93614
1.23798
-0.681298
-0.725342
-0.614636
1.45936
-0.965556
0.774179
0.353459
-1.72526
-1.01268
-1.24314
0.625066
0.179094
-0.425991
0.0193967
0.203041
1.19762
1.89918
0.310866
1.00134
1.05376
1.16939
-0.591613
0.109931
-0.12064
1.00216
1.28901
-0.459202
-0.305304
-0.0371391
-0.620236
0.160806
-0.487678
1.12407
-0.0123131
-0.290784
-2.45809
-0.0374366
0.922828
0.031268
-0.195499
1.95172
-0.524708
2.06861
0.700552
-0.13962
0.724298
-0.210592
0.36828
-0.0795342
-1.28591
0.226993
-0.181011
-0.271798
1.8727
0.493235
-0.694333
0.0391821
0.505855
-0.954714
-0.793176
-0.897138
2.02284
-0.916435
-0.627738
0.884052
-1.2894
0.109013
-1.17248
-0.00816507
0.363713
1.40889
0.641881
-0.716139
-0.602419
-3.40493
-4.09781
-2.12703
-1.0382
-0.315984
1.81774
-0.249787
-0.898119
1.14826
1.41036
-0.0886767
1.35288
-0.6143
0.691678
-0.871036
-1.86601
-0.120698
-0.11517
1.13111
-1.42112
0.869063
2.09986
0.916391
-1.71145
0.499578
-1.12794
-0.236715
-1.4038
-1.76234
-2.16706
-1.89562
-0.190816
-1.78865
0.800511
0.107509
1.02768
1.08401
-1.05609
-1.75549
0.135477
-0.2762
-0.354107
-0.437266
-0.847396
0.532297
-1.22026
0.585859
1.09205
-0.353553
-0.762315
0.129293
-0.428596
0.97834
0.280761
-0.829576
-2.85046
-3.92824
-2.0608
0.237704
1.00717
-0.248042
-1.64552
0.769425
2.84389
0.61982
-0.0906655
0.0881588
-0.639958
-1.74022
1.34251
-0.23126
-0.525937
1.87986
-1.69252
-0.148036
0.446459
0.143041
-1.92113
-0.278147
0.371079
0.533626
0.179471
-1.8173
-4.74212
-3.91868
-0.589886
1.9532
-2.04818
0.139239
0.857358
0.652357
1.87841
2.08998
1.62067
-0.412434
-0.767512
1.55538
-0.306658
-1.01138
1.18065
2.01363
0.317254
1.25897
0.00377104
-0.395007
1.04234
0.283006
-0.912061
0.170911
0.584449
-0.907816
-4.61708
-0.269465
0.171788
-0.943302
0.852783
-1.00416
0.447531
-2.1217
-0.642597
-0.135858
-0.101806
-0.0420182
0.25625
1.02601
0.731486
2.13803
-2.87132
-1.67492
-0.232517
-0.614618
0.132378
0.182953
-0.41527
-0.680452
1.30932
-0.894874
-0.841538
-3.87527
-1.89893
-0.0944732
0.260861
1.35949
1.44573
0.316591
1.15218
-0.358683
0.959736
-0.0477072
-1.79906
-0.836924
-1.09323
0.196741
0.0895776
-0.804053
2.32554
0.727258
-0.108391
0.915327
0.349017
-0.139584
-1.84282
1.07266
-0.806284
-0.392585
-3.47003
-0.274342
0.343856
1.74845
-0.468178
-0.11074
0.944035
0.739505
1.07646
-0.301474
1.36221
0.559505
-0.361633
1.49305
-0.281843
0.648236
2.00422
-0.981222
-0.442898
-1.64262
-1.15554
-1.13982
0.370683
-0.264389
-0.0478039
-1.49612
-0.188197
-0.188836
-0.249838
-0.529332
-0.324507
0.257734
2.29761
1.13002
0.131337
1.18764
0.244159
0.136232
-0.510677
-0.130833
-0.0187655
0.599127
-1.023
0.497853
-1.11938
-1.19061
-1.89792
0.96033
-0.183455
-0.519062
-0.131785
-0.264173
0.743663
0.840029
-0.598494
-0.0795649
-0.994662
1.68337
0.286501
-0.257167
-0.169425
1.33048
0.998486
0.938036
-0.758176
-0.548417
-0.281956
-1.42784
1.23164
1.7008
1.12729
0.317358
-3.46405
0.665823
-0.0532644
-1.69672
0.525598
0.399627
-0.66605
0.357604
-0.0301435
1.09039
-0.500454
0.691512
-1.23755
-0.746254
0.0688711
0.877463
0.219637
0.776476
0.641046
-1.23403
0.213179
2.13913
-0.237651
0.866434
-1.22325
0.27841
0.808114
0.107978
-0.407463
-0.00445931
-1.64509
1.22481
-0.299936
-0.74145
0.335908
-0.138943
-0.237053
0.234213
-0.339971
-0.160074
1.00569
0.729581
1.23712
0.739725
0.23465
0.00992434
0.977647
-0.368449
0.501751
0.307131
0.0935522
0.31973
0.51428
-1.00122
-1.19167
-0.627751
-1.22993
-0.92834
-0.922188
-0.0278517
3.25553
-0.49219
1.63755
-0.290044
0.107625
1.36322
-1.89022
0.374844
-0.275161
-0.406337
0.498067
-0.00948006
-0.910043
-1.05953
-0.0693227
0.361408
0.737368
0.0836211
-0.533672
-0.278535
-0.247382
0.548691
-0.56434
0.911407
1.6536
-0.0333107
0.728693
0.541053
-0.806086
-0.209003
-0.327934
0.25059
-0.846118
0.817727
0.440997
1.83798
-0.161886
0.0240868
-0.777455
-0.525427
0.868913
0.270346
-0.163258
-0.0560808
0.290939
0.153582
-1.52264
1.07893
-0.57248
-0.224555
1.46148
0.655191
-1.15349
0.715827
0.311287
-0.836156
-0.359102
0.36228
-0.761262
0.761042
-0.118726
0.159913
0.550098
0.350423
-0.565305
-0.592376
-0.4892
0.0687048
-0.716977
-1.06312
-0.162536
0.268602
-0.230114
-0.0848374
1.71041
1.27014
-2.28568
0.490625
-1.81242
-0.113896
0.431983
-0.993541
0.677675
-0.891784
-1.35972
0.635389
-0.762029
-0.522861
-0.343141
-1.05216
0.942074
0.273971
1.72944
-0.882859
0.741905
0.485519
0.64567
0.191664
-1.709
-1.0658
0.389959
0.131966
-0.0798007
1.28591
-0.123486
0.918067
0.0708701
0.606302
1.00462
0.199383
-0.828858
-1.00257
-0.069837
-1.82779
-0.437499
0.0923046
-0.16914
1.61592
0.361203
0.16838
0.206402
-0.48917
-0.670105
-0.504548
-0.861897
-0.742008
-0.632819
2.14857
-1.09315
0.87848
-0.644443
-0.105448
-2.06285
2.4114
-0.396395
1.52196
-0.498736
0.750168
1.07144
0.545046
0.558922
-0.0205073
-0.179494
-1.5241
0.719092
0.10095
1.01151
-2.02967
1.06182
0.626025
1.18032
1.73106
-0.496514
0.986322
-0.456417
-0.630416
-3.49381
-0.52063
-0.419908
-0.717795
-1.2598
1.00887
-1.45496
0.100738
-0.932704
1.39227
0.891364
-1.9043
0.424723
0.484493
1.41954
1.53289
-1.40326
-0.388394
0.053657
-0.222547
0.671179
0.957347
0.304203
0.466397
-0.996227
0.705509
-0.494426
1.10497
0.38822
0.0729923
-2.27786
-1.61024
-0.0352139
1.88025
1.87738
-0.0414147
-0.604694
-0.0737582
-0.143889
1.41063
-1.33732
-0.573129
-0.352381
-0.856047
1.56584
0.616319
-0.153401
0.678451
-0.893567
-0.546936
-1.03571
-1.17578
0.307595
0.00154283
-0.241151
-0.371383
0.187929
-0.030707
0.616944
1.1593
0.632081
0.118646
0.360849
1.1016
0.150381
-0.131346
0.573408
-0.254518
0.675734
-1.4763
1.25647
0.270613
1.85337
-0.578419
-0.118155
0.266457
-0.879793
-1.36921
-1.44276
-0.765076
-1.46935
-0.360757
-1.63357
0.485158
0.323566
-0.229569
0.663166
-1.00243
-0.443646
-3.22305
-0.299651
-0.327404
-0.0785175
-0.734528
0.888933
-0.171331
-0.383444
0.194802
0.994691
-0.993753
0.0897052
1.79691
0.0204346
0.640686
-0.339068
0.445395
0.51265
0.127938
0.919421
1.25368
-1.4143
1.34497
-1.25129
-1.61166
-1.68383
-1.03035
0.150002
0.35835
-1.24622
1.55003
-1.05266
-0.950178
1.47764
0.00609052
0.30275
-1.94048
-0.781445
-1.9532
-0.503776
0.737085
-0.841688
0.532241
0.505248
-0.569371
0.223554
-1.41214
-3.11669
-2.27503
-2.20318
0.509547
-0.247957
0.413383
-0.110651
-0.963041
0.470149
-0.564602
-1.18122
0.0805556
1.81691
-0.230866
0.596301
0.0103051
-0.882409
-1.1042
0.679443
-2.51389
-2.03657
-0.86538
-1.02899
-0.0594473
-2.44944
-0.796321
-1.50133
-1.33497
-2.06011
0.209517
-1.02031
0.0448846
-1.57002
-0.169664
0.966816
-0.439074
0.667607
0.419482
0.225964
0.196664
-0.86409
-0.807423
-0.0993177
0.995086
0.284384
-1.22599
1.10315
0.379475
-0.86493
-0.404386
-0.250318
-0.744652
0.373233
0.301028
0.950029
0.401998
0.362594
1.08379
1.03188
0.522082
1.36175
-0.861278
2.00647
-1.77265
-1.82367
-0.37515
-1.21159
-0.286934
0.631112
0.68534
-1.58464
0.32974
-0.468781
1.04095
0.3536
-0.254265
-0.811465
-0.0294865
-0.524908
0.894924
-1.27581
-0.168853
0.830718
0.266215
0.247399
-1.61117
1.30471
0.23809
0.609696
-0.874865
-0.986509
0.0606995
-1.14118
0.208757
0.417825
0.947226
-0.265181
-0.58661
0.63918
-0.0916348
-0.227476
0.359642
1.04896
-0.325416
0.437676
-2.23956
-0.135407
-1.82668
0.651925
0.326188
1.16391
-0.0314186
1.87947
-1.63077
-0.155562
-0.619732
0.638929
-0.485297
-1.22493
0.23091
-2.37421
1.48363
-0.389945
0.41528
-0.639834
0.89405
0.140357
-0.307197
0.979847
1.07594
0.54766
0.283502
-0.451465
0.290447
0.428578
-1.00401
0.736231
1.33854
-0.332743
-0.343378
0.819409
-0.0852437
2.08602
-0.564396
0.97024
0.439125
2.17141
1.20073
0.335942
-1.35553
0.459885
-0.410385
0.621369
0.160513
0.116505
-0.691728
0.372955
-0.471569
0.937394
2.05969
2.8086
2.26277
2.07221
1.11728
2.08546
0.966827
0.6226
-0.068283
0.324238
-0.0524345
0.105072
-1.27872
2.38532
-0.220858
-1.05064
1.62355
0.389022
1.09835
-0.21278
1.31076
-0.417895
0.727754
0.108907
-0.584211
-0.21127
-0.212283
2.23421
2.24599
1.43588
2.06901
0.971202
1.2715
0.837736
-0.527575
0.970265
1.31416
0.120463
0.342993
-0.416809
-0.449935
1.55331
0.00560314
-1.45434
0.654993
0.451155
0.526733
1.09133
1.68403
0.661999
0.645065
0.244825
0.188791
0.755997
-0.169607
-0.595421
2.2491
0.12636
-0.806378
1.49925
0.23629
1.17191
0.0414626
0.915243
-0.393928
1.32827
1.49927
0.920021
-0.807688
0.997714
0.694571
-0.577802
-0.261964
-0.252558
-1.35931
-0.908403
-0.694856
0.769598
0.15041
-0.440653
0.594702
0.398251
0.619586
0.486953
0.837867
1.12691
2.01632
2.24241
-0.487946
1.73719
0.962027
1.33728
1.23818
-0.577795
-0.629254
1.09448
1.02533
-0.152101
-1.22768
-1.21257
-0.191806
0.342931
-0.238629
0.986616
-0.943741
-0.599806
0.493003
-0.449107
0.663978
0.495485
0.829337
0.160114
-0.622619
-0.0609302
-1.67202
-0.272997
-0.829256
-1.70826
0.283484
-0.59704
-2.06438
1.62397
1.21274
-0.979421
-0.000596666
-0.703824
-1.8091
1.0327
0.564483
-0.301136
0.801316
0.50763
1.46269
1.13397
0.794853
0.919261
-0.4007
-1.12263
-1.56119
0.631942
-1.21808
1.37305
0.460749
0.91486
1.06247
1.39823
-1.46717
-0.613061
-0.544792
-2.09771
0.769314
-1.60441
-1.81367
0.360439
0.965998
-0.0974881
-0.774623
-1.37608
-1.26257
-1.54535
0.677343
0.478345
0.430041
-0.440506
2.34181
-0.00698037
0.420494
1.27631
0.876761
0.632939
0.1377
0.151895
0.682935
-1.10683
-1.08634
-0.703039
-0.361491
-0.699705
-2.1934
0.0366627
-1.53795
-1.32921
0.081015
-0.885332
-0.306088
-0.00388249
-0.400706
-1.6362
-0.290394
-1.77069
0.850447
1.79542
0.202051
0.502699
1.70562
0.741905
-0.26989
0.129596
0.640896
-1.1034
0.254955
0.0736058
-0.923913
-1.36244
0.759905
-0.739454
-2.04253
1.28361
-0.992388
-0.290682
-1.03864
-1.37451
-1.02033
-0.743038
-0.389669
0.949122
0.272964
-0.769159
-0.565068
0.0567674
-0.546066
-0.30299
-0.81334
1.72549
0.569177
-0.740237
1.16495
0.429163
1.30791
2.59893
-1.3281
0.787052
0.327746
-0.881698
-0.718493
-0.609739
-0.269059
-0.594175
-1.16056
-0.461966
-0.581798
-1.00279
1.56015
0.405343
-1.72009
-0.953659
-0.358189
-0.224329
0.152009
1.15331
-0.583699
-0.755096
-0.00371272
-0.20459
-0.741946
-0.497076
0.477158
0.375992
-2.135
0.936078
0.667835
1.85587
1.76646
1.0051
1.9441
0.338965
-0.784698
2.57646
-0.415772
0.356193
1.80925
-1.29303
-1.25862
0.496473
-1.16194
-0.706843
-2.18692
0.318041
0.599023
-1.34894
0.61333
-0.0513944
-0.66231
0.878229
1.07878
1.2965
-0.722919
0.784651
0.0377798
-0.568766
1.10604
0.0235264
1.38995
-0.0681786
1.48867
1.03006
0.567357
1.19042
0.147121
0.00189891
-0.146683
1.58051
-0.0596955
1.84877
-2.45213
-0.0339662
-1.66508
-0.901576
0.0230913
1.37429
-1.00756
0.714305
0.678391
-0.68342
-0.897193
-0.327451
-1.00367
2.18584
-0.313758
-1.48851
0.047074
1.44554
1.36398
0.123778
0.838973
-0.19333
-0.952054
1.75992
1.21756
0.0818042
-1.08489
-0.418525
-0.829891
-2.03394
-0.505894
-1.2063
-0.778839
-0.075057
-1.18525
-1.5759
1.27789
0.889646
0.0394042
0.907059
-1.21932
-1.86758
-0.645003
0.12493
1.05193
0.540198
0.593895
1.51029
1.02864
-1.12575
0.0484047
1.23846
1.15858
1.08903
0.0640466
-0.784603
-0.271484
-0.236148
0.205661
-1.68838
-1.14895
-1.21842
0.0758385
-0.864098
0.844494
1.96905
-2.06609
-0.336107
0.139861
0.706705
-0.849644
0.813367
-1.11823
0.557441
1.62229
0.780618
0.633576
-0.777169
0.42397
-0.905108
0.194718
0.887995
-1.04079
-0.123392
-0.509396
0.418496
-0.337898
-0.94583
-2.68372
0.620568
-2.67804
0.315667
-1.10793
-0.412362
0.342927
-0.621941
0.258124
-0.428863
0.771336
1.07094
-0.0389143
-1.39834
1.00828
-0.31486
-1.10609
-2.05178
-1.00422
-0.147937
-0.873149
-0.326638
0.748928
0.954368
-0.860365
-0.782482
0.400242
1.00115
-0.0952696
-0.817826
-2.09171
-1.00534
-0.867823
-0.864829
0.0114346
0.0234618
-0.481498
-1.18359
-0.0284659
0.566623
0.439489
1.98047
-1.18107
1.82347
0.828698
0.295135
0.64314
-0.640256
0.416168
1.37983
-0.751482
-1.53467
0.266788
-0.0454179
-1.54825
1.5043
0.0884701
1.22148
0.489113
-1.27604
1.27135
0.888181
-0.196783
0.862011
0.750184
-0.0741281
1.27955
-0.100299
1.00639
0.7205
0.625755
0.425986
-1.18958
-0.424799
0.283313
0.363476
0.671944
-0.824876
1.38329
1.87103
0.267332
1.49964
0.574614
-0.828923
0.485658
0.595125
0.666102
1.80066
-0.369352
1.24094
-0.248798
0.48843
0.72498
0.0386271
-0.354039
0.642086
0.875046
0.411904
-0.0697363
-0.955752
1.76604
-1.79929
-0.64479
-0.825903
-0.178716
-0.64195
0.170531
0.440873
0.267096
0.827859
2.32194
1.14735
0.989337
1.65981
1.97659
0.820003
1.61197
1.01228
0.554783
-0.39808
-0.619851
0.0566426
-1.11765
-1.01084
-1.33114
0.0185552
-0.375076
-0.410729
-0.129594
0.610339
-0.358197
1.38914
-0.509715
0.105989
0.660963
0.756503
0.229274
2.17555
-0.0683503
2.38335
1.73208
1.74982
-0.842413
1.21049
-0.218224
0.415937
0.879147
0.25272
1.79248
-0.0352305
0.817565
-1.0392
-0.0910121
-0.215166
-1.12276
0.621568
-0.223838
0.440873
1.22952
0.627411
0.264957
2.01537
-0.392863
0.123359
1.01089
-1.09172
1.18576
1.91593
1.32772
0.538992
0.0540738
1.41566
0.262928
1.14872
0.0125363
-0.433433
0.271338
-0.311387
3.07809
0.513321
-0.29307
-0.19336
0.160579
0.67818
-0.607926
-0.923695
0.108508
1.37987
0.32382
0.917472
1.07334
-0.851553
-3.47482
-1.30198
-0.853221
1.42423
0.290617
-1.13642
-0.984957
0.962205
-1.83187
0.439268
-1.1687
1.06811
-0.259041
0.0165603
0.33766
-0.83207
-1.28967
-0.288314
-2.71779
0.433715
0.805826
2.13294
0.914753
0.641835
0.0928233
0.216863
0.0391066
1.04849
-1.31558
0.57382
-0.295253
1.13321
-0.107294
0.763763
0.235788
1.10956
0.418345
1.46079
-0.498542
0.166322
0.383282
-1.04608
-0.154216
0.923244
-0.417212
0.651901
-0.779162
-1.2943
1.06779
-0.636576
-0.60896
1.00862
-0.0900384
0.0821861
0.941758
0.244973
-0.656689
0.373236
0.0625096
1.08688
-0.471341
0.151614
-0.108185
0.837618
-0.862118
0.237167
0.0493219
-0.186151
1.18275
-0.0755935
0.0501037
-0.804008
0.884316
0.821716
-2.48244
0.77537
-1.02467
-2.16348
-0.00686309
0.301078
0.0607056
0.184821
-1.07183
0.564694
0.538265
1.38159
-0.492339
-1.80016
-0.783162
0.509692
1.03821
1.4814
-0.199558
1.6784
-1.27718
-1.47209
-0.326792
-0.650461
-0.892744
-1.7523
1.44034
-1.17785
1.42838
-0.0850927
1.047
2.49914
-0.249019
0.378763
-0.520459
2.04009
0.0754292
0.384433
-1.14972
-0.153873
1.86241
2.16084
-0.580675
1.01865
-0.0548014
1.76105
0.747627
-1.00597
0.140178
1.16843
-0.86214
0.594546
-1.04295
-0.179385
0.578344
0.205734
-0.958894
2.03012
0.0379517
-0.486513
-0.382706
2.91303
0.279785
-0.570467
-0.289237
-0.397488
0.319516
-1.06417
-0.935864
0.796802
-1.90365
-1.0431
-1.65953
0.485351
0.26357
0.326087
0.357905
-0.582293
-0.605258
-1.34891
0.84248
0.363484
0.132445
-0.184624
-0.480023
-0.219274
-0.0547404
-1.57198
-0.28626
-0.769493
-0.560942
0.166703
-0.363354
0.938034
-0.455047
-0.452358
1.20503
1.43692
0.4645
0.0855086
-0.196765
-1.85411
0.172087
-1.01067
-0.631049
-0.502581
-2.53447
0.372573
-0.86383
0.369641
1.40651
-0.648481
-1.40364
-0.612342
-0.976768
0.0905355
-0.816285
-0.623924
-1.46505
-0.883818
-1.18643
-1.13049
-0.222092
-0.720312
-0.117818
-1.77613
-0.507086
-0.723719
-0.0264565
-0.602212
0.10766
-0.553501
0.228085
-0.0757797
0.498712
0.792443
1.72634
3.30781
1.67518
-0.199071
0.569159
1.4848
1.3982
-2.46586
-0.514122
2.01933
-2.04642
-0.932247
0.0926372
0.260256
0.655118
0.309855
-0.794407
0.825214
-0.992355
-0.951337
0.108109
-0.596364
-0.11792
-0.413506
0.526445
-0.0034969
-1.37253
-0.0868007
-0.320496
-0.442152
-0.171726
1.02411
0.886127
-1.26741
0.717195
-0.559591
-0.714607
1.46096
-1.06103
0.0593458
-1.9756
1.30857
-2.01509
-0.81216
1.58891
1.39035
0.989186
-1.42277
-0.763867
-0.936318
0.575439
1.37039
-1.77518
0.155369
-0.912163
-0.544498
0.304631
-0.716977
-0.764186
0.389703
0.30373
-0.235211
1.93379
-0.166664
0.433141
0.423581
-0.619834
0.392451
-1.78626
0.512612
0.84618
0.494953
-1.21288
-3.09712
0.63464
0.427311
-0.126674
-0.180371
-1.49044
0.0740268
0.685067
-2.3248
0.783428
-1.11685
-0.54869
0.77903
-1.09963
0.392985
1.74378
0.723535
1.04594
-1.09071
-2.237
-0.751704
-0.669055
-0.126439
-0.0728213
0.351635
-0.450537
-1.32759
1.04275
-0.554426
0.285938
1.17835
-0.109403
-1.39839
0.117241
0.400442
-0.78939
-0.113565
-1.26196
1.18988
0.535102
0.874679
0.182778
1.03116
0.740255
2.39483
0.464775
-1.45385
0.0491222
-0.0397414
1.15503
0.414917
-1.03166
-1.18028
-0.637943
0.978841
0.258296
0.270019
-0.476298
-0.808633
-0.785452
1.4445
-0.403613
0.124136
0.76068
0.136104
0.813565
-0.0708859
1.75149
-0.898596
1.07114
-0.188281
-0.530798
-0.818931
-0.136221
0.16413
1.78327
-2.13944
-1.27309
-1.19222
1.09827
2.46583
-0.735615
-0.641424
0.136316
1.29872
0.0731615
-1.10046
-0.0117458
-0.899107
2.2126
0.0430951
-1.16014
-1.27812
-0.51856
0.844889
-2.03405
0.286089
-1.30905
-0.247313
0.159698
-0.474501
-1.27179
-1.25691
-1.99874
-0.164729
-1.00897
-0.143221
0.831487
0.868952
0.591117
-2.37015
0.879239
0.69047
-0.233964
2.29816
2.2259
0.0201387
1.38887
-0.90131
-0.828598
0.214921
-1.52136
-0.048702
-0.506244
-0.824035
0.508183
-0.963453
-1.35637
0.528917
0.447415
0.854595
0.820848
-0.188995
-1.06518
-0.753375
0.22036
0.00238832
0.534564
0.425119
1.33407
0.616551
-0.463831
-0.405481
0.230728
1.24198
2.6255
0.600938
-0.547805
-2.06588
-0.633085
0.325107
0.126523
-0.424
-1.58159
-0.0903602
0.846438
0.660615
2.27681
0.772632
-0.77357
-0.310891
0.611744
0.605875
0.317582
0.541451
1.27166
-0.401175
-0.830101
-1.14761
0.130326
1.22857
1.93509
0.262467
-0.179987
2.27975
1.38016
0.175226
0.245568
-0.506283
-1.66713
0.63066
0.164019
1.60081
0.94079
0.324858
-0.443708
-1.85065
-0.932451
-0.255145
0.0361827
-0.561501
0.765827
-0.00837523
1.20886
0.989029
0.215391
1.56331
1.45948
1.30761
1.47694
0.0565862
0.71942
0.372721
-0.280861
1.90082
-1.22083
0.688773
-0.407601
-0.932631
0.906956
0.222398
-0.169593
-1.92184
-2.01789
0.241186
-2.02313
1.64576
0.828133
-0.265434
0.208196
-1.16755
-0.127542
0.624632
1.4671
-0.589248
1.34178
0.404968
-0.812638
1.83673
2.27858
0.753576
0.846722
1.00821
-0.0329495
2.17505
0.330571
0.518335
0.656917
0.459234
-0.403687
-1.27635
1.19645
0.517681
-1.07554
-0.718544
0.373826
1.5248
-1.67587
0.708295
-0.230257
0.548191
0.778574
2.42326
0.558642
1.74034
1.77107
1.3861
1.0406
0.894004
0.200706
0.211515
-0.117453
-0.341984
1.56712
1.63706
1.78198
-0.0807369
-0.839623
-0.817293
0.436103
-0.522751
-0.121079
1.17737
0.651059
0.364115
1.90299
0.674218
0.0290913
-0.436457
-1.34058
-0.253865
1.64588
0.0305979
0.632273
1.02145
0.197632
2.00148
-0.720744
-0.393152
0.501759
-0.0926041
-0.357391
0.0227352
0.0641909
-1.05869
-0.45283
-1.7186
-1.50769
-0.423324
1.34635
0.651621
0.323746
0.884252
-0.214284
-1.05334
-1.87473
-2.25684
-0.108863
1.07316
2.01974
0.872423
2.19133
-0.619175
0.0888148
0.280619
0.693882
-0.00739309
0.179489
0.825919
0.842014
0.674582
0.334802
0.627335
0.660084
-0.793169
-1.55889
1.04586
-1.26521
0.600416
0.0360098
-0.0701447
1.10098
-1.90918
-1.45764
-1.89203
-2.0604
-1.52285
-1.32917
-0.567599
-0.0748883
1.76272
-0.663177
-1.01519
-2.54675
0.284631
1.40235
-1.11537
-0.252348
-0.305584
-1.55434
-0.15704
-1.85423
-0.623546
-1.0445
0.958483
-1.46178
-0.122109
2.04447
-0.15779
-2.66213
-1.10205
-0.111049
-2.56156
-2.48705
-2.24193
-1.68442
-1.20513
-1.98268
-2.2801
-1.06823
-0.954353
0.778347
-1.15833
0.0225162
-0.746038
-0.411771
0.551811
-0.00155905
-1.11075
-2.7028
-1.048
0.892358
1.98765
-0.279986
0.91189
0.486532
-0.84769
-0.700762
-3.03917
-0.928255
-0.142852
-0.726078
0.886484
-1.52688
-1.82526
-2.3912
-1.00992
0.0706158
-0.226372
-0.228019
0.030159
-1.07661
0.629355
-1.03939
0.0459246
-3.3373
-0.771941
-2.5529
-1.33361
-0.736103
0.340041
2.36301
-1.56317
-0.296938
-0.31238
0.115738
-0.331809
-0.653089
2.21113
0.719667
0.21912
-2.63987
-1.2078
0.829676
-0.988261
-0.969356
0.287745
1.57731
0.837144
0.362059
-1.01594
1.09468
0.119469
-0.044437
0.159474
0.0152909
0.438272
-0.966297
1.92845
-0.536198
1.14516
-0.322105
0.627203
2.58434
-1.45392
2.21425
1.537
1.21705
-0.300674
0.1691
-0.580245
-0.526261
0.42031
-0.79557
1.18704
0.632552
0.583012
-1.03321
0.177723
-2.1916
-0.762583
-0.0641386
-1.80605
-0.312203
-1.00802
-0.348497
-0.23502
-0.612526
0.057621
0.982305
-1.23551
0.155552
-1.07104
-1.70378
-0.0164474
2.01396
0.625719
1.55878
2.44945
-0.815085
2.16857
0.402689
-0.411941
0.146294
-0.814823
0.39931
0.731279
-1.47214
0.166665
0.125964
-0.926677
0.354653
-0.0706889
-0.637773
-0.238187
1.41241
0.63251
-1.06776
-0.625448
0.608578
-1.95526
2.49455
-0.758808
0.845832
0.656554
1.40803
0.0720916
-0.39829
0.482186
2.04407
1.95062
-0.218673
0.951625
0.372293
-1.4572
0.532397
-0.540493
-0.714518
1.08812
-0.254638
-1.22398
0.0895508
1.11803
0.826585
-0.0737417
-0.520938
-0.0121202
1.83
0.659826
2.15937
-1.39841
-0.120415
0.646935
1.05596
-0.398581
-0.51902
0.357342
0.577278
-0.153084
0.0491175
-0.18143
-1.03559
1.28329
-1.54341
1.08879
-0.380834
1.18922
1.32282
0.721256
-0.769336
0.11781
-1.86791
-0.233222
-0.794627
-0.531992
1.37943
0.538993
0.167181
0.54453
2.65147
-0.413505
0.0202149
-1.87819
0.0247945
-0.406755
-0.464473
-1.17281
0.281654
-0.152854
1.31212
1.36172
1.83307
0.0621047
0.770478
0.12185
-0.0456341
0.0618227
0.541344
0.658458
0.227211
-0.649143
-0.186985
-0.278026
-0.975708
-1.60945
0.0463509
0.291371
0.687661
-0.31288
0.766801
-0.226166
0.790966
0.707018
-0.701539
0.822719
-0.275096
-0.397272
1.04057
0.947762
1.2704
1.79581
1.45931
-0.224878
0.628588
0.131388
-0.354397
0.259697
0.104064
0.236103
1.13658
0.647511
2.08217
-0.58115
0.539613
-0.6151
0.598011
-0.861323
-0.212271
-0.96411
-0.143487
-0.82769
-0.0542468
0.960548
-1.69293
-0.549617
0.401997
-0.174963
0.323554
-0.645489
-0.301095
0.629795
-0.839802
2.18348
-1.04568
-0.130372
-0.178673
1.88283
1.00793
0.410657
0.406408
-0.213977
0.18875
-0.0831214
-0.341545
-0.211647
0.58412
0.0344086
0.597122
1.45304
-0.277262
-0.731123
0.11379
-0.515958
0.696174
-0.683253
0.527642
-1.29759
0.987027
2.82359
1.05335
0.06818
1.3474
-0.163617
-1.23558
-1.96692
0.853337
-0.147851
0.454097
-0.291289
0.605674
1.619
-1.04315
0.62225
-0.298639
-0.277231
1.86617
-0.796005
-1.10689
1.077
1.12052
0.436041
0.118925
1.06426
0.619014
0.268215
-0.340852
-1.16667
0.0718255
-0.547042
-3.34369
-1.53011
-0.510734
-0.534693
0.407336
0.876237
0.553839
0.544511
0.74646
0.0850462
1.33015
-1.70621
1.42262
-0.687084
-0.0982086
-0.256345
1.55763
-2.40707
-0.0888959
-0.868833
0.437379
-2.10621
-0.213202
0.510731
-0.602599
0.280567
0.913911
0.899563
0.462501
0.273877
-0.761382
-1.16896
-0.611992
-0.0803147
0.163907
1.52891
-0.81328
-0.197119
-1.06488
-2.18621
-0.539595
-1.05346
-0.686896
1.81229
1.47237
1.08714
-0.115648
-0.0180174
-0.408079
1.51481
-1.94732
-1.19084
-0.80399
-0.0451514
0.728451
-1.2079
-0.753634
-0.729353
-0.176372
-1.84343
-0.505822
2.26871
0.768556
-0.419841
1.39986
1.73772
0.10155
-1.76293
0.739332
0.7934
-0.707866
1.72348
-0.222374
1.35689
1.44696
0.343998
2.42293
0.755801
0.687041
-0.2846
1.06519
0.364428
1.58269
0.13409
-0.342
0.525553
-1.32636
0.360098
-0.0141785
-0.829726
0.236986
0.527241
-0.901754
0.804589
-0.349818
-0.221775
0.48145
0.695291
-0.957673
1.18175
0.226085
1.67105
0.550769
-0.6067
-0.0711502
-0.582695
0.542035
1.58947
0.116049
-0.336102
1.46088
0.56948
0.537648
-0.20432
-1.1803
1.76351
0.815847
-0.749227
0.750596
0.782581
0.867411
-1.91402
1.08533
-0.595124
-0.152105
-0.116796
-0.887242
-0.80332
-1.74476
-1.30391
0.988673
-1.21485
-2.02472
0.561665
0.410587
-0.536841
0.885545
-1.79087
-0.661057
1.11763
1.48945
0.643952
-1.36623
-0.784266
0.619438
-0.270096
1.10209
0.981761
-0.829321
-1.2385
-0.34244
-1.93232
-0.771169
0.989923
1.64471
-1.05931
-2.42303
-0.0176261
-0.742338
-0.442126
-1.84126
-0.687091
0.520338
0.00187797
0.639384
0.669075
0.682651
0.614151
0.275869
1.19054
0.701333
0.0345708
0.41261
1.10171
-1.36917
-0.69677
0.418556
0.0561471
0.08535
-1.43841
-0.572919
-0.42596
0.701396
-1.01712
0.598883
-0.113499
-0.926978
-1.38536
0.71796
-0.348119
0.0208923
-0.309938
0.161454
-1.50129
-0.367558
-0.622435
0.700663
0.766084
-0.151812
0.0266791
1.5724
-0.33874
0.917455
0.0664807
-0.981344
1.01013
-0.436589
-0.910586
-0.293187
-0.239421
0.883901
-0.805934
-2.6653
0.417593
-2.52962
0.795082
-1.5415
-0.169761
-0.235552
-0.736251
-0.450979
-0.395779
0.586384
-0.781911
0.527351
-1.09478
0.999479
-0.680992
2.59561
-1.02939
-1.06034
0.509016
-0.0181077
-1.07835
-1.31228
0.949165
0.188783
0.663858
-0.838173
0.531257
-1.5082
-2.22295
-0.54669
0.642451
1.20996
1.18192
-0.620839
-0.541089
0.387585
-0.092158
1.33081
0.226668
1.27771
0.37535
0.681816
0.1495
1.26445
0.702079
-0.82595
-1.25637
-1.26134
2.04612
-1.66084
-0.737106
-0.357143
0.443136
-0.805077
0.636675
-0.302724
0.36197
0.503985
-1.4993
-1.62963
-1.70327
-0.382535
0.967834
0.312116
-0.603192
-0.165548
1.02048
0.465429
0.454809
0.642807
-0.253747
0.865854
1.24099
0.768891
0.192713
-0.200085
0.89936
-2.42633
1.14227
-0.344149
0.418715
-0.59474
0.230771
-1.39458
-0.861501
-0.352575
-0.579179
0.0668139
-0.159597
1.04253
1.51572
-1.38855
1.99046
-0.578213
1.22904
0.903202
-0.603988
0.438762
-0.869132
0.954109
0.160296
1.25449
0.512802
-2.21518
1.24768
0.132311
0.821619
0.136975
-0.302015
-0.512317
0.989353
0.618299
0.791852
0.837893
0.421386
0.542385
0.0977468
-0.30771
-2.59968
1.10474
0.479701
-1.1502
-1.64194
0.231758
1.02754
-0.3441
1.00445
-1.36728
1.31446
0.224681
0.344875
-1.94272
1.80164
0.635328
0.876712
0.633447
1.62839
1.96042
0.245716
0.863324
2.95996
0.0182734
-0.0607881
0.355992
0.296429
-0.51239
-0.716055
-0.91264
-2.43422
-2.09752
-1.42298
-0.639256
0.26517
-0.394047
-0.800475
-0.440156
-0.578487
0.826792
-0.403464
-2.32633
0.94168
0.230024
0.39607
2.86595
0.33534
0.0334683
1.04893
1.19539
2.35669
0.780717
-1.07816
0.314565
-1.54545
-0.775463
-1.7548
-1.4726
0.677899
1.85903
0.504949
-0.735243
-0.0281834
-2.00912
1.01566
-0.430679
0.169753
-0.115737
0.114393
0.189613
0.60842
-1.83882
0.452295
3.9559
-0.172642
2.14955
2.16428
1.86319
0.386064
0.877655
-1.43626
-0.40564
-1.84222
-1.12027
-1.64634
0.324821
-0.550917
-0.468575
-0.291846
1.0623
-0.111197
-0.133695
-1.32506
-0.512545
-0.845384
-1.20614
0.35314
-0.577113
-0.966723
-1.26632
-2.25338
0.344687
0.947949
-0.729193
-0.396475
1.00725
0.662646
-0.531206
0.0341721
-0.573159
-0.364692
1.35055
0.750773
-0.265739
0.76001
0.938648
-0.626228
-1.52117
-0.960709
-1.23132
-0.248733
-1.97581
-1.32087
0.00378797
-0.479454
-1.36445
1.53418
-1.3056
0.561471
0.748033
0.251568
-0.534745
-0.779246
-0.858605
0.917233
-0.573942
-2.10872
0.360066
1.48231
0.112292
0.310658
-1.12432
0.0939778
1.09285
1.5514
1.6084
-0.562852
0.349754
0.402949
-2.20939
-0.602314
0.602963
-1.12264
-1.50349
2.45705
-0.994189
-1.07697
-1.90592
-0.914252
-1.10905
-0.239668
-0.680001
-1.76022
0.501423
0.395096
-0.381597
-0.184729
-1.21836
1.44751
2.4692
0.177159
1.06164
1.7058
1.50002
0.659525
-0.564834
-0.670186
-0.859213
0.786679
1.64799
1.03854
1.33177
1.51707
1.7217
-0.169852
1.5368
-0.255862
0.333987
-0.985006
-0.465001
0.114414
-0.768982
0.598003
-0.75995
0.844531
0.91766
2.43227
1.40618
0.479838
1.11398
0.0479558
-2.41136
0.687744
0.186801
0.0601294
-2.39061
0.106838
0.580118
1.84865
2.12964
-0.132736
-0.633172
0.551773
-0.540359
0.278779
1.78126
-1.47896
1.84923
0.360664
0.549274
-0.0430481
1.01329
0.393681
1.56993
-0.273995
0.735245
0.747183
2.19401
-0.368355
-1.7394
-0.418817
1.61046
-1.05827
-0.497701
-1.02446
0.489604
1.87029
1.41196
-0.43525
-1.42409
-0.277464
-0.726715
-1.22662
0.594275
1.40058
-0.391753
-0.543129
-1.69971
1.51603
2.29561
-0.618048
0.211148
2.46514
-0.989591
0.807269
-0.384873
-0.359083
-0.521387
0.577138
1.05941
-0.68909
-0.106708
0.637036
0.476824
1.17862
-0.596922
-1.70389
-1.60109
1.02617
0.0496324
1.45553
-0.876865
-0.374055
1.55396
0.476976
0.725882
1.50604
-0.127012
0.986125
1.19468
0.837881
-0.561587
-0.316701
0.183701
2.39134
-0.229656
0.600782
-0.0311461
0.247581
0.994606
-1.07045
-2.0108
0.29549
-0.53086
-0.223442
-0.954417
1.13918
-0.571815
-1.803
0.590556
-0.280509
-0.0464181
1.68489
1.09143
0.080851
2.86093
0.89027
1.71742
0.72865
0.627353
-0.390043
-0.868273
0.584097
-0.414703
0.503908
0.0313342
-0.00391583
-1.17399
-0.755296
-1.25332
0.403617
-1.88044
-1.22586
-0.262894
-0.365885
-2.60407
0.273968
1.4411
-0.0985992
-0.709416
-0.873462
-0.682292
-0.463333
0.482104
-1.61943
-0.255726
-0.580936
0.106526
1.41407
0.450314
1.11711
-0.192648
-0.463433
0.467237
1.48643
-1.11745
-0.5126
-0.971149
-0.836704
0.0657556
0.0964077
-0.0502525
-0.417498
-0.453519
1.31279
1.97584
-0.169201
0.936457
-0.14306
-1.02541
-0.22204
0.682128
-0.375688
-0.868221
0.177591
-0.493295
0.317365
0.354881
0.0713733
0.727297
-0.275495
1.40609
0.947287
0.0467225
-0.156908
0.735892
0.178436
-0.507989
0.643574
-0.27851
-0.694467
-0.550595
-1.08406
0.0579618
-0.943135
0.682987
0.476459
-0.371344
1.15351
-1.06984
0.539431
0.12897
-0.524937
0.210487
-1.04243
0.640909
2.34457
-1.17781
-0.377689
0.203197
0.914718
1.37789
-1.98485
-0.792107
-0.627136
-0.845431
0.00689901
-0.684336
0.321
0.423358
-0.142506
1.17457
1.17296
0.47177
-1.04773
-0.64889
-1.61353
0.699483
-0.685204
-1.40989
-0.804362
-0.400465
-1.65135
0.942254
-1.238
-0.728933
-1.9702
2.39407
0.88347
0.860133
-1.21448
-2.00148
-0.187139
0.375369
-0.410399
0.73508
-0.703557
1.51363
-0.631101
0.552201
1.47288
0.996299
0.412667
-1.39077
-0.103377
-0.954234
-0.329486
0.114073
-1.16577
-0.673324
-0.0911526
-0.813986
-0.570105
-0.122539
0.69588
1.28223
-0.187127
-0.457944
-0.222975
1.41481
-0.888363
0.593766
0.0889296
-0.804649
0.454565
-0.18503
-0.233906
0.0208091
0.889855
-0.918184
-0.850742
-0.54465
-0.880042
0.462524
0.17247
-0.775162
-0.640633
0.299643
0.38089
1.45925
0.880115
0.731775
-0.0550338
1.53386
0.57738
0.412442
1.84947
-2.17869
-0.165438
0.221947
1.30408
-0.340967
-0.809072
-1.02449
-1.41853
0.263852
-0.183994
0.172532
-1.75799
-1.03239
-2.72641
0.158293
-4.13608
-2.17191
-1.19362
-2.28134
-0.0308339
-0.0408142
-0.0403341
-0.278399
-0.0971347
-0.0403899
-1.06866
0.353883
-0.222233
1.68664
-1.24649
-0.250421
0.170804
1.18838
0.51001
-0.0817104
-0.0106648
0.62909
0.801097
1.77233
0.292855
-0.281046
0.398622
-0.375493
-0.00174631
-0.133662
-0.901559
-2.06674
-1.1901
0.592335
-1.0627
-2.13853
1.37387
0.781646
0.223452
1.18098
-0.734293
1.32725
-0.0646533
-1.54733
-1.58191
0.615603
-1.15155
0.941582
-0.798134
2.66708
-0.511619
3.54161
3.00421
-0.728934
1.109
1.84101
0.303135
1.78003
1.22093
0.598436
-0.748066
-1.47111
-2.02602
0.0827831
-0.233051
0.905874
-0.379817
2.37732
-0.475003
-1.23322
-0.705327
-0.030717
-0.383655
-0.564286
0.880939
0.911111
0.783937
1.9876
2.09056
2.28206
2.45841
0.771736
1.98986
0.281366
0.699577
-0.305909
0.845669
0.27315
-0.774135
-0.581937
-0.366618
0.246519
0.024229
-0.945583
-0.746081
-0.480468
0.417742
0.0129212
-0.210071
0.776241
0.487262
-1.11361
1.70489
0.753346
-0.235739
1.24535
1.19252
1.23408
1.68605
0.338022
1.0114
0.358917
1.34937
0.222053
0.610134
0.871394
-0.843212
0.760644
-0.314542
0.283745
1.44859
0.404175
1.81542
0.430259
0.840397
-0.300539
1.84741
1.31501
0.387396
0.87116
0.418333
1.28251
1.46365
1.45557
1.64384
2.36974
3.69318
2.52795
0.826137
0.358113
0.777802
1.3381
-0.244698
1.22178
2.07608
-0.0757957
-2.31458
0.0588482
-0.502512
-0.972029
0.0767421
0.236191
2.48316
1.1789
3.15255
0.929246
1.59329
1.74455
0.856125
1.93049
1.21567
0.315147
1.17762
1.15076
1.14866
0.292966
0.162917
-0.0255486
0.315174
0.824697
-0.426215
0.416664
1.18515
2.0765
-0.156337
0.224023
1.08303
-0.121292
0.411896
-0.776767
-1.58572
-0.884016
0.103907
0.951075
-0.341936
-1.12748
-0.109545
-1.26174
-0.302886
1.01949
1.21693
2.04582
-0.548504
-0.932552
-0.787263
0.411218
1.16706
-2.03642
0.525067
0.151214
2.54152
1.7731
-0.0540281
1.8701
-0.190531
-0.534867
0.812872
0.431102
2.30797
0.665698
0.0577952
2.04571
-0.201353
-0.663129
-1.78721
-1.51857
-1.65552
-1.92619
-2.89065
-0.832492
0.303452
0.588255
-1.50398
0.00500207
0.744894
2.26827
-0.00476179
-0.948845
-0.14448
0.168479
0.586876
0.284041
-1.03021
-2.49096
0.464571
-0.183038
0.526044
-0.960859
-0.506364
-1.29961
-0.972475
-0.462481
-1.48115
-0.255845
0.187001
-2.73686
-1.66362
-0.295008
0.356857
-0.181994
1.00398
0.671691
-1.25907
-0.174975
0.267962
-1.09511
-0.00272798
0.280684
-1.38925
-0.771057
-1.94943
-0.771289
1.14169
1.60502
-0.43777
0.0347716
0.824419
-2.24125
-0.816946
0.485971
0.375567
-2.34393
-0.959353
-0.535398
-1.09275
-1.39983
-0.624344
0.433895
0.320386
-1.00798
1.44684
-0.667915
0.271384
-0.517417
-0.56065
-1.80051
0.313332
0.0696456
0.0648674
1.19988
-1.53154
-0.258403
0.216623
-1.38085
0.823413
1.18168
-0.742409
0.405426
0.484132
-0.41102
0.0255279
1.23363
-0.936918
-1.94099
-1.54317
0.163947
-1.49068
0.0986058
0.320886
-1.4802
0.0215167
1.12914
0.739928
-1.09099
-0.469556
-0.448137
-0.40779
-0.133575
-0.930889
-0.893824
-0.343909
-0.857006
-1.4069
0.81354
0.0639223
-0.546865
-0.593328
-1.14148
1.23327
0.221225
0.540924
-0.456254
-2.60566
-1.7334
-1.45927
-2.20121
-1.16632
-1.10714
-0.491788
-1.19355
-2.21889
-2.09829
-0.882806
-1.87998
1.675
-0.278783
-0.182843
1.43509
2.03841
-0.913912
0.961444
-0.643172
-1.14256
-2.64795
-0.799466
0.278341
1.43405
-0.8548
1.14607
0.512553
-0.500752
-1.5295
-0.325374
-0.981142
-1.96102
-0.861108
0.166904
0.595446
0.466349
-1.55385
0.746333
-1.70541
-0.908584
1.24593
1.31312
1.79953
-0.0454468
0.277732
-1.50668
-1.57492
0.295656
-0.397078
0.0276096
-0.884302
0.584383
-0.300323
-0.17302
-1.76912
-0.518103
-0.647144
0.575009
-0.0386106
0.51811
-1.35488
-0.364128
-0.669065
-0.519398
-1.18211
-0.778321
0.839973
0.801998
1.12057
0.905577
-0.163556
-0.186216
-0.682663
-0.833216
-1.94237
-0.791025
1.18188
1.7182
1.17362
-0.850229
0.855111
-0.308187
-0.227716
-0.0947323
-0.649024
-1.02476
0.131985
-0.775259
1.51218
1.10916
-1.15941
0.205766
1.5267
1.78142
1.18154
-0.57061
-0.495554
1.92687
0.299393
1.14594
1.40534
0.178084
-1.1103
-1.77179
0.490403
0.483221
-1.14771
1.01867
-2.52554
-0.678413
0.884528
-0.808247
0.643372
-0.0470516
-0.791462
0.542756
1.46998
1.86856
0.253276
-0.461402
3.22788
0.388723
0.225048
-0.754372
-0.180229
-2.05382
-0.187406
0.409469
-1.80405
-0.777844
-3.54693
-0.524977
-1.00318
0.678749
-1.89684
0.952464
-0.590808
-0.0865561
-0.648332
-1.42795
0.054592
0.00243394
-1.40541
-0.985359
-0.729772
-0.299584
-1.06413
-0.222071
-0.892184
-0.080632
0.161922
0.660177
-0.32933
-1.71522
-0.200563
-0.590215
1.4167
-0.782323
1.21304
0.236062
-2.16029
0.861245
-0.502335
0.404479
0.0872333
0.577843
-1.69469
0.48933
-1.12897
-1.00126
-1.23678
-1.4435
-2.24059
-2.54416
0.0702247
0.197151
1.4256
-0.649631
2.45086
-0.862112
0.558415
0.520855
-1.91506
-0.258474
0.514832
0.0809052
-1.18104
0.739069
0.998047
1.36283
0.364296
0.318968
2.31433
-0.298778
0.453921
-0.349927
-1.11191
0.438799
0.48242
-0.406169
0.310967
-0.36414
-1.20666
2.03131
0.455235
0.158799
-0.356576
0.797069
0.985522
0.416988
-1.49197
1.27064
-1.60946
0.577149
-0.0753159
1.38824
2.6744
1.2821
0.823034
1.85052
0.651725
-0.113096
3.05629
1.95415
0.339659
0.711184
0.137361
1.09084
-0.0183145
0.880169
2.43325
0.391817
-0.10458
-1.11377
1.25372
0.791284
0.534019
0.839663
0.602956
-1.69741
-0.189084
-0.165705
0.412598
0.600648
1.75429
0.938463
1.77328
0.292665
2.96126
2.53222
1.53361
2.30444
1.4175
1.29076
2.6459
2.81538
0.666029
2.31618
0.673886
0.844869
-0.438777
-0.66368
0.0481976
-0.199056
-1.59138
0.452044
0.37403
1.03516
-0.560042
0.999749
1.16761
2.58878
1.69272
0.102818
1.60784
2.71785
1.24986
1.82243
2.71871
2.94026
1.38755
2.34774
1.93353
2.76215
1.21905
0.0268225
1.45555
0.773221
1.3727
1.34565
-0.303655
-0.965091
0.705218
1.28054
-1.28137
0.412479
-1.61152
0.0155903
-1.78203
-0.483442
1.19392
0.820571
-1.50886
0.632896
-0.909225
1.1138
0.108279
1.205
-0.416543
0.31098
0.605966
0.144345
-0.0332972
1.61837
1.45556
0.201915
1.64401
0.550194
0.933549
-0.572501
0.812977
1.71968
0.749757
0.989139
0.552265
-0.0427888
-1.07025
-1.92845
-0.734467
-1.12452
-1.6564
0.54249
-2.07491
-0.206902
-0.896549
-1.32528
1.26759
-1.18808
-0.600552
-0.432343
-0.459419
1.4273
-0.509566
0.506266
0.956227
0.0543245
-0.508152
0.11792
-2.06868
-0.312968
-1.86672
0.546812
-0.962861
-1.3922
-0.397996
1.14474
-1.46466
1.21326
-0.10286
0.525655
-0.944935
-0.462015
1.88923
0.605375
1.10219
0.269783
-0.410446
1.81742
-1.38518
-0.191423
-1.522
1.02344
-0.0235256
0.442187
1.09104
0.0551513
-0.164125
1.07074
-0.252605
-0.0523562
-0.119681
0.496773
-0.0306223
-0.901528
-0.389921
-0.933536
0.803419
-0.73759
-1.05656
-0.961137
1.55562
0.214883
0.237028
0.244644
-0.401886
0.779728
-0.44386
1.12614
1.0537
0.339054
0.837986
1.96437
-0.0267046
1.21881
1.17423
1.26593
0.463301
0.846639
-0.776815
0.349669
0.123384
0.43611
0.393715
2.01785
0.220636
0.868694
-0.868401
0.00934392
-0.57117
-1.2677
0.703978
-1.06558
0.447487
1.32173
-0.784818
2.57491
-1.30965
-1.36669
-0.517879
0.845975
2.08749
-0.86079
-0.911175
0.711259
-0.910024
-1.42964
-0.0460432
-0.0565062
-0.981817
-0.52151
0.687055
-1.79716
-0.184563
-0.364143
-0.626157
0.0339923
-0.0069637
0.109725
-0.380676
1.37126
2.16657
1.52848
0.786521
1.24763
0.987738
-1.92603
-0.963542
-0.745791
0.933044
-0.527701
3.12017
-0.513998
0.950466
0.200631
-0.51478
-0.488886
-1.35534
-1.95323
0.452442
0.956285
-1.04372
-0.549497
-0.171638
0.24255
0.303408
-1.91701
1.34672
-0.854468
2.05438
0.229939
0.139718
-0.634274
0.435609
1.25929
1.78398
2.00329
0.607572
-0.143686
-0.754119
-0.958797
-1.64866
1.14711
1.41988
-1.70091
-0.329024
-0.561597
-1.54697
2.51821
0.179627
-0.611545
-0.28676
-0.754021
0.933187
-1.11029
0.562366
0.0232386
-1.07347
-1.34102
-0.198382
-1.23783
-0.328295
1.13264
2.3616
-0.758838
0.763817
-0.394884
1.57392
0.213224
-0.0584763
-0.950593
-1.28458
-1.36137
-2.01238
-0.929491
1.64505
-0.970203
0.958568
1.02483
0.701151
-0.974843
0.849748
0.382324
-0.371166
1.01828
0.395874
0.176326
0.467792
0.119482
-0.124448
-0.796348
0.662252
1.30483
1.02027
0.840116
2.54306
-0.726396
-0.133014
-0.403941
-0.437371
-1.07524
-1.42469
0.9308
-0.916534
0.275236
-0.627044
-0.247091
0.826095
0.10355
-0.463543
-0.924059
-0.214292
-0.300872
0.276414
-1.31282
-1.45775
-0.851823
-0.107574
-1.65396
-0.29922
0.659098
-1.90953
-0.491881
0.545565
1.55017
0.93128
0.66707
-0.605164
-0.694983
-0.718534
-0.964265
1.93806
0.414248
0.732467
0.248649
1.87466
0.749213
-3.9126
-1.52647
1.29578
0.858375
0.0304449
-3.19119
-1.36538
-0.463563
-0.73019
-0.648139
-1.44879
-0.110303
-0.837114
0.421284
-0.830937
-1.09741
-0.99318
-0.816478
-0.557283
1.84341
-1.35916
1.61046
0.529916
0.0742468
0.305186
1.33349
1.37285
0.421994
-3.37372
-0.864738
0.26368
0.0081645
-0.995126
-0.107824
-1.00614
1.62381
-1.31145
-0.0593222
-0.723702
0.974915
-0.744816
-0.146727
0.523629
0.436616
0.486504
0.099166
0.895065
-0.70734
0.282054
-0.770002
-1.36233
1.45705
-0.720073
1.73826
1.29011
-0.465918
-2.93238
-0.963521
0.940921
-0.409967
0.653619
1.14557
1.4908
1.268
-1.7075
-1.50378
-1.53867
-1.29006
-1.39364
-0.206319
-0.560651
-1.31174
1.01972
-0.504421
-0.306537
1.04298
-0.093569
1.53704
1.06921
-0.302246
0.517439
1.16471
0.715985
-0.12071
-1.40079
-2.34941
-0.260431
1.34673
-0.00587985
0.591236
0.43969
1.25153
1.79077
1.38323
1.63947
0.87391
0.249098
0.457462
-0.551781
0.226524
-0.975013
-1.17627
-0.741876
2.03916
-0.197159
0.840116
1.5938
0.463374
-0.946429
0.927231
-0.376601
-0.782437
-0.961555
0.293495
-0.761697
0.719755
1.18474
0.588472
0.219258
0.278777
0.230384
1.49217
-0.917412
-0.398625
2.08927
-0.277683
1.7464
-0.33421
-1.38689
-0.00799263
0.995224
0.765878
-0.840028
0.410125
0.76169
0.516972
1.30501
-0.0815324
-0.348672
-1.13113
-1.89579
-1.09412
-1.04571
0.590137
0.0724466
0.746882
-0.305878
1.28474
0.84763
2.14225
0.188278
0.202579
-0.760572
-1.16309
0.450946
-0.421735
-0.456216
-0.992518
0.128601
-1.83688
0.309011
-1.2955
1.68939
0.867968
0.958002
0.0627803
-1.46549
0.755928
-1.79004
-2.30643
-1.57667
-1.75246
0.994607
0.0490589
0.257664
1.29249
-1.12002
1.07379
-1.41319
-0.124285
0.394562
-0.786289
0.668494
1.63405
1.02714
0.45525
1.91154
-0.0198994
1.42117
0.724597
0.509643
0.135027
1.32863
-1.1508
0.597822
-0.205844
-1.50419
-1.46391
-1.65754
-0.371559
0.105833
1.36056
1.19626
0.984514
0.106549
0.172948
-0.771342
-0.597003
-1.32768
0.338394
-0.167376
-1.38708
-0.054996
-0.521302
-0.322372
1.17746
-1.73253
-0.294099
-0.510989
0.0520185
0.18946
0.827017
-2.04952
-1.0684
-0.324881
-2.8884
-0.300109
-0.977323
2.25321
0.865159
-1.45787
0.801526
-1.85289
0.309304
0.914777
-0.757059
-1.10295
0.0919198
-1.2238
-1.36636
-0.294222
0.758298
-1.18374
-2.74643
0.000838772
0.790351
-1.64352
0.24632
-0.565899
2.05452
-0.788868
-1.85405
-1.03951
-1.2621
-0.73879
-1.52086
2.02506
0.563083
-0.226652
0.98153
-0.403206
-0.284483
-0.466314
-0.240572
-1.8385
-0.593401
-0.49883
0.948913
-0.0281951
0.56752
0.301138
-0.748672
1.2541
-1.06752
-0.656485
0.185098
0.406747
1.38481
0.294187
-1.50679
-0.201127
-1.91662
0.72392
0.407825
0.773273
-0.196868
-0.377753
0.693475
-1.02554
-0.418286
-0.99888
-0.757909
0.88922
-0.399148
1.44176
0.159377
-1.80243
-1.94536
-0.418688
-0.585276
0.971313
-1.28347
-0.493554
-0.54477
-0.628985
-0.691146
-1.61036
0.280029
-4.01417
-0.87324
2.00291
1.81363
0.160442
1.98698
-0.32396
-2.34091
-0.0495595
0.314339
0.23861
0.578239
-0.289607
-0.126527
0.544813
0.31384
-1.10093
-0.207021
0.259011
0.932532
1.30014
0.145317
0.129283
-1.3405
-0.301565
-0.535756
0.466982
-0.115386
-2.35905
0.747474
0.41478
1.06816
-1.10972
0.198782
-0.0426922
0.137816
-0.274264
2.31568
1.07416
0.468259
-1.55642
1.9354
0.34041
0.884001
0.216436
-0.671067
1.13767
0.697249
-0.558485
-0.401201
-0.44615
-1.9576
-0.0553537
-1.49439
-0.96466
0.484425
-1.54702
0.320982
2.21188
0.389884
1.06389
0.234061
-0.12545
-0.522827
0.543312
-0.286568
-1.14544
0.0336399
1.41595
0.470368
-0.634599
1.68206
-0.57102
1.10862
-0.196398
0.0451878
-2.87536
0.687662
-2.0476
-1.00984
-2.05158
0.918073
-1.05046
-1.20884
1.35207
-1.30051
0.386661
2.55724
-0.516466
1.26316
0.102438
-0.581497
0.358764
-1.45598
-0.751018
0.934414
0.0532483
-0.275274
-0.206035
-1.617
-1.27402
-1.01878
0.482997
1.75983
-0.411501
0.285097
0.60677
-0.612792
-1.83608
0.44988
1.08838
0.103356
-0.656977
-0.757486
-0.173547
1.10223
0.556993
-0.282575
0.561006
2.64062
0.303505
0.375733
0.0980013
-0.909913
-0.049716
0.14151
-0.0111325
-1.52561
-0.896984
0.868266
-0.256351
0.596698
1.05754
-0.656599
0.175901
-1.05064
-1.97413
1.21679
-0.249073
-0.223914
-2.56381
0.123482
-0.460397
-1.29114
0.533227
0.769507
1.56061
-1.27631
-0.393071
0.590129
-0.77205
0.619464
1.41654
0.757665
1.83638
0.043214
-0.628655
-1.35507
0.779816
1.77943
-0.993853
0.340718
0.218521
-1.34472
-0.72189
1.02641
-0.831299
-0.938772
-0.666283
1.78469
1.13714
-0.207241
1.12697
1.54292
0.719624
-0.676086
0.52358
-0.17761
-0.166793
-1.45424
-0.354847
0.0424138
-0.16542
0.952993
1.15842
0.816521
-0.876623
-0.663564
-1.78189
-0.750807
-0.0743664
-1.21169
-0.871689
0.285542
-0.132729
1.00194
-1.07837
0.124944
0.914679
-0.528695
0.762847
0.842767
0.426646
0.952376
-0.446809
-1.25185
0.0601489
-0.7905
0.485072
0.85654
-0.0706546
0.282085
-1.28132
-2.3512
-0.111841
-1.14319
1.3995
0.636198
-0.53577
-1.55702
-0.225689
-0.316584
-0.207621
-0.1243
-0.207119
0.407536
-0.557792
0.550973
0.587157
1.83577
0.878887
-0.296015
1.93014
0.701685
0.0457534
-0.60459
-0.0626511
2.07478
-2.64514
0.408408
-0.718346
-0.972679
2.08545
0.136947
2.06398
1.26579
1.62762
1.0533
0.771217
-0.766237
1.44557
0.201614
-1.73524
0.427836
0.255847
0.716901
1.2068
-0.732443
-0.325604
-0.440317
-1.34629
1.29393
0.0178598
-1.50123
-2.76412
-0.788889
-1.11849
0.940564
1.42913
-1.32789
-1.46699
-0.322523
-1.67069
0.848892
-1.36323
-0.95211
-0.00986018
0.0365275
0.00555194
-0.142667
-0.430179
0.980472
0.969786
0.352794
-0.279677
-2.19631
-1.52168
1.64734
1.55024
-1.30037
0.951136
0.473835
1.5936
0.437249
0.323076
-0.196703
0.32246
-0.7598
1.41313
-1.32281
0.995848
-0.305592
-0.152219
2.42875
1.72434
0.756276
-1.46282
-0.355072
2.4825
-0.199245
-0.0402865
0.275045
-0.0761053
1.62674
-0.973915
0.332262
0.602599
-2.18526
-1.47697
1.02805
1.47075
1.67399
-0.803071
0.566782
1.53898
-0.461029
0.806206
0.538304
0.906055
0.33453
0.155356
-0.399497
0.829319
0.250692
0.701002
0.353852
-0.847167
1.02712
1.81332
1.0545
1.19426
0.689168
0.387461
0.124862
-2.39978
-2.04004
-0.569534
1.80768
-2.02167
0.695328
-0.767726
1.00746
1.3711
0.082747
0.210312
0.169498
1.0302
0.233437
-0.707701
-1.22925
-1.63326
-0.380695
0.0569418
-1.39053
-0.273339
1.91746
1.24152
0.629181
0.391567
-0.2636
-0.59139
0.529489
-0.480739
-1.07689
-1.2299
-2.53368
-0.733437
-0.337665
1.67396
-0.103446
-0.0742008
0.400475
0.403314
1.15963
-0.785036
0.847844
0.471643
0.811129
-1.2483
-0.264015
-1.5372
-0.197298
-1.40673
-1.07646
1.53468
2.64985
0.288342
1.16116
0.426386
-0.0460492
-0.334364
-1.00647
-1.70919
-0.488377
-0.895443
2.17098
0.0123426
-0.165903
0.0352319
0.681895
-0.232954
-1.04625
0.981307
-0.766773
0.784093
-0.605082
-0.393164
-1.75539
-1.44126
-1.3519
-2.32438
1.62445
2.00527
1.58746
-0.396624
0.0185377
0.422477
1.21869
-0.000246035
0.539273
-2.23618
-2.05153
0.32321
-0.616609
0.2621
-0.630269
-0.875715
0.161871
0.00523129
1.07423
1.28389
-2.47642
0.0118953
-0.782646
0.586023
-0.918983
-0.974114
-1.90695
-2.79498
-0.793943
3.75246
1.8372
1.51619
-0.523539
0.212136
-0.0659849
-0.178597
-0.331281
-0.88328
-1.7625
-0.446588
-1.8209
1.2323
0.515916
0.0220129
0.216695
0.303209
0.964588
0.598477
0.137748
0.410493
-0.428974
-0.986503
-0.389143
-1.37328
-1.44102
-1.59725
-0.0616993
2.39144
1.87932
0.727965
0.639977
0.540321
-0.0159846
-1.31302
0.293854
-1.40638
-1.26301
-2.25854
0.722834
-0.599369
-1.69929
0.226341
-0.131149
0.25778
-1.28482
0.0827588
0.356572
-1.27965
-0.464887
-0.0869809
-0.840712
-0.198583
-2.26132
-2.97077
-1.11713
2.76611
2.95866
-1.87632
-0.207108
0.889473
-0.142962
0.43335
-0.725529
-0.404082
-1.01074
0.0104877
0.247608
1.47873
-1.0306
0.537517
-0.0111588
0.802482
-0.0173735
-0.541801
0.915547
1.59864
1.01213
0.635201
-0.96634
-1.86896
-0.882362
-1.53254
-1.99609
3.61261
1.96811
1.83209
-1.10697
1.33391
2.36276
0.290048
-0.0896578
-1.55836
-2.53275
-1.45974
-0.506939
-0.101337
1.05401
1.19404
-0.565075
0.976056
-0.557039
0.163447
0.0279951
-2.30752
-0.180115
-1.04237
0.21603
-0.0249485
-2.3545
-3.62431
0.691804
0.560262
2.2753
1.36043
-1.22706
1.55648
0.0788884
1.25169
-0.456984
-0.548204
-1.84889
0.0521603
-0.175933
0.861553
-0.24354
-0.349354
-1.09746
-0.493945
0.246577
0.600418
0.809535
-0.375996
1.19761
0.734775
-1.62554
-0.178792
-1.92458
-0.745239
0.88725
1.70744
1.49944
1.26359
0.578476
-0.0729431
0.820413
0.74619
-0.87507
1.88453
0.000255448
0.216897
-0.658414
-1.38702
0.202608
1.41262
0.51172
0.890812
-0.321611
-0.7168
-1.60469
-0.516987
-0.38514
-0.468212
0.051431
-0.79275
-0.705271
-0.909823
-0.482853
0.568765
1.27419
1.0156
1.25248
0.101965
0.852013
2.68676
1.92475
0.693148
-2.46662
2.61943
-0.521944
0.411834
-0.332086
-0.960739
-0.458109
0.868904
-0.833077
-1.41488
1.43268
-0.556961
-1.33365
0.298885
-0.993107
-0.379624
-0.46544
0.0733228
0.583411
0.0772553
1.85291
0.135816
1.62688
0.103621
1.29826
-0.982916
0.0926753
-0.983745
-1.99128
0.057069
-1.25885
1.5915
0.901658
1.58143
0.899051
0.0840539
0.987482
0.402573
-0.432837
-0.775325
1.24761
0.000393546
-0.52171
-0.349605
-0.322172
-1.1622
1.91539
1.19469
1.10124
0.338874
1.24684
0.232352
-0.856309
0.448889
-0.204614
-0.822006
1.64265
-0.88218
-0.890093
-0.475815
-0.928443
-0.687561
-0.0198321
0.393264
0.891057
-0.544615
0.104172
0.768714
-0.43519
-1.24115
-1.55245
-0.519158
-0.111916
-0.655974
0.425274
1.85842
-0.381786
-0.156622
-0.363694
-0.167788
-0.132641
0.773727
0.328099
0.168234
0.822463
0.0830944
0.545529
0.0503036
0.939199
0.158377
-1.11358
-0.657534
-0.789156
-0.394834
-0.476603
0.119429
-0.047777
0.31249
-0.948066
0.236388
-2.52941
2.66421
-0.468333
1.68839
0.983288
1.49579
1.48114
0.607613
-1.41326
-2.05618
0.383392
0.0146867
-0.509058
0.879278
-1.4946
-0.653396
1.10286
0.156223
0.380446
-1.5964
0.407397
1.07414
-0.837224
-0.251977
-0.547279
-1.08352
-0.850824
-1.34225
-1.41305
1.09979
1.86021
-0.782095
0.165698
1.35894
0.0559808
1.27021
1.01424
-1.22202
-0.751722
0.193682
-0.218065
0.112619
0.133308
0.145366
-0.236564
-1.25249
-0.928751
0.450908
1.0242
0.764003
-1.13339
0.47074
-0.178836
0.832189
-1.69958
0.19625
-1.53375
-0.600542
0.0707444
-0.29831
0.179929
-0.222394
0.723202
0.451238
0.0840643
0.201655
1.02137
0.424685
0.225189
0.36042
0.809847
0.779229
-0.55691
-1.42202
0.464069
-0.245612
-0.173116
1.06853
-0.217215
-0.139845
-0.745323
0.534213
-1.08272
-2.07532
-1.27496
-0.045445
1.36343
-1.79879
0.196444
0.605363
1.83437
0.112213
-0.99035
0.107013
1.03773
-0.733869
0.36059
-0.338587
-1.18122
0.539079
0.32066
-0.0885959
-0.281015
-1.75877
0.363941
0.623119
-0.335535
0.443906
0.766442
-0.610416
0.866
-1.62685
-2.14839
-0.463433
-0.492711
0.0485596
1.41535
0.0379766
-1.20808
-1.41946
-1.85501
-0.12584
0.0659666
0.666572
0.266902
1.08299
0.284253
-1.30862
0.652268
-0.162916
0.961678
-0.378495
-0.410214
-0.0942766
0.126531
-1.08655
-0.0160053
-0.0815726
-0.106751
0.449939
-1.20893
-0.5811
-0.64034
0.137305
-1.47849
0.252719
0.454723
0.107471
0.674654
-0.305944
0.358223
0.941976
0.0699994
-0.733362
0.899493
0.117592
-0.602203
-0.49457
1.23624
-0.0589276
2.05347
0.384392
1.85839
0.544668
0.415774
-0.862202
-0.253256
-0.572927
-0.846741
-1.25706
-0.486869
-0.680963
-0.974884
-0.19503
-1.06697
-1.40929
-0.248219
0.917547
0.114735
-0.568898
-0.338933
-0.841918
-0.834646
-1.11344
0.0366908
-1.20742
-0.762475
-1.60745
-0.00724785
1.7772
-1.57686
1.04738
0.714971
0.595895
0.217375
0.519324
1.55146
0.319235
0.399189
-2.41234
0.738951
0.713798
0.391995
0.886702
1.72601
0.5127
-0.0678127
-0.71705
-0.146608
-0.855044
-0.238128
-1.32435
0.195732
1.71415
-1.06862
0.0988417
-1.92887
1.39379
-0.221389
1.38479
0.49318
0.343796
0.418816
1.61098
0.214697
0.470549
0.602567
0.272769
0.744592
2.81484
0.970497
-0.127533
-0.534133
0.689294
-1.15089
-1.07167
0.409494
-0.659846
0.693503
0.397647
-0.0908653
0.123874
-1.31925
0.506489
-0.335766
-0.894481
0.481438
-1.45714
-0.806886
-1.17554
1.97086
-0.567169
-0.572785
-1.34158
-0.475076
1.58779
-0.930456
-2.78494
-0.0428334
-0.567152
0.149253
-0.931119
2.11422
0.171522
-0.863032
-0.781079
-1.15045
0.0994253
0.575165
1.33787
1.26614
-0.992462
0.535932
0.950725
-1.13211
-1.15998
1.36824
-1.4433
-0.526213
-0.833866
2.00633
0.0221812
-0.106989
0.889641
-1.15105
0.193208
-1.31354
0.471696
-1.46096
0.254003
-0.602498
-0.345634
-0.375793
-1.30149
0.154607
0.00297859
1.07907
0.425047
-0.859509
-0.140741
0.355963
2.58539
0.731908
-1.32519
-2.06403
-0.346816
1.4194
3.03309
1.51569
-0.400227
0.234461
-1.9708
-0.781501
-1.21446
-1.50728
-0.00636401
-0.518484
-1.38763
1.47812
1.19244
-1.0539
0.359538
-0.0787082
-1.74528
1.03471
1.03869
0.492444
0.284096
0.87639
0.469432
0.669736
-1.22965
-0.192087
0.712429
0.369664
-0.886895
1.08424
0.918538
-0.00252182
-1.57488
0.0772085
0.57822
-1.36335
-0.31026
0.934927
1.73409
-0.337079
-0.678722
-0.58498
-2.35599
0.686245
1.17755
-0.801837
-0.744574
0.245468
0.640442
0.281931
-0.68967
1.3602
0.313044
1.24171
0.942402
-0.164706
0.987773
1.19986
1.49993
-1.01335
1.53967
1.76894
-0.148102
1.52921
0.401651
-0.168632
-0.212822
-1.13731
0.184996
-0.585902
-0.41617
-1.19023
0.33849
-1.20961
1.50631
1.19106
-1.7914
1.28309
0.40144
0.992187
0.452245
0.234594
-0.928711
-0.973117
0.824645
0.207547
-0.271463
1.07048
1.06317
-0.65178
-0.356964
0.443181
-0.169024
-1.72535
0.00624107
0.08587
-0.752648
-0.541492
-0.113657
-0.375606
1.27721
1.69141
-1.96602
0.602642
0.416536
-0.463477
-0.421931
0.416487
0.562456
-0.726047
0.544542
-0.894583
0.0272814
-0.525312
0.959389
-0.217625
-0.385699
-0.0963625
0.76437
-0.101764
-0.308049
2.1348
-0.275273
-1.0871
1.03045
-0.368287
-1.2031
0.963917
0.0264648
-0.173591
0.486065
-1.30931
1.15827
1.51026
1.89182
0.10432
0.871612
0.25937
-0.150204
0.143904
-1.46301
0.819437
0.139764
0.8347
-0.396646
-0.702453
-0.541831
-0.0433946
-0.0335771
0.596407
0.357114
0.112549
1.41119
2.22943
-1.15519
1.50111
1.12871
1.03578
2.18145
-0.728333
0.115388
-0.280391
0.814301
-0.843073
0.559166
-0.664701
0.139772
0.19756
-0.144365
1.003
0.472057
1.30657
-1.49546
0.201872
0.681397
-0.133204
0.242562
1.01725
-0.0391559
-1.01027
0.293981
1.48152
0.60612
0.000196681
0.996794
0.286847
0.0371667
-0.0207647
0.903812
-0.269812
1.0714
-2.99703
0.754985
-0.221905
-0.618483
0.581072
-0.57035
-0.436949
-1.57805
0.261575
1.20954
0.922813
0.724358
-0.122971
-0.620101
0.116082
-0.308105
-0.255879
1.76189
1.55199
2.31069
-0.0357436
1.04052
1.2861
-0.30782
-1.61451
0.537494
1.14774
2.02477
0.155387
0.00285626
0.487566
-0.724861
-1.55968
-0.76817
0.643668
-0.361128
0.472732
-2.36401
0.786609
0.632349
-0.928708
0.749227
1.00058
0.359856
-0.462354
-0.432187
0.870471
0.508231
-1.71647
-0.398585
0.23831
1.66448
-0.364679
0.514943
-0.703176
0.678534
-0.438367
-0.520398
0.927731
-1.27056
-0.302551
-0.0376162
-0.665499
-1.29184
0.765336
-1.14969
-0.48677
1.19901
0.64237
-0.990245
-0.911788
1.63844
-0.0308458
-1.01608
0.522789
1.38779
0.078386
1.13672
0.336384
0.332927
0.387629
0.0244799
-0.261149
-1.38432
-0.114139
-1.95168
-0.97216
-1.92756
0.403789
0.386491
-1.88691
1.02936
-0.352631
-1.72907
-2.45275
-1.56126
0.240281
-1.04834
-0.126955
-0.893642
-1.51352
-1.10781
0.776079
0.246861
0.269782
-2.19003
0.729796
-1.00347
2.18841
0.44666
-1.09491
-0.858555
-1.01744
-2.08498
-0.39631
-1.03895
1.20808
-1.00762
0.639214
-0.974919
0.133493
-1.77144
-0.693421
-0.439702
-1.3758
0.649888
0.543925
-2.70471
-1.53364
-3.33304
-2.16302
0.10818
1.17454
-0.485616
-0.558648
-0.268131
0.816244
0.412373
-0.594329
0.540056
-0.311795
-0.205534
1.79236
0.663164
0.371796
-0.0312338
-0.735303
0.465519
-0.279551
-1.62582
-0.663791
-1.20473
-0.349082
0.049261
-2.5117
0.123688
-0.0868712
1.2871
1.10973
0.0922228
1.18403
1.61859
0.493477
-0.756352
-0.0889654
0.0235278
1.545
0.170096
0.560995
2.22733
-1.71271
-0.980886
0.290245
-1.02118
-1.11931
-0.769747
0.192484
-1.07808
-1.2423
-1.79518
-0.915664
0.338991
2.15734
0.471252
0.00566052
-0.479323
-1.04851
1.42929
0.647465
-0.244413
1.25769
0.200246
0.737406
-0.671716
-1.85957
-2.39838
0.181007
-1.0134
-0.0498325
0.00682971
-0.218776
1.13473
-0.905546
-0.642912
-0.898045
-1.48185
-1.02275
-1.54185
-0.380278
-0.720274
0.0718196
1.55277
0.421524
0.102103
-0.363327
1.51585
0.684341
-0.21633
-1.44175
-0.000171848
-1.26079
-1.33993
0.669954
1.12901
-1.38882
0.153977
-2.5895
-1.69604
-0.749605
-1.8345
0.475741
1.94712
-1.41434
-0.292127
-1.59025
0.48184
0.319851
2.29288
0.0317715
0.61569
-0.191744
1.6803
1.22089
0.429986
2.06128
-0.252426
0.166001
0.975638
-1.0767
0.488496
0.618549
0.113
-1.10619
-0.933157
-3.29153
-1.63963
-2.44638
-1.96034
-1.0789
-2.42161
-3.91567
-1.30518
-2.08175
0.882376
2.19616
0.318796
0.833707
-0.63442
1.44482
-1.64825
-1.21165
0.754631
1.79372
0.66918
0.0311819
-0.246987
-1.86285
-1.11179
2.23498
-0.332697
0.131095
-1.53793
-1.55985
-1.62419
-2.34097
-1.7569
-4.17979
-1.51122
-1.1894
0.281083
2.13064
0.470285
0.642507
0.64811
0.542536
3.69918
1.17461
-1.35456
0.0614779
-0.388138
-0.81028
-1.2958
0.845068
-0.304199
1.18631
1.94389
-0.540616
-1.77656
0.127475
0.914538
-0.596129
-1.36216
-1.23274
-0.926597
-1.00819
-0.694352
0.0424792
2.38294
1.12832
0.0247617
-0.261241
0.408852
-0.385334
-0.226177
-0.888515
-0.0823299
0.456007
-0.163855
-0.39538
-0.231981
0.124962
-0.341498
0.376166
0.609529
2.35034
0.867663
1.86249
-0.165281
-0.713721
-2.84243
0.679427
0.0701252
1.32901
2.57952
1.45354
0.810706
0.890663
1.35765
0.285333
0.267627
-0.536599
1.00888
-0.457397
0.89329
-0.888633
-1.31499
0.0629832
0.795681
1.44165
-0.0378545
1.44227
0.141545
0.300871
1.63493
0.709288
-0.451065
1.70338
1.26787
0.857671
3.18253
1.48953
1.20381
0.763296
1.63777
1.09536
0.0460817
1.52614
0.105525
1.94961
1.34791
-1.59531
0.28299
-0.294796
-0.950833
0.0133709
-0.739249
-0.275452
-1.76438
1.88095
0.712912
0.976388
-0.194282
0.186621
1.17289
2.29103
0.905741
1.2865
1.99808
0.192181
2.09059
0.80238
0.935848
0.05708
-0.0456637
0.306825
2.61351
0.158533
-1.11857
2.07738
-0.294476
-1.36641
-0.911284
0.728735
-0.715911
-0.1588
-0.663438
-1.6058
-0.833612
0.518585
1.88454
0.578334
1.65503
2.30101
1.70251
1.60709
1.15541
1.67886
0.643738
-0.0574233
1.49699
0.781984
1.86627
-0.137813
0.0568898
-0.15326
-0.255942
-1.74427
-0.574856
0.201737
-0.313774
0.12071
0.37299
-0.736439
0.386815
0.207173
-0.592057
2.92611
0.732839
1.08838
1.66138
-0.269633
2.0865
0.0718942
-0.182706
1.61792
0.220132
2.23812
-0.261958
0.56799
1.97752
0.163824
-0.461037
1.14488
0.775989
2.12203
-1.46267
2.35019
1.2264
1.68961
-1.18999
-1.50625
1.10523
0.703528
-0.0152029
-1.12371
0.844558
0.389733
0.0376358
1.15202
1.59358
1.8829
0.597728
0.734661
2.98497
-1.08092
-2.6863
-1.58572
0.906463
0.0412722
0.25751
0.475896
0.149852
0.870269
1.81209
0.664904
-0.106704
0.208998
1.20286
0.0408988
-0.0581893
-1.97113
-0.844826
-0.0834295
-0.635465
-1.1697
-0.278453
0.827723
-0.639608
0.279431
0.607144
-0.62
-0.421854
-0.258108
-0.938029
-0.853444
-0.764157
1.15344
-1.06895
-1.61013
2.10016
0.361971
0.667168
-0.524741
0.110717
0.561479
-0.665547
0.144947
0.264454
-2.1301
-0.384809
-0.0954868
-1.11965
-0.959664
-0.712185
0.398249
0.234642
-0.368494
-0.155018
-0.173203
0.879109
-0.345899
0.422297
0.143864
0.120143
-0.00358411
-0.612326
1.34826
2.01988
-0.378159
1.00676
-1.0254
2.48053
-1.71901
0.760492
-0.641849
0.00434355
-1.52716
-1.28133
-0.963218
-0.274504
-1.59612
-1.56331
-2.03334
0.294
-0.143288
-1.5434
-0.098639
-2.06529
-0.431202
-0.99393
-0.0179536
0.136214
0.262678
-0.948059
-0.921877
-1.15773
1.06419
-0.307144
-0.69022
-1.41956
-1.04572
1.77416
-0.122983
-1.85438
-0.944908
1.00855
0.459208
2.09485
1.15241
0.536658
0.264928
1.62346
-0.123213
-0.227548
-0.790749
1.23167
1.89836
0.358369
-0.291884
0.719392
0.193447
-0.821818
1.25462
0.348672
0.861286
0.118134
-0.197748
-1.32167
0.365639
0.409008
-0.486967
0.327266
-0.457239
0.177606
0.208211
0.0111212
-1.31107
0.476487
1.97055
1.85165
-0.798013
-0.957984
1.28401
-0.822477
-1.54101
-1.23595
0.347925
-1.92695
-1.71508
0.979286
-0.135419
2.20267
-0.796594
-0.205697
-1.44965
-0.0177341
1.21473
-0.212832
0.703233
-0.396333
-1.12038
0.72426
-0.551635
2.96677
-0.0212417
-1.60829
-0.336958
0.14338
0.833224
-0.290314
-0.365009
1.25693
0.839355
-1.6824
-0.228456
-1.9256
-1.79232
-0.827815
-0.844446
-2.56274
-1.1085
-0.299398
-0.739898
-0.531671
-0.827841
-1.62327
-0.296882
0.241951
1.04314
1.61225
1.48273
-1.14003
-1.10122
1.28906
-0.553178
0.54121
2.23193
1.19879
-0.107449
0.539481
-1.14757
2.70483
-0.215137
-0.0171989
-0.864476
1.23935
-2.47306
-1.72433
-1.70007
-0.449561
1.03459
1.15093
-1.722
-0.740589
1.03011
0.648294
-0.218411
0.8111
0.131221
-1.04602
-1.18273
-0.309747
1.09977
-0.077805
-1.19147
1.27266
0.235365
-0.752242
-0.841148
-0.641632
0.424428
1.9335
1.06391
0.142808
-0.805033
0.852644
1.35964
-1.34597
-1.93135
-0.838543
-1.53466
-0.39389
-0.303952
0.956527
-0.413016
-0.0629524
0.273311
0.130436
0.819479
0.304967
1.77366
-0.922891
0.45097
1.8633
-0.562092
0.440296
0.522633
-1.26384
-0.528785
-1.73427
-1.15122
-1.49338
-0.642495
-0.234458
-0.317671
-1.6591
-0.980819
-0.731541
-0.744463
-0.961733
0.977868
0.271209
0.951029
-0.646679
0.383073
-1.09452
0.405214
0.257254
-1.28524
1.20824
0.318446
1.10997
1.85841
-1.05587
-0.226469
-0.0155215
-0.292189
0.409363
2.33355
-0.279235
1.45608
1.50489
1.13181
-1.11743
-0.513661
1.24766
-1.36969
0.563224
-0.626229
0.445967
0.594697
0.143125
0.314173
-0.232566
-0.894458
-1.41714
0.458861
-0.757563
0.0923107
-0.12392
0.817741
-0.832873
1.918
0.492266
0.477218
-0.542262
0.432324
0.775299
-0.0383912
-0.210389
1.2437
0.783975
1.01343
-1.75018
-1.13068
0.806249
-0.0742782
0.309527
-1.01162
0.982906
1.95206
2.06222
0.563346
0.403917
-0.979783
0.374589
-1.12489
0.0424448
1.27443
0.0406929
-1.14264
-1.03255
2.01903
2.05499
1.14845
0.727036
0.122608
2.19655
0.389736
1.09751
0.98158
-1.11689
-0.285433
0.987599
-1.58266
1.252
1.25079
0.685672
-0.293338
-0.896323
-1.15413
1.53029
0.54788
1.22457
0.540899
-0.326466
-0.393555
0.396407
1.41504
1.87326
2.83695
2.01528
1.16857
1.17517
1.00054
2.33763
1.59475
1.70895
1.31247
-0.160012
-0.262999
0.621047
-0.35862
-0.532471
0.827895
0.975351
-0.934453
1.3434
-0.609015
0.11566
0.378754
0.00770671
-1.1945
1.67255
1.95838
1.21651
0.792036
1.01376
0.0318761
0.43818
0.808195
0.583255
-0.0118136
-0.490717
-1.45485
1.06881
3.84227
1.4042
-0.174463
-0.811439
-0.368505
-0.474591
1.06606
2.77638
0.694391
-0.950292
1.47699
-0.193667
1.33352
2.25767
2.5217
0.483485
0.832034
0.903981
-2.20257
-1.74162
-0.774447
-0.261318
1.15538
2.21811
1.8058
-0.256288
0.40841
-0.371933
-1.72575
-0.0106021
1.1849
1.44954
-1.16503
1.26314
0.547034
0.690376
-1.42257
0.944843
0.122591
0.662742
0.552595
0.579706
1.28889
1.08316
1.40052
-0.462528
-3.3851
-5.75992
-1.45174
-1.78421
-0.226741
-0.292459
-1.88038
-0.983296
0.0107268
1.32239
-1.27237
1.31831
1.55319
-0.620453
-0.712884
-0.0610865
-0.7353
-0.115931
-2.65424
-0.63535
0.161102
0.684151
0.183323
0.517762
-0.475793
-0.454889
-1.1766
0.224614
-1.86241
-1.96183
-1.70744
-0.988602
-1.20981
-2.20926
-1.85315
2.05542
-0.0492563
-0.285832
-0.401092
-0.30571
0.666015
0.587552
1.91905
-0.996312
-0.0987617
0.367998
-0.52346
0.272602
1.00098
-0.779873
-1.92301
-1.08814
-0.997698
-0.72608
0.172708
-2.8963
-2.4704
-1.21473
-1.59015
0.513189
-0.826357
0.205439
0.93244
0.874854
-0.0591265
0.200806
1.58533
-0.878136
-0.880823
-1.17823
-0.677152
0.621541
0.050614
-0.301163
-1.05598
0.181629
0.0842022
-0.50504
0.613826
0.4272
-0.607334
-1.61799
0.107942
-0.852876
-0.499031
-2.10908
-1.51251
0.124214
-1.5089
0.99992
-0.82014
-1.48065
1.07001
-0.169106
0.124146
1.66502
-1.39627
-0.110914
-1.3193
-0.536704
-0.643692
-1.33757
0.19228
-0.861165
-2.18742
-1.7313
-0.711745
-1.79286
-0.476591
1.42872
-0.917377
-2.27364
-1.71036
0.828933
-1.51206
0.691335
0.278261
-1.80161
0.263674
0.523705
-1.23957
0.286599
-1.03999
-0.935374
0.989914
-0.929493
-0.050815
-0.573328
2.22271
-0.696792
-0.780208
-0.0964468
-0.585614
-1.955
0.281242
1.2889
-1.43541
-0.350223
-0.603065
-0.489428
-1.46761
-0.721478
-1.41287
0.524067
-0.733059
1.05534
-0.497402
0.340236
0.990044
0.362447
0.609528
1.03329
-1.49086
1.03298
1.48804
-0.487125
-1.40341
-0.965969
1.51005
-1.5193
-1.30216
-0.0231366
-0.519515
0.701084
-0.441631
0.357606
-0.43141
-1.06865
0.28323
-1.2197
-0.470826
-1.27323
0.110955
-0.388493
-0.038662
-1.12217
1.22048
-0.112538
-1.12084
2.42284
-0.117065
0.0891707
2.12538
-0.948311
-1.16417
0.513808
-0.532826
1.15847
0.46661
-0.042948
0.306518
0.54466
1.23252
1.30269
0.312618
0.658555
0.4447
-1.28612
-1.44986
1.11975
-2.83299
0.17073
-1.32312
-0.468526
-0.628905
-2.44058
0.725554
0.510674
2.00941
-0.57155
0.110301
1.75686
1.35522
-1.1321
0.332803
1.86452
1.04303
-0.00457606
1.51719
0.532352
0.644427
1.23856
-0.89096
-0.916589
0.0885562
0.495029
-0.687428
-1.25807
0.791592
-0.339157
-1.89475
0.289939
1.16544
-0.529996
-0.0433385
-0.335694
-1.32032
-0.425941
0.145516
0.111477
0.812124
-1.71536
1.30741
-0.0771162
1.83176
0.223704
0.580825
-0.303138
-0.249099
0.452223
0.598107
1.1065
-1.40883
1.70278
-1.10541
0.702948
1.45159
-1.64243
-1.52609
-1.73679
-0.891088
-1.16352
-1.03807
-1.33156
0.779645
1.81603
-0.137529
0.153112
0.259156
-0.223518
-0.72549
2.06593
2.00526
-0.544954
-0.359723
-1.28827
1.63099
1.65302
0.0549997
-0.606499
-1.16167
-0.163127
-0.999304
1.39068
-0.0752636
-0.31966
-2.46665
0.809263
0.390891
0.938063
0.036485
0.0990307
-0.461727
0.135325
-0.0294417
1.48861
-0.533332
-0.911367
-1.48545
0.156775
-0.543316
-0.923659
-0.976448
0.0854445
-0.869962
-0.935411
0.00046915
1.48629
0.342956
0.519158
-0.710323
-0.809
-1.32277
-0.0815704
-1.8497
-1.8382
0.518617
-0.993557
-0.250471
-0.351022
0.376909
0.511282
0.663925
-2.1802
-1.43423
-0.744411
0.671294
0.725111
-0.393236
-0.528135
0.40972
-1.64808
-1.82019
1.48229
0.00659881
-1.07722
0.51271
0.167946
1.79866
-0.564564
-0.173899
-0.0149988
-0.382646
0.691456
0.984999
-1.02024
0.00541391
-1.34093
1.48745
0.470417
-1.2128
-1.10663
0.45107
-0.766347
-0.0405989
0.401869
-0.379308
-1.35098
-0.823036
-0.611075
-1.05822
-1.5172
0.824603
-0.180925
0.392225
0.711377
-0.565136
1.98163
0.816781
1.03524
1.05853
-1.28914
1.7953
2.65655
0.0520223
-0.351158
0.0870501
-0.444369
-0.32503
-1.47162
2.28112
0.134725
-1.13515
-1.20865
-1.54588
1.53398
-0.243672
0.637778
1.00757
-0.0512947
-0.390689
0.423436
-1.1258
-0.373427
0.932696
0.354752
-1.33023
