23520
0.184128
-1.00596
-0.34198
-0.0447241
0.278441
-0.580894
-0.151515
-1.14743
-0.611
-1.18952
0.872265
-0.0155418
1.16673
-2.15761
0.757189
-1.69046
-0.348794
-1.72951
0.696312
0.564962
0.479861
-0.295945
-0.420309
-0.859614
-0.407915
1.24758
-1.82938
-1.59652
0.690312
0.928122
1.58654
0.401306
-1.26969
0.469214
1.31112
1.24521
0.231552
0.273555
-0.668167
-0.215875
0.45288
0.849994
-1.92356
-0.594672
-2.75502
1.14023
-0.596772
0.972197
-0.050356
1.21909
1.28607
0.158333
-1.15362
0.0697348
0.942503
-0.607014
-0.459123
-0.0170042
0.846012
0.0112808
-0.808484
-0.553767
-0.470627
0.338376
0.255628
-0.648832
-1.23139
-1.55694
-2.56879
1.45644
0.792888
1.65019
0.568513
0.432974
1.42749
-0.449418
0.294069
0.250683
0.576391
-0.369312
1.265
0.173942
-0.707464
-0.634093
-0.133681
-1.36109
-1.3002
0.0109421
-1.05485
-1.12681
-0.210275
0.737972
-2.09174
0.687775
-1.17505
-0.235382
-1.17786
-0.868661
-1.17387
-1.23417
0.796439
-1.74058
-0.705633
0.20398
-0.571785
-0.00911741
1.68633
-0.259222
1.31019
-0.944081
0.757449
0.573633
0.575938
-1.81636
0.954623
-2.34034
-1.35606
0.695623
-0.4916
0.716068
0.6183
0.545129
-0.37614
-1.45913
-1.85444
-1.74733
0.591257
-1.78149
0.689062
-1.31962
0.88679
-0.126453
0.623941
0.888305
-0.631381
-1.38034
1.31072
0.905384
-0.343209
1.24574
-0.894301
-0.208829
1.12632
-0.236882
-1.05661
-0.519101
0.455656
-1.58368
-2.24869
-3.59196
-2.87687
-0.425894
-1.02613
-1.57818
-1.02605
-0.185547
-1.74605
-0.0382993
-0.851913
-0.10163
-0.751225
0.303742
0.413258
0.691314
0.65913
0.233657
-0.38654
-1.81752
1.32138
-0.466423
1.32971
1.59841
-0.156135
-0.920284
-1.62829
-1.9102
0.0683456
-1.9909
-0.951631
0.331593
-0.95449
1.91582
1.80773
1.44302
0.997392
0.238122
0.450655
0.313046
0.418565
-0.325631
1.48803
-1.29335
0.287331
-0.710815
0.537327
0.873746
0.0944429
-1.05737
0.338106
0.820297
-1.01741
-0.317096
-0.885873
-1.16801
-0.53224
-0.880164
1.19933
1.48338
-0.269113
0.73279
1.94118
2.04917
1.72624
-0.936075
-1.45016
-0.812755
1.27501
1.21579
-0.00220511
0.818137
0.711207
0.315897
-0.409762
1.55142
0.0610132
-0.674463
0.238901
0.756995
-0.661607
-0.465879
-0.203467
0.0988375
0.331313
-1.56725
1.71251
0.883921
0.744708
2.38863
0.209629
1.92641
1.33528
-1.48933
-0.831525
-0.616285
-1.68774
-0.648998
1.46759
2.25454
-0.370412
0.067681
-1.14595
-0.739207
0.496684
0.123684
0.294555
0.678653
0.0579075
-0.471324
-1.15849
1.67563
-0.421467
0.716072
-1.44085
3.20009
1.34191
1.90229
0.179387
-0.690156
-1.19881
0.0899574
2.09918
0.646493
1.04844
-0.450624
2.10793
-1.01369
0.624623
-0.129704
-0.281588
0.899561
-0.248135
-0.645432
0.0114934
-0.214832
0.19268
-0.681487
-0.465841
0.560228
0.644811
0.511846
0.158515
-0.625069
2.25356
0.91501
0.770539
0.707058
-1.23023
0.683753
-2.12562
-1.79111
-0.0663818
0.294261
0.423265
0.968192
-0.038987
1.70196
0.819269
0.110388
-0.174012
1.5877
0.017481
-0.759366
-0.627595
-0.0160291
-0.784933
-0.309777
0.843219
0.856871
2.06459
1.78428
-0.139377
2.07701
0.883807
-0.491289
0.546595
-0.253342
2.07556
0.361267
0.521732
0.975984
0.149765
-0.675555
-0.183688
-0.970462
0.279859
-0.0879925
-2.02842
0.813421
0.349084
-1.02391
-0.0159028
2.74605
0.79086
0.262627
-1.22985
0.680708
-1.07279
-0.18196
-0.684313
0.755747
-0.337573
-0.382904
-1.20721
-0.0516482
-0.0546215
0.931807
1.44929
1.22431
-0.715222
0.802266
-0.0155691
0.00962523
0.762281
0.901515
0.138806
-0.602877
1.55692
-0.24318
-0.472312
0.784201
1.08575
0.931794
2.31288
1.28683
-0.44134
-0.167125
-1.68823
1.45624
0.300512
2.78186
-0.14055
-1.55274
-0.0460115
-0.100053
-0.604876
-0.216618
-0.237683
1.79753
-0.25432
-0.428656
-0.842062
1.80439
-0.23597
1.19043
0.134341
1.2549
0.211954
0.0771725
-0.416852
-0.691141
0.224527
-0.711445
0.137787
-0.744147
-1.38078
2.09387
0.417187
0.230148
-0.588247
-0.489938
-0.495121
-1.99474
-1.91228
0.514815
0.493811
0.589623
1.80236
-0.405632
1.85071
-0.0603915
-0.48747
-0.833802
-1.21897
0.698399
0.565329
-1.61972
-0.0337045
0.344189
-0.651897
-1.68524
-0.501302
-1.04209
-0.881796
2.01369
0.203336
1.20793
0.540643
0.675966
0.947935
-1.28652
-2.45461
-1.14718
-0.727622
0.216355
1.43493
1.30516
-0.556104
-0.634737
0.396308
-0.46685
-1.63281
-0.271857
-0.020954
0.133286
1.13869
0.812819
-0.261202
1.90045
-0.436642
-0.782676
-0.637425
-0.295173
-1.51108
1.28536
0.604386
-1.39768
-0.538416
-0.579726
0.122078
0.249816
0.645278
0.754712
1.46326
-1.74786
1.47777
-0.178373
0.102654
0.686267
0.212974
0.980542
1.52081
0.613228
0.796407
-1.10297
0.271534
0.777591
-2.17625
0.25952
1.4862
1.47962
1.16672
-0.187749
-0.198638
-1.77365
-1.15995
-1.42099
-1.8145
-1.64811
-0.831197
-1.67514
2.15683
0.515885
0.0803417
0.523124
-1.08377
0.330958
-1.25871
-2.00654
0.561892
-2.37941
2.2724
-0.178058
-0.287112
0.709235
-0.192826
-0.387885
-0.706792
0.780598
1.21312
0.920511
-0.729214
-0.590369
-2.80569
0.99916
-0.619389
-1.18461
-0.270614
-0.94776
-0.727135
1.0781
0.907675
-0.44265
-0.487786
1.06114
-0.0162176
2.15513
1.14113
-0.882482
0.0921878
-0.11937
0.112105
-0.134162
-1.68254
-0.184758
0.0849654
0.00354361
-1.16719
-2.64492
0.652035
-0.724588
0.394743
-0.485499
-1.08863
0.149896
1.91433
1.08103
-0.104122
1.13472
1.08448
-1.41631
-0.792682
0.157606
-1.11137
-0.61081
3.01224
-0.810224
0.166997
-1.57601
0.0923229
0.716107
0.292077
-1.07534
0.606525
-0.141518
-2.05281
-2.86411
-1.02818
-1.03831
0.445267
0.773231
0.78291
-0.200685
0.39775
0.986545
0.827213
0.14325
0.0671208
0.701438
-2.12961
0.0479259
-0.119815
-0.642816
-0.469754
-0.0380741
3.10327
1.48695
1.10437
0.470412
0.215794
0.403948
-0.462443
-0.517258
0.0576484
-0.690116
-1.39661
1.85083
-0.0354638
1.19953
0.528572
0.182448
1.08584
1.30601
2.09344
-0.364405
-0.489961
-0.308839
0.519178
0.628902
0.298494
-1.40435
0.414193
1.3722
0.00807052
-2.03996
0.845518
1.76358
1.64772
-0.259381
-1.75985
-1.1379
0.257366
-0.282154
-1.21865
-1.09381
-1.09004
-0.857131
0.7748
1.03995
-2.33542
0.0253517
0.628789
-0.192468
-1.84768
-1.0528
0.453855
-0.841721
-0.909663
2.56776
1.19692
0.183319
-0.0825571
-0.697829
-0.727567
1.49286
0.0111693
1.1475
-1.03818
-2.79921
0.392095
-0.488065
-1.97912
-0.25343
-0.607004
0.311529
-1.01208
2.31216
0.488552
0.466671
0.862039
-0.643541
1.05077
2.11346
-0.299195
0.0694235
1.22466
1.57095
0.362759
-0.182159
-0.416468
0.0223939
-0.475455
-0.152536
0.288269
0.1565
-2.03495
-2.23113
-1.46196
-0.0126455
-1.3923
1.43311
-0.0744859
-0.226245
1.45867
-0.957971
2.20368
-0.043459
0.129985
0.879861
0.668689
-0.953488
1.51832
-0.813793
-0.185782
-1.31832
0.224219
-1.34044
-0.966621
-0.900722
1.49446
-1.93052
1.73293
0.313972
1.27859
-0.279856
0.580387
0.211562
1.4626
1.06791
1.32968
0.288207
1.20895
-1.2817
1.73711
-1.66321
-0.884257
0.28796
-0.310888
0.361512
-0.300894
0.378516
0.531008
0.736554
0.285878
0.637743
-0.24289
-0.213832
-0.473293
0.511951
0.118407
0.786365
1.49358
0.0313747
0.960581
0.575191
0.735544
-0.823884
1.5329
-0.500859
1.16242
-0.103965
0.388816
-1.06936
0.729853
-1.3876
-1.99384
-1.561
0.0801717
-1.33295
0.630058
-0.0858116
-0.758695
0.344443
0.554937
0.714834
1.60405
0.792578
0.283283
1.01775
-0.537088
-0.0818926
-0.226531
0.491237
0.419841
-0.147661
-0.658867
-0.419868
-1.13633
0.0792958
-1.53075
0.507084
-0.370618
2.53274
1.62098
2.06599
-1.05625
1.39227
-0.520569
-0.982848
-0.407771
-0.498097
-1.26008
0.143906
-1.14702
-0.496974
1.08032
-0.85004
0.767273
-0.984738
0.569223
-0.577752
0.079244
-0.481935
-0.216238
-0.125664
-0.571962
0.303772
0.633427
0.236837
0.203871
1.53561
0.0430285
-2.90163
-0.387815
-0.829255
-2.16848
0.294327
-0.116483
0.198671
1.24034
-0.107881
-0.822415
1.34791
1.46565
0.706242
-0.862671
-0.416321
2.19775
-2.57304
0.375445
-0.148158
0.43526
0.388344
0.0123492
2.08721
-0.496818
-0.792908
-0.205531
-0.0573256
0.292806
-0.156303
-0.671449
0.0465351
0.0738165
0.149967
0.19336
0.269103
-0.769837
-0.648461
-1.09421
-0.656941
0.837492
0.356308
-1.09066
-0.0350198
-0.429359
-0.752963
0.169858
-0.592156
0.37545
-0.179751
-1.30118
0.714196
-1.15053
0.19604
-0.655469
-0.331263
1.71177
0.426714
1.68715
0.316777
0.605585
1.21696
1.25043
0.515572
-0.756385
0.850995
-0.360231
-0.986798
-0.835418
0.293639
0.551914
-2.29876
0.489767
0.561694
1.59621
-0.767364
-0.567454
0.49465
-1.54996
-0.262791
0.432579
-0.751381
1.99251
0.40267
0.28153
-1.1834
-0.974313
1.06914
0.228638
-0.780317
0.0708108
0.127558
1.43982
0.647675
-1.17935
-1.40458
-0.647885
-1.88461
-0.799503
-1.02678
-0.992627
-0.71901
-0.184368
-0.407234
-0.245685
-0.546378
-0.868041
-0.624503
0.568749
0.329478
0.563109
-0.373045
1.22581
0.402794
2.57458
-0.51123
0.417699
-0.627537
2.09573
-0.852841
0.470234
1.63618
0.480221
-0.565396
-0.296585
1.48739
1.14524
-0.521227
-1.58256
-0.664207
-0.063105
1.87741
0.000112874
3.6886
0.0192035
-0.710176
0.341441
0.858844
-1.40311
0.192731
0.0301463
0.289851
0.578068
-0.808945
0.992174
0.264889
0.562119
0.757815
1.52815
1.21414
0.055246
0.686897
1.71439
0.622614
1.35137
0.605636
-0.278726
-1.27388
0.231731
-0.121956
-1.37992
1.37223
1.22714
0.557306
1.64169
0.0905196
-0.512773
-0.59959
-1.0542
-1.61913
1.19118
-0.370134
0.873821
0.678329
-0.253486
1.32949
-0.441601
-1.08126
1.64269
-0.416665
1.70247
-0.26955
1.08063
-0.193403
-1.00228
0.40055
-1.51324
2.14648
0.190603
1.57968
0.924335
1.0606
1.20123
1.64134
-0.41828
0.230133
-0.103651
-0.494398
0.464128
-0.475498
-0.896341
-0.0644066
0.673665
1.90233
0.862565
0.345985
0.668862
1.77076
-1.00724
1.97383
0.116063
0.509453
1.05409
0.020115
2.28851
1.07677
0.983566
0.542689
0.926412
0.0791105
-0.432318
1.1164
0.334392
-0.407754
-0.123953
-0.896853
0.657589
0.0878209
0.341799
0.694876
-0.631704
1.20748
0.752337
0.408162
0.493685
0.589545
0.911416
-0.497031
0.735964
0.201553
-2.30591
-0.305307
-1.12051
0.152461
-1.0705
1.16477
-0.313631
0.482556
-0.923854
1.45998
-0.315154
-0.551648
-0.213991
1.6611
-1.19402
1.3978
0.832128
1.08999
-0.690513
0.289375
0.531231
-0.112921
0.169652
0.396458
0.957217
-0.106661
0.150948
-0.403023
-2.31498
-1.5794
0.0255906
-1.0387
1.90724
0.680735
-1.50368
0.0279748
-0.131675
-0.0611015
-0.225318
-0.59801
1.20429
0.900523
1.36033
0.800281
0.446517
1.34222
-0.723761
-1.11809
0.441615
0.384796
2.70091
-1.0685
2.06003
1.81699
1.45128
0.202372
-1.0441
0.515453
1.47586
-0.437788
0.316946
-0.897938
-0.735727
1.35143
2.1075
-0.563763
0.310107
0.92812
2.52806
0.211059
-1.06409
-1.65433
-0.520899
1.87479
0.491813
1.96228
0.257946
1.62909
-1.0169
1.62625
0.837521
-1.2791
-0.757367
0.442322
1.9586
-1.16211
-1.52656
1.39676
0.0873558
0.918747
0.2353
-0.308203
0.975555
1.33967
-1.36308
-0.417931
-0.490127
0.568016
-0.0417658
-0.627431
-0.655112
1.6467
1.11233
0.192833
0.0608173
0.0278503
1.60388
1.81592
1.33099
0.540959
-2.08783
-0.737008
1.66051
-0.846418
0.0274323
-0.286711
-0.276586
0.0107205
0.0156991
0.541317
1.02206
-1.69646
0.957959
-1.19142
-0.552033
1.32532
-0.339008
1.71788
0.363967
0.655874
1.95382
-1.0848
0.0512888
0.9426
-0.45148
-0.892183
-1.65972
-1.63965
-0.560271
-0.36614
0.376129
1.24924
0.263134
1.63877
3.06751
2.09332
-1.34354
1.68447
-0.946699
0.38815
-0.964602
-0.783897
1.06219
-0.345391
0.33294
-1.02535
-0.900922
-1.36138
0.493865
0.187909
-1.15128
-0.786387
-1.09888
-1.4084
0.572472
1.80489
-0.369508
0.225791
0.405131
-0.0137193
-0.820664
1.2928
0.893348
-0.279663
-0.588167
-1.89085
0.212414
-0.996739
-1.35327
0.574697
0.732296
0.426214
-0.269062
-0.848663
-1.96335
1.83746
0.621702
0.285073
-1.09596
-0.621792
-0.424136
-1.04604
-0.048197
-1.09579
-0.414679
0.736148
-0.17949
0.772666
-1.44984
-0.0723557
-0.586048
0.396842
1.01336
-0.834062
0.401029
-0.0883483
-2.5728
-0.587532
-0.899006
-0.526969
2.48885
0.27981
-0.0171605
-2.54638
-1.40139
-0.373159
1.57482
0.305462
-0.564953
-0.276326
-0.882009
-0.519967
0.102188
1.25712
-1.60425
-1.4867
-2.32064
-0.147006
-1.07218
0.861346
0.941126
-0.540458
-0.349083
-0.379202
0.195643
-0.263312
-0.437535
0.77989
-0.0961113
0.560299
1.3233
-0.798303
-0.435743
-0.930802
-1.36312
-0.963872
0.121943
-0.508106
-0.199097
0.764168
-0.917132
-1.41569
-0.368519
-0.75446
-2.24165
0.120999
-2.02161
-0.857692
0.577302
-1.31735
-0.580602
-0.654382
-0.91434
0.391714
-0.166645
0.489668
-0.596577
1.8708
-1.50414
-0.67893
-1.06545
-1.42895
0.261426
-2.47957
-1.18095
-0.338586
-0.546211
-0.613791
0.72158
-1.48637
-0.589913
-3.79371
0.0657894
0.729909
-0.0297994
-0.0025072
0.352728
-0.657268
0.324374
-1.87995
-0.615281
-1.15768
-0.571523
-1.61958
-0.38449
0.0164913
-0.672587
-1.01102
0.173082
-0.574824
-0.610467
-1.32537
-1.4327
0.453065
0.718336
0.592066
-0.650153
-0.300775
-0.214701
-2.08265
-0.0710965
-0.204201
-0.310661
-0.537104
-0.508543
-0.537986
-0.272195
-1.02251
0.344626
0.237881
1.55948
-0.714662
0.380736
1.26406
-1.11284
1.72405
-0.00859703
0.853615
-1.95071
0.790047
0.551343
-0.568308
-1.44114
-0.968421
-1.79158
-1.48125
0.00975314
0.167495
-0.217668
-1.45183
-2.05806
-0.929913
1.65531
1.05185
-0.14731
-1.54192
-0.280802
0.808469
0.274279
1.15924
2.53032
1.15229
0.199204
-0.763838
-0.229088
-1.19647
2.2443
1.06532
-1.76573
1.08354
-0.925932
1.17088
1.13665
1.75699
0.77098
2.32933
1.09746
-1.41283
-0.119219
-1.09703
0.841456
-0.178642
-1.16338
-1.16815
0.189481
1.78501
-0.377041
1.16888
-0.0937175
0.999366
-0.211955
1.75521
-1.02421
0.825597
0.862755
0.803543
1.00782
1.10973
-0.040697
2.233
1.53544
2.20544
1.2972
2.08264
1.6048
3.45168
1.57157
1.42131
1.83164
-0.913096
-0.0476833
-1.09222
2.31051
1.26015
-0.103477
-0.247271
0.0704535
-0.161868
0.318008
-0.141428
1.03059
1.57169
1.94936
1.54367
-1.80921
0.279756
2.9174
0.661811
1.91069
2.69503
2.07582
1.44044
1.76141
0.88173
2.43657
0.98333
1.27459
1.11656
-0.73395
-1.14734
0.600556
0.809273
-0.458467
-0.275347
-1.9449
-0.506997
-1.71699
1.90206
-0.274485
1.68396
-0.983693
1.67153
0.156437
0.579047
0.823334
0.3565
0.595678
3.09212
0.961132
-0.694328
2.85908
0.586953
1.67146
0.589564
1.25399
-1.13051
-1.5392
0.294773
1.2647
-0.86173
0.891504
0.766692
0.0146754
0.207764
-1.62375
-0.31585
-1.10542
-0.0693573
-3.07635
1.2841
-0.472871
-0.496407
-0.864384
-0.426275
0.977763
0.160987
1.45165
-1.37175
0.364216
1.09942
-0.0433856
1.71671
0.110073
1.303
0.445176
2.78824
0.104256
0.725095
0.297234
0.60679
-0.109215
0.694859
0.642349
1.44348
-1.04848
-1.07519
0.295239
0.390435
-1.37557
-0.495135
-0.948051
-1.76797
0.194737
-0.300491
-0.869918
-0.621144
0.606408
-0.673484
-0.667175
0.304944
1.64908
-0.273368
1.39808
2.20617
1.17234
1.87034
-0.397109
-0.519859
1.66574
-0.866263
-0.174872
-0.379949
-0.180241
0.128236
0.723321
0.379343
0.444032
0.888039
-1.08252
1.26151
0.0164802
-1.0667
-0.0661608
-1.77154
0.137244
0.37511
0.752652
0.757016
-1.73513
-0.323303
-0.229684
-0.855036
-2.06597
-0.00650685
-0.243745
0.51069
-0.789291
-0.881429
0.143373
-0.295214
0.93401
-1.54782
2.05501
-0.613353
1.55444
0.307833
-0.656786
-0.178097
-0.316027
-0.969252
0.814481
-1.33758
1.02801
0.321895
0.10717
0.147109
-0.162006
0.943551
0.313391
0.837148
-0.89053
-0.52224
1.41075
1.15432
-0.833712
1.42398
0.0310749
-1.4655
0.340825
-0.895092
-0.464433
-0.284872
-2.21356
0.209488
0.534242
0.623477
-0.258925
-0.403024
-0.236013
1.01588
1.10434
0.0675097
-0.0264288
-2.40878
-0.353838
2.00703
0.204873
0.759325
-0.1376
0.769296
-0.0599173
0.178701
0.43878
-0.98537
0.376129
-0.59245
0.0532365
1.44742
-1.55386
-1.2792
-0.970408
0.67624
0.220713
0.36446
0.0132066
0.782077
-0.307915
0.553301
-0.0351162
0.525072
-0.922282
-0.238049
0.861678
-2.42744
-0.0543303
-0.554947
0.694175
-0.185904
0.270419
0.0954035
-2.04738
0.908868
-0.767524
1.36032
1.15277
1.0003
1.18555
0.219778
0.208757
0.63617
1.74433
0.395748
1.4139
1.26344
0.842704
-0.358905
0.0315531
-0.106904
0.584163
-0.0893966
0.0130502
-0.875007
-1.72003
0.198373
-1.14125
0.0986003
-0.9632
1.70385
0.607665
0.479444
0.907776
0.377807
0.372899
0.88843
-0.373542
2.21049
0.912578
-0.118527
1.03611
1.39965
0.258189
0.193831
-0.16118
-0.241184
0.785308
-0.68943
0.0846674
-0.546839
0.160945
-1.00432
0.0983633
-2.37437
-1.01043
0.274058
0.195332
0.293114
-1.34327
0.467042
0.0360678
0.844446
1.22606
1.48335
2.7755
0.800895
0.91782
2.25159
2.76807
0.407084
1.31599
0.454113
-0.110285
1.69849
0.651921
-0.0413234
0.281638
1.07875
-0.0971375
1.41881
0.313109
-1.37877
-0.395422
-0.159318
0.288932
-1.10502
0.885993
-1.27318
0.575467
-0.242555
-0.497655
0.771163
-0.147901
-0.179579
0.271203
0.283569
0.315738
1.20085
0.254664
1.41716
0.922383
-0.0571679
0.171223
0.247388
0.577154
0.0158086
-0.785907
0.873982
-1.18765
0.448918
0.186226
1.98358
0.33138
0.289064
-1.2222
-0.834649
1.73482
-0.201239
2.42268
1.64341
-0.848116
0.84194
-1.70425
-1.23394
1.54002
2.89777
0.858913
1.66847
0.454887
1.34233
-0.0334351
-0.878548
1.133
-1.07335
-0.241017
-0.470205
-1.22369
-0.507058
0.555645
-0.791325
0.730599
-0.552288
-0.144037
0.638503
-1.48316
0.148563
-0.395821
0.690754
-0.11626
0.465786
0.701033
-0.977229
0.617379
-0.668222
-0.545731
-2.29835
-1.83227
-1.57319
-0.344712
-0.189613
0.45696
-0.610529
-0.905298
0.419214
0.929875
1.1875
-0.507745
-0.57127
2.03909
1.19053
-1.88917
0.33732
0.563266
-0.191501
-2.46037
-3.17732
-2.02151
-3.33355
-1.88765
-3.42755
-5.3578
-4.03688
-4.0574
-3.58952
-3.1513
-0.42603
-1.68282
0.444037
-1.67986
0.0577942
-0.159906
0.560968
-0.908678
0.0544194
-0.563367
-1.12843
0.716362
0.817143
-0.678082
0.241348
-0.484134
-1.00064
0.624461
-3.05537
-4.07693
-4.22467
-5.21323
-4.96342
-5.46837
-2.47483
-2.24151
-0.251167
-0.14247
-0.934716
0.732809
-1.07473
1.23179
-0.460245
-0.0900438
-0.411736
-0.0697591
1.25874
2.18254
-0.164819
-0.423144
0.475638
0.420719
-0.161785
-1.88821
-0.275478
-1.47742
-3.33839
-3.68183
-4.53069
-1.45891
-2.04042
0.472963
-0.274078
1.35949
-0.166337
0.976791
-0.338867
1.21368
-1.13824
-0.0941273
-0.320077
0.58963
-0.125197
-0.599739
-0.520687
1.13211
-0.0384214
1.60241
-0.0559153
0.530792
-0.882311
-0.991258
0.0840854
-3.30902
-3.3389
-1.42489
0.990055
-1.41654
-0.564825
0.602282
0.966466
1.53237
2.61857
0.65684
-1.97808
0.726239
-0.818856
0.672476
-1.33172
-0.46979
-2.76523
-0.0351778
-2.30695
1.08374
-0.425063
-1.92813
-0.797088
-1.20223
-0.228142
-1.84482
0.791934
-0.576816
0.594914
1.53263
0.980796
0.45332
1.25073
0.428959
-0.0688131
-0.618044
0.285311
0.761565
-0.265485
1.21548
-1.22805
0.392081
-1.26757
0.430802
0.411417
-0.521716
-0.305328
-0.0879063
0.102876
0.295521
0.617636
0.951478
1.70138
0.339309
-0.593328
-0.85031
0.303804
3.26458
1.83421
1.77695
1.77139
0.0115279
-0.295072
-1.2576
0.951814
-0.769626
0.042231
0.489139
0.571458
-0.49194
-0.207602
0.642099
1.03989
-1.17947
-0.734085
0.0254432
1.10667
-1.72264
1.09311
0.501134
-0.51271
-1.15419
0.000448756
0.844857
1.65403
0.459384
-0.149528
-1.53216
-0.963432
-1.10443
-0.192321
0.512304
-0.287923
0.926801
1.52118
-1.83389
0.0159181
1.22473
1.70044
-0.257506
0.0172874
-0.0786545
1.21116
1.99764
2.0217
0.960397
-0.44114
-0.169865
0.539644
-0.0789972
0.228702
2.58279
0.839939
0.791366
-1.78483
0.189916
-0.831456
0.319458
-0.881483
0.0834011
0.349423
0.372843
1.18957
0.75598
0.764815
-1.71
-0.702432
1.43925
-1.66851
1.76283
-0.422263
0.394079
1.75599
1.89375
0.707123
0.792689
0.560204
1.05676
-0.156651
1.2941
1.06572
-0.374132
-0.949383
0.873887
0.583142
1.03734
-0.961995
-1.03908
0.209446
-0.249617
-1.15639
-0.44359
0.322145
0.463207
0.0627434
0.616605
0.0826297
-1.13922
0.174315
0.255461
-0.489042
0.00718186
-0.262023
0.570453
0.181416
-0.123338
0.40967
0.60947
0.781745
-0.115242
0.127183
-0.67843
-0.649581
-0.92711
0.968242
-0.580991
0.939898
0.61712
0.252873
0.283327
0.788731
0.999163
0.387629
0.304518
0.414071
-1.69138
-0.937664
0.352019
1.61618
-0.45496
-0.863063
0.0962322
-0.102555
-0.279507
0.0303429
0.196041
0.263163
0.876278
0.620608
0.93702
1.03137
0.129529
0.335072
-0.462269
-0.710172
0.0594774
0.0372847
0.098384
-1.00648
-0.0206509
-0.169124
0.499274
1.43315
0.182535
0.766968
-0.946043
1.7315
0.766897
0.168982
0.339446
-0.602337
0.215164
0.551267
-1.01014
0.58358
-0.301712
-1.09473
-0.234427
-0.367821
0.234912
-0.746162
1.02587
-0.302441
0.129397
-1.29153
0.0110018
0.489217
-0.189422
1.56041
-0.42017
1.1411
1.19284
0.281947
-0.987923
1.13833
0.178837
0.210158
-0.326253
1.50935
-0.199869
-0.0682854
2.55564
1.29031
0.490492
0.868697
0.0300862
-0.275933
0.110044
0.232511
0.600047
0.790237
-1.14516
0.547856
-1.14144
0.0370456
0.204174
-0.689385
0.093005
0.449864
0.308331
0.746959
-0.396146
-0.833609
1.13235
0.98163
1.02714
0.117399
1.14421
-2.71173
1.42895
-0.805101
0.140875
0.612973
-0.866035
0.140183
-0.692091
-0.989304
-0.817582
-1.89939
-0.0425972
-0.00559468
0.442467
-1.07356
-0.676007
-1.25642
-1.20815
-0.153816
-0.365066
0.978301
0.406337
0.400944
1.91465
0.955481
1.02814
2.50105
0.7104
0.433045
1.7768
0.301672
-1.45237
2.05054
1.52771
0.123273
0.0301318
-0.0458355
0.0471654
0.539468
0.592413
0.240735
0.118527
1.11916
0.19957
-1.41556
-0.575076
0.791708
-0.104039
2.0531
-0.641674
2.89438
-1.54538
0.827622
0.549853
-0.286321
0.219675
1.69132
1.32871
0.167951
-0.269519
0.526504
-1.5566
-0.0146519
0.78153
-0.0701596
1.11368
0.539676
-0.385612
0.638152
1.2983
-0.234427
-1.21261
0.9217
-1.11045
0.447062
-0.717281
-1.90457
1.20942
0.928258
-0.215304
1.78362
-0.343744
-1.26502
-0.233831
-0.276743
-0.494332
0.864482
0.344582
-0.159151
-0.589381
0.819509
-0.136645
1.58812
2.01947
-0.335797
1.6921
0.339186
-0.215325
0.286494
0.23968
0.478442
-0.840841
-0.456835
0.941335
-0.210591
-0.840171
1.31537
0.296803
-0.794544
-0.503983
0.827334
-1.41601
1.16539
-1.0589
0.0433305
0.813233
-1.53725
0.323258
1.02499
-1.08251
-1.84386
-0.00380173
1.76353
-1.54428
-0.561009
-0.319461
2.1945
-0.450437
-0.388019
1.95283
-0.0728505
0.481253
-0.987913
0.791823
0.868047
-0.712422
-1.19189
2.03845
-0.6428
-0.33291
1.2586
0.190012
-0.0919851
0.832776
0.1892
0.59451
0.888552
-0.566892
0.0705785
-1.14977
-1.08017
0.000353717
-1.00979
-0.0832232
-1.89143
0.825337
-0.450631
-1.16016
0.869455
-1.82851
-1.07793
0.709836
-0.809757
0.12039
1.39394
1.03836
1.64357
1.47652
1.18128
-1.90188
0.132315
-0.774878
0.138522
0.660218
-0.978992
0.580824
0.114789
1.68956
1.88248
-0.35049
0.837848
1.37206
2.18278
-1.63384
-0.844107
1.43368
0.2254
-0.882271
0.925945
-0.525864
1.20978
-1.65581
-0.837305
0.886138
0.606594
0.120155
-0.319558
0.292851
0.577406
0.827079
-1.97289
-1.67017
-0.613302
1.26072
0.708727
1.54709
-0.432242
0.142855
1.23359
0.485169
-0.635029
-1.00907
-0.884211
-1.06024
-0.439894
-1.04278
0.779906
0.429915
-0.597951
-1.47767
1.19782
-0.530483
0.460016
0.752816
0.37133
-1.00262
-0.14386
0.707885
-1.9312
-0.849367
0.152807
-0.11637
-0.89477
-0.455807
-0.582146
1.84528
1.27446
0.158411
-1.09865
0.887287
0.712239
0.929564
0.445499
-0.0738225
-1.96716
0.312796
-0.126145
0.0366865
-1.42199
-0.126203
0.181881
-0.880977
1.05901
-0.291799
-0.0571161
-0.445411
1.45604
-0.609544
-0.870854
0.198024
0.108847
0.95249
-0.248585
-1.0324
0.905662
1.43316
-0.501077
-1.14751
-0.203525
0.323551
0.47397
0.0677657
-1.5463
0.56329
-0.754455
0.340397
-0.749942
-0.506084
-1.43719
-1.6079
0.801721
-1.77658
3.10062
2.65664
-0.451203
0.670858
0.445414
-1.14792
-2.3138
-2.1249
0.836222
0.873432
-0.238439
-0.613898
1.19634
0.0657913
-0.283567
-0.496029
0.114131
1.2896
-0.0476614
0.402409
0.976876
1.26022
0.880955
-0.411632
0.288398
-0.657811
-0.249554
0.588579
-0.022911
0.499089
-0.986037
-0.153841
0.975491
0.378701
-0.357788
-0.796362
0.885335
0.410909
-0.0560458
-2.04035
0.895776
1.14909
-0.481023
-0.274275
-1.35978
-0.998765
1.31103
1.31338
-0.205271
-1.13738
0.436777
-0.380046
0.91111
-1.21654
1.02271
-0.767462
-1.23578
0.384329
0.106534
-1.59316
-0.187198
0.988848
0.110021
-0.176431
0.217245
0.253148
-1.80354
-0.127495
0.58602
0.234494
0.126696
0.236312
-1.14748
-0.297962
0.90064
0.592104
0.104262
-2.09628
-0.157824
0.486426
1.7873
-0.127518
-0.338813
0.475479
-1.19084
-1.84819
0.661337
-0.437337
-0.412275
-0.654776
-0.248864
0.511076
-1.31824
-1.00251
1.75972
1.86124
-0.523352
-1.12124
-0.904784
1.16174
-0.161757
1.57945
-0.298317
0.467808
2.15832
2.03482
1.51404
0.982057
0.795142
1.57181
-1.04276
0.307457
-1.19511
1.04219
-0.59395
0.712401
0.0555561
-0.0339983
-0.192296
1.16949
0.532915
-0.142719
0.169275
-0.522858
0.481176
0.029425
0.805787
0.943993
-1.03549
-0.353906
-1.15628
-0.9396
0.233645
0.179231
1.47363
-0.211169
0.211738
-2.18389
0.985283
-0.0123185
-0.574
-0.65409
-1.29062
1.28297
-0.84846
0.932987
0.838978
0.536546
0.800368
0.670618
0.103109
1.3279
0.195829
1.38829
0.458982
2.35098
0.343787
0.886267
0.233859
0.324052
-0.79027
0.946849
0.313656
-1.65981
1.61918
1.1308
-0.189647
-0.743025
0.557201
-0.998931
-1.31965
-0.617533
-1.16447
0.454591
-0.618739
1.16942
2.77996
4.28933
1.76445
3.17798
2.49251
1.26487
1.15724
1.82158
-0.567766
-0.614208
-1.01843
1.22072
-0.907064
0.632563
-1.01198
0.767316
-0.969373
1.33847
0.740879
1.0708
1.0327
-0.442867
-0.690628
1.98805
0.392447
-0.99286
-1.07479
1.17834
3.06918
1.30256
1.40542
2.01612
0.684695
1.25547
2.09652
0.417074
-0.283235
-0.176407
-2.30624
-0.698225
0.00130549
1.39781
-0.105632
0.429157
-0.704913
-0.41072
1.88839
0.0304157
0.921882
-0.608555
-2.65303
-0.15719
-2.28261
-2.78371
-0.68299
0.377297
0.362046
1.36008
1.4181
0.480853
0.115709
0.0457658
-0.668118
0.452173
-0.554877
-0.481802
-2.30184
1.17241
-2.15799
-0.715993
-0.326633
-0.311754
-0.394414
-1.53864
-0.649127
-1.53275
0.0302035
0.124137
-2.64209
-0.787287
-0.884747
-0.524128
-3.58009
-0.700569
0.576703
0.304109
0.2001
-1.15369
0.576407
1.44899
-0.0710217
0.63111
1.15541
0.0436604
-0.408659
-1.16376
-1.53318
1.03297
-0.91388
-0.51688
0.0148051
-0.598351
0.976113
0.237023
0.044261
1.47029
-0.775189
0.311677
-1.45581
-1.12446
-0.533479
1.13401
-0.316762
1.15272
1.08363
0.160893
-1.10405
-0.324053
2.3985
1.00555
1.73542
2.02316
1.58224
-0.458428
0.30309
-0.787572
-2.58354
0.597753
0.189777
0.299075
-0.5727
-0.36732
-0.437565
-0.62323
-0.872729
-0.248205
-2.76337
-2.24326
-0.892624
-1.40992
-0.443543
-0.563473
-0.32267
0.211933
-1.16014
-0.033457
-0.624909
-1.91097
-0.816799
0.331191
0.561783
-0.392082
-1.90309
0.443082
-1.06354
0.460821
0.250165
-0.382497
0.0932441
-0.0371747
1.33455
1.39145
0.050782
-1.35183
-2.82298
-3.58965
-1.05672
-3.87149
-1.83001
0.729958
-0.571541
-0.470292
-2.27639
-0.766175
-0.547052
-0.257669
-0.743848
-0.183461
-0.982808
0.378018
0.787301
1.71003
-0.0458184
0.544495
0.544904
-0.10834
1.20792
0.922515
-0.0521677
-0.488376
-0.551973
-1.36833
-2.33578
-0.888822
-0.859175
-2.06756
-0.249891
0.532232
-0.165479
-0.970245
-0.354091
-1.15527
-1.76113
0.761599
-0.159448
-0.894347
-1.47099
0.376073
0.503676
0.855891
-0.0992253
-0.870003
2.02219
-0.651353
0.310466
-0.753901
-1.10199
0.559504
-0.0243908
1.08063
-2.36535
0.775268
-0.795363
-1.06153
0.172821
1.18832
0.809286
1.20238
0.94062
-0.495566
-0.294273
-1.57928
-1.68491
-0.807812
-0.401787
-0.11898
0.716817
-0.22233
0.420134
-1.08524
1.96086
1.03452
-0.374393
0.815141
-0.907539
0.893486
-0.191334
1.37921
0.127328
0.297666
0.032786
-0.861826
-0.0906882
-1.60806
-1.66616
-1.00557
-0.0958928
-0.597669
-0.861664
-1.02481
-0.75297
-0.318803
0.288592
0.807898
0.634313
-0.41467
0.517798
-1.60254
0.197845
-0.830408
0.772978
1.49701
-0.0132647
2.07126
-1.67544
1.98408
-0.00711484
0.185326
-0.499711
0.216395
0.179825
0.369946
0.00966173
0.240741
-1.61806
0.237433
-2.27897
-0.201221
0.257966
-0.0051107
-2.06017
1.40328
2.77728
1.97253
0.170454
0.702036
0.603454
0.0998408
0.096517
-1.35229
1.02939
0.818394
0.629174
-2.02357
-0.749398
-0.9849
-0.674932
-1.25812
-0.4861
0.0341632
1.48845
-0.790953
-1.50676
-1.98427
0.504557
-0.345896
-0.620265
-0.966693
-1.02625
-1.13251
1.14114
1.48792
2.17335
-0.650966
-2.08556
0.481158
0.744609
1.21378
2.23262
-1.34968
1.19327
-0.837099
0.484999
0.351226
-0.535916
-1.10338
-0.541105
0.806379
-0.709065
-0.366322
-1.64779
-0.920735
-0.653189
-1.54005
-1.59163
-0.715001
-1.25704
1.41455
0.113944
-1.775
-1.4796
-1.14869
0.255124
-2.46076
1.21363
1.26436
-0.280612
1.78431
1.8385
0.531278
-0.682913
1.34185
-0.112399
-0.77732
0.603535
-0.221448
0.110213
-2.33374
-2.8191
-3.4301
-0.159409
-1.35413
-1.67375
-1.24676
-0.293287
-0.138343
1.36949
-0.0949369
1.20134
0.638664
0.979584
-0.769975
0.160438
0.0643836
-0.143176
-0.985688
1.27767
0.885771
1.69656
2.17326
0.103833
1.35186
1.71564
-1.80004
0.929748
0.0305273
1.18941
0.0380874
-0.316707
-0.539273
-0.712321
-0.812277
-0.537839
0.407656
0.449474
-0.849799
-1.27213
0.851885
-0.454005
0.548147
-0.945499
-0.506075
0.0556235
0.022005
0.39233
-0.289775
0.76688
0.130262
-1.77918
0.606482
0.892933
-0.769484
1.76568
3.33961
1.61473
1.00336
-1.81052
1.76957
0.288026
-0.0115749
0.787284
1.16802
0.33877
-0.552001
0.893362
-0.765783
2.02253
-1.00984
-0.559417
0.666984
-1.44253
1.17617
-1.15231
-0.240165
0.235069
0.475397
1.17707
1.78615
0.954301
0.328059
-1.44193
0.902685
0.472579
1.29035
-0.212823
-2.25484
0.739591
-0.149002
0.267776
0.597161
0.657804
-1.13846
1.17171
-0.561144
-1.35352
0.236968
-0.939675
1.09663
0.834114
0.103197
-0.880542
0.0600108
0.317268
0.240002
-0.550034
1.15683
0.440066
0.870326
0.328475
0.354282
-0.68517
1.6595
0.806848
1.27434
-0.109231
0.150801
-1.1255
1.51539
1.48964
-0.685443
-0.665127
-1.084
-0.819499
0.748464
-0.578881
-0.282599
-0.339561
-0.545665
-0.122227
1.23487
0.481147
0.614115
1.65354
0.0988476
0.51263
-1.59813
-1.06914
-0.929959
0.980729
-0.177835
-1.38708
-2.2582
1.57719
-1.31856
-0.928902
-0.208469
-0.676786
-0.84506
-0.290339
-0.334494
-0.336393
-0.924934
1.24149
0.265486
-1.24841
1.29432
-1.9922
0.489863
2.87667
0.968827
-0.270161
-0.609618
-0.368271
1.02047
0.245523
-0.672399
0.0705292
0.973742
1.70968
-0.718073
0.554302
1.10154
0.932948
-0.980693
-0.0241376
-0.472161
0.118653
-1.03867
0.13078
1.45272
-1.19048
-0.691079
0.975217
0.732247
1.63513
1.42811
0.792403
-0.171562
0.423924
0.884868
-0.494259
0.222752
-0.413741
1.11394
0.105505
0.468208
1.57641
1.21571
0.489886
0.547625
0.453369
-0.0984302
-0.767786
0.183948
-0.0575601
-0.270105
0.0937808
1.97382
0.245986
0.463115
-0.205306
-1.25691
-0.79531
-0.373916
-0.073859
-2.00202
0.658131
-1.60119
-1.03475
-0.149271
0.808804
-0.87388
-0.0548558
-0.0907597
1.17456
0.419177
1.86539
1.2586
1.60735
0.419858
1.14221
-0.159237
-0.379943
-1.08032
-0.0438713
-0.784636
-0.749482
0.290698
-0.360419
-0.0223778
0.557975
-0.697556
0.444885
-0.189702
-0.273544
-1.40312
-1.23719
-0.818638
-0.916422
-0.330944
-0.201995
-1.55241
-0.173741
0.14537
1.91231
0.202464
-0.258423
-0.84923
0.968003
1.42379
2.39604
1.14231
-1.92614
-0.659335
-0.651885
0.220481
1.00464
1.4905
0.484545
0.128744
-0.016045
1.05283
-0.154208
-0.318343
-0.697722
-0.398099
1.13501
-1.90932
-0.603671
-1.17328
-0.174746
-0.229946
0.137627
-0.219815
0.989404
-0.291007
-0.181096
1.24073
-0.257814
-0.0573102
-0.262641
0.105582
0.954973
1.04269
0.372618
-0.740659
-0.756952
-0.0536743
0.205039
0.565662
-0.0682697
-0.280247
-1.68274
-2.4751
-1.38716
-1.92532
-1.54618
0.740013
0.0799677
0.408281
0.448894
1.20999
-0.487855
-0.913135
0.525281
-0.621247
0.375906
0.419321
1.07943
-0.890921
1.73628
0.10451
0.557366
0.033263
-1.68864
2.20699
-0.754176
-0.0343612
0.611356
-1.94103
-0.143643
2.03877
-0.389738
0.194531
-0.766122
-0.984403
-0.323566
0.449485
-1.7138
1.226
1.69213
-0.783811
-0.00846692
-0.151575
1.45479
-0.0847227
0.351084
-0.227786
-1.31423
1.10755
1.00149
2.04461
1.02302
2.53428
-0.227366
-0.649921
1.26856
-0.652362
0.867626
-0.308813
-1.00518
-1.05151
1.20118
0.237176
-0.499867
0.89566
-1.41572
-0.61063
-0.533093
1.52789
-0.858995
0.632213
-0.205054
-0.11515
0.114527
1.00979
-0.535249
0.588159
0.589479
0.0991046
-1.66856
-0.697872
-0.633089
1.38803
0.363581
-1.69413
2.02362
0.0269562
0.589417
0.342881
-0.114724
1.66962
0.28655
0.166809
1.08481
-0.667322
-0.0399058
0.535092
0.655593
0.0717756
-0.510023
0.000977511
-0.289556
-1.07453
0.636109
2.26447
0.983863
0.438817
1.44637
-0.581884
0.69457
0.0247688
-0.353451
-0.822491
0.679905
-0.23552
-1.02824
0.0856364
0.0479578
-0.442987
0.66069
-0.00168347
1.31686
0.62654
-0.114642
-1.21463
1.19423
-0.899871
0.564755
0.771682
0.835181
-0.622381
-0.416341
-0.618825
-0.109705
0.305896
0.408491
2.36632
-0.0839537
1.89453
0.393005
-1.69167
-2.82514
0.19079
-0.628797
0.0116665
-0.0708791
-0.0374996
-0.109187
-0.369664
-0.223784
-0.0232978
-0.279741
-0.719043
2.06805
-0.593716
1.01386
1.14197
0.0425224
0.830669
-1.07789
-1.03303
1.27949
0.0206045
0.394069
2.51332
0.206072
-1.17229
-0.931008
-1.56591
-2.06996
-1.31586
-0.486107
-1.18896
-1.42502
-1.51091
-2.35875
-1.81286
-0.0412985
-2.36938
0.67548
1.37087
-0.511682
1.45035
-0.449165
-1.01467
-0.938803
0.256234
0.215506
0.51921
-0.611578
0.94468
-0.840608
-1.6826
-1.58123
-2.34839
-0.530757
-0.50374
-1.2863
0.869124
-1.33443
-0.936197
-1.94976
-1.82764
0.844874
-0.128881
-1.71134
0.893458
0.30615
0.648135
-0.165785
0.253103
0.132643
-0.369542
-1.47852
-0.594217
1.04498
-0.0167394
-2.16583
-0.705218
-0.755081
-1.42965
-3.66007
-1.26993
-1.74444
0.619843
0.766661
0.626785
-0.187868
-0.989109
0.617009
-0.98949
-0.65836
-1.98
-2.87015
1.0997
-0.694556
-0.0230764
-1.55732
0.383991
1.01354
1.13981
-0.0215705
-1.8267
-2.2217
-0.12007
-0.164862
-3.21071
-1.70658
-4.50864
-2.99907
-2.25084
0.45976
1.36582
1.55687
2.6903
0.629149
1.25634
-0.661595
0.374781
0.600954
-2.51862
0.376329
0.300405
-0.729398
0.689821
0.905575
0.939179
0.325406
0.469892
-0.672246
-0.18629
-1.4085
-0.973762
-2.30964
-2.78284
-1.9964
-1.45873
-0.571448
-0.548076
0.960438
-0.143685
0.547841
0.641525
-0.732349
1.01545
-0.791801
0.991592
-0.258416
-0.294535
0.893517
-0.211442
0.230911
-1.0641
0.468011
-0.227846
1.82269
0.15457
1.37448
1.65527
0.314421
-1.11012
-2.40121
-0.215655
0.244279
-0.898804
0.589636
-0.030819
2.1521
0.818832
1.22773
1.10059
0.159056
0.553293
0.834283
-0.246579
-1.44775
0.252545
0.992675
-1.77611
-0.442903
1.36376
-0.688105
0.105276
0.734895
2.20668
2.73542
-0.478222
-1.77611
-2.63859
-2.74475
0.780244
2.81145
-0.845964
2.25292
0.717613
1.57398
0.280527
0.578263
2.24432
2.25211
0.4866
0.930662
-0.614549
0.964316
1.21935
-1.11684
1.02183
0.226354
1.96356
1.74524
-1.14098
0.156872
0.844718
-0.527847
0.208381
2.13624
-2.06707
-1.0915
-1.16026
1.93403
1.30835
0.227223
2.5715
1.25439
0.973957
0.579253
0.720652
1.18313
-1.13398
1.10715
-0.588172
-0.107556
-2.87607
1.27963
-1.1463
0.52677
0.767134
-0.474227
-1.33645
0.826208
-0.0191424
-0.521294
1.81474
-0.143496
-0.173434
-1.10261
-1.41659
-0.188511
0.133962
0.827816
0.41687
1.85658
3.42017
1.07221
1.26951
-0.527543
0.395696
1.5879
0.630674
0.756062
0.234634
-0.562775
0.74189
0.409546
1.55215
-0.161362
0.986572
1.07369
0.211899
-0.958218
0.810266
0.213228
-1.07766
0.811056
1.10781
0.114436
-0.200205
-0.612494
-0.0117504
-0.246935
-0.0713444
-0.484608
-0.31414
0.746014
0.521902
-0.842033
1.44389
-0.127748
0.264969
0.548572
0.918832
0.156623
-1.09204
1.4243
-0.843526
0.374769
-0.786803
0.101775
0.446222
0.177938
1.64972
0.132184
-0.0286142
-1.39447
0.41719
-0.678331
-0.148785
-1.00159
1.605
0.239636
-1.22176
1.02308
1.0139
-0.22998
-1.05535
0.6717
1.25669
-0.32719
-1.2844
-0.313564
-0.825272
0.981258
-0.483908
-0.104777
-0.579597
0.729743
-1.99481
0.16654
0.575327
-0.192606
0.202276
-1.13451
-0.0603164
-1.38652
-0.788603
-0.0269417
0.127914
1.10382
1.03816
0.301925
-1.17967
1.19947
0.161009
0.109723
-0.363706
1.2623
-0.353767
-1.12814
1.51527
-0.492581
1.09372
-1.28667
-1.13131
-0.337933
0.572121
-1.12554
-0.322858
0.89954
-1.04302
-1.55497
-0.624841
0.0607393
-0.685854
-0.449799
0.131964
1.43271
-0.850887
0.278898
0.0196139
-0.269154
1.08226
-1.5081
-1.19753
-0.393145
-0.578839
-0.198972
-0.189851
-0.956306
1.08806
0.501142
-0.228322
-2.05037
-0.932703
0.707605
1.645
-0.577754
-0.156821
0.674405
0.258937
1.48877
-1.78024
-0.432063
0.0701444
-1.33437
-0.921872
-0.133556
-2.2905
-0.0553755
-0.517633
-2.1788
0.0586177
1.36419
-0.726221
0.754657
0.803591
-0.950077
1.30872
0.6091
-0.192043
-0.0996485
-0.0144868
1.00476
-0.472095
-0.836298
2.62036
-0.203512
0.448941
0.631903
-0.384453
-0.710425
-1.17646
0.511412
0.196246
0.102079
-0.527771
0.965546
-0.593175
-0.668657
-0.260299
0.185728
0.128165
-1.6381
1.64227
0.392981
-1.70541
1.19091
-0.99226
-2.06558
-0.276156
-0.0810021
-0.748465
1.05417
-0.623581
0.213328
0.988451
-1.2523
0.352364
-1.2185
-2.91525
0.00844741
1.21752
-0.0370253
0.634852
-0.308038
-0.348223
0.675354
0.675296
1.89954
-0.564409
-0.614111
-2.38571
-1.55481
0.26089
1.78732
-0.651458
-1.53582
0.0516268
0.0946003
-0.625981
-0.882304
0.108404
-0.730151
1.04351
-0.266516
0.657317
0.968415
0.809938
0.288485
0.950631
-0.0264924
0.250611
1.34232
1.03176
2.19452
1.12338
0.149331
-0.631142
1.21249
0.783405
-1.93614
1.23798
-0.681298
-0.725342
-0.614636
1.45942
-0.970988
0.772341
0.350815
-1.68874
-1.02013
-1.48688
0.402935
0.471758
-0.314326
-0.337712
-0.249125
1.15928
1.85674
0.361631
1.24384
1.30581
1.39092
-0.519761
0.124502
-0.138316
1.0175
1.30803
-0.452521
-0.305304
-0.0371391
-0.620236
0.160806
-0.487552
1.11146
-0.015844
-0.308195
-2.4176
0.053661
0.79314
0.0615898
0.00978571
2.10702
-0.534824
1.83172
1.3132
0.449437
1.1568
0.542193
0.975753
-0.117429
-1.32952
0.148043
-0.495687
-0.483207
1.74416
0.466563
-0.694333
0.0391821
0.505855
-0.954714
-0.793177
-0.893723
2.02884
-0.940026
-0.451088
1.0048
-1.45201
-0.0337144
-0.924833
0.735452
0.268525
1.21857
0.870051
-0.734411
-0.033563
-2.031
-3.26962
-1.7935
-1.4832
-0.921058
0.962021
-0.938933
-1.42989
1.09229
1.42888
-0.0736162
1.35288
-0.6143
0.691679
-0.871723
-1.81441
-0.170163
0.165023
1.43468
-1.9726
-0.328984
1.41872
0.689119
-2.56419
-0.463723
-0.972709
0.483678
-0.0566878
-0.468916
-1.7765
-1.65818
-0.163213
-2.24053
0.357351
-0.0261782
0.707201
1.13268
-1.00774
-1.72795
0.135477
-0.2762
-0.353856
-0.389935
-0.779248
0.550124
-1.19766
0.423631
0.673217
-0.488929
-0.437166
0.334938
-0.431094
0.82442
-0.149977
0.304646
-1.46509
-4.09382
-3.59895
-1.18326
0.872311
0.0762229
-1.25876
0.908301
2.84658
0.549286
-0.267138
0.0210321
-0.639955
-1.7419
1.34294
-0.238323
-0.509298
2.06337
-1.73671
-0.476284
0.300365
0.864195
-1.19466
0.154071
-0.104653
0.433433
0.478188
-0.564928
-2.88041
-4.91874
-2.64359
1.62617
-1.46897
0.430086
1.31382
0.832643
1.95494
2.0516
1.46547
-0.45657
-0.767502
1.55443
-0.314246
-1.04573
1.17264
2.38935
0.228999
0.618429
-0.49425
-0.532894
0.944489
-0.130262
-1.00561
-0.634295
1.27915
0.915132
-4.61129
-1.66205
-0.473919
-0.203931
1.44103
-0.28055
1.40726
-1.87397
-0.773524
-0.121188
0.0185619
-0.047088
0.256251
1.02305
0.733623
2.15729
-2.90913
-1.17165
-0.462362
-0.824738
-0.39652
-0.210247
-0.317008
-0.9791
0.707516
-0.941055
1.04816
-3.69168
-4.27165
-0.971919
0.44854
1.23704
0.985071
0.218918
1.47899
-0.325139
0.676778
-0.266472
-1.97393
-0.794883
-1.09323
0.192219
0.130451
-0.77906
2.26927
0.877725
-0.393046
1.04521
0.489177
-0.427393
-1.13855
1.14318
-0.519736
1.07717
-2.35841
-1.90149
-0.678968
2.16357
0.238867
-0.226746
-0.207428
0.784137
0.78928
-0.666877
1.00278
0.0822359
-0.610419
1.34372
-0.281873
0.647122
2.07639
-1.11904
-0.545587
-1.883
-1.48306
-1.25716
0.047696
-0.10887
-0.503679
-1.27412
0.301208
-0.471742
-1.53275
-1.45839
-0.47438
0.74622
1.92046
0.482567
-0.539723
0.829231
0.0763235
-0.0476304
-1.10086
-0.492821
-0.286226
0.468004
-1.02304
0.497354
-1.09835
-1.12027
-1.74918
1.25038
0.0371204
-0.611111
-0.719148
-0.187304
0.142005
1.15883
-0.227547
-0.15705
-1.25914
1.11645
0.284404
-0.561934
0.161965
1.68692
0.778119
1.09566
-0.772804
-0.0710121
-0.0486441
-1.52094
0.797857
1.67985
1.12729
0.316732
-3.5026
0.689225
0.0311592
-1.58469
0.663236
0.293085
-0.13864
0.663196
-0.241024
0.963253
-0.539498
1.00861
-1.12042
-1.15352
-0.0454812
0.0345278
0.787134
1.59488
0.241576
-1.24109
0.595718
2.31687
0.253242
0.773026
-1.23146
0.28084
0.808112
0.107632
-0.410943
0.06122
-1.54987
1.32978
-0.364227
-1.00215
0.690805
0.576286
-0.0326719
-0.422164
0.262817
0.638977
1.3254
0.0695445
0.989201
0.187945
0.320845
-0.359021
0.237184
-0.277201
1.03061
0.451211
0.133587
0.461428
0.813215
-1.00084
-1.19167
-0.62775
-1.2325
-0.709164
-0.648631
-0.301656
3.19576
-0.598246
1.85397
0.0908472
0.105573
1.0724
-2.28952
-0.388308
-0.393051
-0.98477
0.751206
-0.0818415
-0.426329
-1.12591
-0.597705
0.494381
1.11178
0.212374
-0.348597
-0.343391
-0.271261
0.541304
-0.56434
0.911417
1.64917
0.105394
0.681844
0.384019
-1.31397
-0.169342
-1.12524
0.437783
-0.631442
0.494836
0.325572
2.49692
0.183304
-0.233472
-0.452724
-0.800006
0.739556
0.485634
-0.256995
-0.279199
0.60936
0.675973
-1.24119
0.820561
-0.522607
-0.255838
1.46148
0.655194
-1.16895
0.659305
0.143852
-0.807924
-0.670897
0.0954187
-0.690283
0.653964
-0.0300907
-0.689233
0.888251
0.931629
-1.35426
-0.600452
0.0145144
-0.260783
-0.5
-0.0718642
0.204022
0.531763
0.240699
0.543177
1.89898
1.17267
-2.19355
0.466253
-1.81242
-0.113896
0.412014
-1.10431
0.442795
-0.823841
-1.28897
0.756148
0.264903
-0.895362
-1.27169
-1.47727
1.01225
0.0781926
2.37888
0.390985
0.0948752
0.692943
1.20095
0.834693
-1.61222
-0.949757
0.551137
0.452181
-0.217207
1.07907
-0.115478
0.927649
0.0708701
0.606302
0.947425
-0.0367406
-1.23915
-0.64146
0.371172
-1.52159
0.588144
0.537728
-0.238664
0.651044
0.098518
0.30737
1.21096
-0.278707
-1.06332
-0.49437
-0.384791
-0.352967
-0.607286
2.00749
-1.21385
0.823235
-0.796642
-0.102886
-2.04722
2.40917
-0.396395
1.52196
-0.581122
0.593157
0.664926
0.442632
0.329285
-0.498428
-0.108437
-1.90603
0.0845724
-0.139794
1.57466
-1.03031
1.27397
1.0317
0.932134
1.89275
0.0384648
1.21461
0.00384978
-0.581442
-3.98669
-0.728882
-0.411339
-0.71858
-1.2367
1.00887
-1.45496
0.100748
-0.933341
1.42365
0.87837
-1.9477
0.386153
0.226015
1.05073
0.824948
-2.01446
-0.504821
1.24216
0.268519
0.198974
1.42108
-0.127786
0.585142
-0.935111
0.669574
-0.720111
0.914196
0.333636
0.241462
-2.17473
-1.60561
-0.013662
1.88025
1.87738
-0.0414147
-0.605328
-0.03912
-0.0324223
1.70195
-1.0242
-0.883276
-0.929971
-1.51323
1.22451
-0.115816
-0.128583
-0.0325947
-1.13343
0.690595
-1.00005
-1.28575
-0.376843
-0.45853
-0.382855
-0.487793
0.425425
0.368927
0.858423
1.15513
0.633465
0.118646
0.360849
1.1016
0.145944
-0.101619
0.629148
-0.0320805
0.793544
-1.3471
1.36921
0.111519
1.60536
-0.483799
-0.575016
-0.579045
-1.05934
-1.58767
-1.56516
-1.39308
-2.89777
-0.811345
-1.66553
0.69666
0.48595
0.0375537
0.849043
-1.01613
-0.451464
-3.22305
-0.299651
-0.327404
-0.079288
-0.697045
1.05629
0.00351065
-0.0916897
0.516006
1.588
-0.360345
0.314149
2.07208
0.488859
0.621642
-0.247232
0.849978
1.23253
0.121202
0.360217
1.11338
-1.28044
1.19448
-1.18505
-1.47211
-1.66068
-1.03227
0.150005
0.35835
-1.24622
1.55003
-1.05266
-0.953921
1.48559
-0.200003
0.286573
-1.62756
-0.0745896
-1.22543
-0.772125
0.592801
-0.40329
1.07559
0.765044
-0.350184
1.01811
-0.706337
-2.716
-2.29201
-2.23498
0.319007
-0.362749
0.425732
-0.106501
-0.963008
0.470149
-0.564602
-1.18122
0.0805556
1.81691
-0.230863
0.601923
-0.150912
-1.00947
-0.978778
0.929521
-2.33691
-2.12106
-0.880768
-0.890043
0.252639
-2.12013
-1.01017
-1.62372
-1.21201
-1.89014
0.376011
-0.965359
0.0392845
-1.57192
-0.168726
0.966876
-0.439075
0.667607
0.419482
0.225964
0.196664
-0.86409
-0.807423
-0.100021
0.993342
0.282382
-1.22131
1.11081
0.389026
-0.830483
-0.396156
-0.218401
-0.702569
0.447725
0.291369
0.926236
0.413314
0.400673
1.12602
1.04533
0.486053
1.34009
-0.860906
2.00647
-1.77265
-1.82367
-0.37515
-1.21159
-0.286934
0.631112
0.68534
-1.58464
0.32974
-0.468781
1.04095
0.3536
-0.254265
-0.811465
-0.0294865
-0.540613
0.860691
-1.27564
-0.168846
0.830718
0.266215
0.247399
-1.61117
1.30471
0.23809
0.609696
-0.874865
-0.986509
0.0606995
-1.14118
0.208757
0.417825
0.947226
-0.265181
-0.58661
0.639181
-0.0918437
-0.247643
0.332445
1.09156
-0.340626
0.149394
-2.36567
-0.439965
-2.1884
0.514199
0.514465
1.59731
0.102343
1.79971
-1.73905
-0.211249
-0.483295
0.82625
-0.439662
-1.22493
0.23091
-2.37421
1.48363
-0.389945
0.41528
-0.639984
0.894078
0.171521
-0.307614
1.02587
0.9527
0.559303
0.111425
-1.06652
0.000658906
0.507063
-1.08703
0.296564
1.1034
-0.169577
-0.739937
0.380111
-0.286214
1.83032
-0.92256
0.821848
0.404997
2.04236
1.12818
0.335942
-1.35553
0.459885
-0.410385
0.621084
0.160484
0.127598
-0.680715
0.363012
-0.688849
0.576191
1.0935
1.41874
1.81839
1.65225
0.806217
1.97346
0.232559
0.149968
-1.33491
-1.3162
-0.675555
-0.44343
-1.75724
1.48974
-1.24123
-1.78754
1.63995
0.387405
1.09835
-0.21278
1.31076
-0.41772
0.728366
0.121195
-0.479512
-0.141005
0.298385
2.43577
1.00718
0.0721631
1.615
0.729309
1.12999
0.824624
-0.593626
1.15956
0.909762
-1.04647
0.146106
-0.761119
-1.27101
0.499926
-0.747062
-1.97778
0.776622
0.688611
0.569028
1.09133
1.68403
0.661824
0.643939
0.303229
0.511373
0.924902
0.446115
-0.659915
1.76138
0.25134
-0.438437
0.456844
-0.913437
0.760408
-0.00215125
2.19298
0.182899
1.24487
1.65088
1.02853
-1.09099
0.880958
0.485162
-0.30258
0.145038
-0.131581
-1.33335
-0.908403
-0.694856
0.696907
0.0790704
-0.603197
0.503137
0.281047
0.993123
0.604402
0.859181
0.808031
-0.178351
1.69744
-0.808727
1.73953
0.772358
1.26454
0.507133
-1.03025
-1.04087
0.507188
0.379259
0.288197
-0.941206
-0.70594
0.2125
0.487204
-0.297036
0.986616
-0.945173
-0.629677
0.400798
-0.384061
0.376938
-0.199447
1.31658
0.944404
0.316512
0.050089
-1.79739
-0.43353
-0.79604
-1.83557
0.565276
1.26394
-2.43318
0.688886
0.677424
-0.831729
1.31454
-0.0684723
-2.0258
1.26011
1.05149
-0.567077
0.776839
0.507632
1.44662
1.11891
0.651893
1.08219
-1.09005
-0.823185
-1.17113
0.293546
-1.9292
1.76678
0.0368075
-0.412985
-0.0787726
0.689809
-0.539477
-0.0907936
-1.14067
-3.03595
1.09162
-1.84187
-1.63462
-0.53346
0.646342
-0.0635924
-1.26562
-1.70145
-1.41104
-1.54536
0.646321
0.414196
0.186483
-0.274122
1.62607
-0.390051
-0.316971
0.0890174
-0.843787
1.7199
-0.148517
-0.119373
-0.35829
-1.25185
-0.573123
-1.40301
-2.03022
-1.65171
-1.91406
-0.960024
-2.12449
-1.92935
-0.122793
-0.682892
-0.619322
0.124275
-0.438224
-1.63621
-0.312072
-1.89711
0.361786
1.59442
0.24562
0.620804
1.45906
0.692132
-0.335115
-0.0596896
-0.211211
-0.541565
-0.502354
0.582807
0.275667
-0.673471
-1.18838
-1.22094
-2.07632
-0.161318
-1.87187
0.238091
-1.46438
-0.711999
-0.690437
-0.636072
-0.455371
0.949062
0.261904
-1.12646
-1.19454
0.0203908
-0.397788
-0.583076
-1.81034
2.2241
0.323731
-1.69029
1.06652
0.488631
0.703149
2.83037
-0.233392
1.20609
-0.920409
-0.399654
-0.319067
-1.24643
0.412569
0.74907
-0.498852
0.327179
-1.01293
-0.974283
1.56129
0.405355
-1.73048
-1.18863
-0.978607
-0.00159609
0.640037
1.03178
-1.38549
-0.786258
-0.224589
-0.41273
-0.394001
-0.00655373
1.04345
0.514109
-1.12938
0.224108
2.02956
3.59869
3.18161
1.4072
3.44721
1.78084
-0.720968
2.70488
-0.385171
0.534896
1.78931
-1.29303
-1.28145
0.385128
-1.74153
-0.572434
-0.518062
1.9013
0.434548
-0.115429
1.46612
1.70919
1.37785
2.03659
3.1193
1.54848
0.521053
-0.333217
-0.751763
-0.844156
-0.200238
0.558461
1.95282
0.421105
1.5744
1.35756
0.596302
1.03416
-0.00223372
0.00189518
-0.163746
1.48873
-0.541563
1.7446
-1.34022
1.18069
-1.00342
0.793998
1.02592
2.00749
0.243944
1.46739
1.34569
-0.491086
-0.737235
-0.688493
-1.48432
1.77232
-0.206832
-0.699629
0.521532
1.76633
1.2211
0.0722685
0.259375
-0.372073
-0.958118
1.7599
1.21756
0.0727257
-1.35171
-0.682742
0.0682379
-2.07865
-0.447125
-0.68833
-0.942626
2.07144
0.864255
-0.238486
1.41774
1.1207
0.910627
0.956504
-1.21355
-3.37548
-0.285561
-0.525193
0.198744
0.257544
0.458327
1.88363
0.669859
-1.00034
0.250857
1.23839
1.15783
1.03982
-0.165539
-1.041
-0.195012
-0.47604
-1.39468
-1.32336
-1.80534
-1.62351
0.554936
-0.845137
0.358092
1.6177
-1.29011
0.141164
0.25668
0.530136
-0.624428
0.253864
-1.11852
1.57817
1.27371
0.547209
0.620965
-0.631305
0.427633
-0.905108
0.194663
0.76681
-0.916765
0.184742
0.350746
0.770024
-0.975139
-0.856317
-3.41322
-0.620563
-3.06029
0.377798
-0.289418
0.0124053
0.296305
-2.01846
-1.15883
-0.984802
1.04486
0.595604
0.581919
-1.1091
0.792725
0.500936
-0.582824
-1.72821
-0.9488
-0.147903
-0.873158
-0.424531
0.999118
1.44712
-0.360583
-0.823961
0.594446
2.41617
0.570853
-0.118673
-0.425669
-1.08348
-1.56984
-1.75945
-0.843294
-1.21296
-1.87225
-0.796133
-0.838998
-1.3787
-0.254373
3.20598
-0.295937
2.31952
1.02711
0.385681
0.64659
-0.640255
0.428584
1.29082
-0.597287
-1.41069
0.0948342
-0.232148
-1.7822
1.37325
0.0705605
1.89749
0.761309
-1.08801
0.534596
0.535563
0.894109
0.749555
0.0298078
0.3548
0.963698
-0.855104
-0.332043
1.61611
1.16671
0.217882
-1.09122
-0.405766
0.283296
0.363476
0.702765
-0.854608
1.39577
1.67347
-0.0292023
0.732603
0.302121
-0.502811
1.38354
1.67548
2.56201
3.06329
-0.223745
1.26942
-0.0149683
0.574379
1.73413
-0.476443
0.389839
1.72841
0.834907
0.415918
-0.333199
-0.977597
2.06162
-1.7246
-0.644784
-0.825903
-0.182004
-0.701667
0.455129
0.123649
0.635133
1.11793
3.18391
1.25048
0.772769
0.327719
1.41185
0.523536
1.0031
0.538192
0.763027
-0.474264
-1.32986
-0.908439
-1.01322
-0.67848
-1.30256
0.38967
0.198221
-0.025072
0.0530217
0.70403
-0.358197
1.38914
-0.509714
0.003021
0.621821
0.259699
0.393676
1.81274
-1.13657
2.00749
0.746079
0.503604
-0.539963
0.694694
0.542589
1.4854
-0.2985
-0.267474
0.665147
-0.809211
0.777432
-0.325918
0.698259
0.726923
-0.64073
0.77477
-0.139798
0.480981
1.22952
0.627411
0.264957
1.91212
-0.600158
-0.270894
0.832616
-1.81687
0.219775
1.31413
0.760211
0.15877
-0.403343
1.0836
1.10336
1.55471
0.193085
0.654027
0.83536
0.179116
2.3953
0.30563
0.108556
0.395329
0.548657
0.454442
-0.59161
-0.918028
0.108508
1.37987
0.32382
0.805361
0.843481
-1.12562
-3.63681
-1.65606
-1.76802
0.763392
0.989945
-0.299386
-1.41874
1.0986
-0.491509
0.337751
-0.0230337
1.92502
-0.516017
0.640204
0.0306201
-0.759837
0.0303832
0.256321
-2.69329
0.230807
0.841429
2.13395
0.914753
0.641835
0.0928233
0.199055
0.0211245
0.8274
-1.76129
0.152712
-1.28915
0.537895
0.491668
1.05588
-0.181978
0.361366
0.215964
0.927336
-0.0739342
-0.600713
0.337712
-0.739579
-0.538293
0.919838
-0.39006
0.289603
-1.1925
-1.55874
1.06866
-0.635507
-0.60896
1.00862
-0.0900384
0.0821861
0.942085
0.285962
-0.647359
0.192769
-0.290578
0.79721
-0.564731
-0.167166
-0.665325
0.279097
-1.21522
0.0849608
0.125895
-0.395238
1.068
-0.348569
-0.45178
-0.675802
1.09976
0.785362
-2.4928
0.77537
-1.02468
-2.16348
-0.00686309
0.301078
0.0607056
0.184821
-1.07183
0.564416
0.537177
1.37999
-0.494133
-1.80399
-0.787383
0.482964
1.08325
1.47852
-0.267654
1.57733
-1.08657
-1.41892
-0.333813
-0.581269
-0.924868
-1.76007
1.42164
-1.21773
1.4222
-0.0850927
1.047
2.49914
-0.249019
0.378763
-0.520459
2.04009
0.0754292
0.384433
-1.14972
-0.153873
1.86241
2.16084
-0.580675
1.01865
-0.0548014
1.76423
0.754598
-1.00597
0.140178
1.16843
-0.86214
0.594546
-1.04295
-0.179385
0.578344
0.205734
-0.958894
2.03012
0.0379517
-0.486513
-0.382706
2.91303
0.279785
-0.570467
-0.289237
-0.397488
0.319536
-1.05709
-0.918304
0.805912
-1.89685
-1.03071
-1.60924
0.504198
0.272992
0.335023
0.370722
-0.564578
-0.603154
-1.42861
0.812029
0.352627
0.103819
-0.178363
-0.479283
-0.219274
-0.0547404
-1.57198
-0.28626
-0.769493
-0.560942
0.166703
-0.363194
0.938071
-0.454931
-0.442175
1.26517
1.63571
0.812212
0.342659
-0.273516
-1.90218
-0.0359432
-1.14144
-0.868338
-0.630115
-2.54633
0.180651
-1.03847
0.246123
1.36175
-0.522449
-1.32349
-0.562127
-0.956058
0.0905355
-0.816285
-0.623924
-1.46505
-0.883818
-1.18624
-1.12077
-0.204607
-0.604058
0.13903
-1.25715
0.0204119
-0.0370196
-0.0130131
-0.290518
0.511665
-0.424296
0.00173739
-0.81421
-0.284064
0.224947
1.4117
2.84955
1.21656
0.051409
0.865852
1.76646
1.46641
-2.43905
-0.514122
2.01933
-2.04654
-0.934678
0.0874466
0.246249
0.78167
0.697449
-0.159127
1.56621
0.0428459
-0.0154836
0.77358
-0.0369484
-0.575978
-1.35485
-1.1999
-0.409064
-0.683976
0.189384
-0.288596
-0.481905
-0.753051
0.408212
0.579694
-0.832745
0.913849
-0.538966
-0.69942
1.46096
-1.06103
0.0530044
-1.99893
1.37201
-1.7107
-0.334153
1.76593
2.08109
2.01905
-0.19253
0.782506
0.100683
0.545755
1.18398
-1.7525
-0.977088
-0.888415
-1.38239
-0.775953
-1.38398
-0.708892
-0.183095
-0.355028
-0.492185
1.77695
-0.0884826
0.455561
0.423581
-0.619833
0.377279
-1.8247
0.41621
1.04301
1.13481
-0.126795
-2.66415
1.30534
0.954876
1.30623
1.52772
-0.083081
0.816804
0.798101
-1.92791
0.0529947
-2.23066
-0.482302
0.385966
-1.03001
-0.158555
1.84975
0.564283
1.02487
-0.968612
-2.16361
-0.751703
-0.672153
-0.150109
-0.110362
-0.112553
-0.624167
-0.990061
0.509053
0.0466281
-0.493331
-0.0606649
0.488789
0.527534
1.87086
1.12925
-0.0375209
-0.568105
-1.68058
-0.344269
-1.52872
0.0817942
-0.57474
-0.467388
-0.0856786
2.3093
0.651433
-1.45179
0.0977463
-0.0397346
1.15258
0.372051
-1.1605
-1.64802
-1.26435
0.555706
-0.419212
-0.277005
-1.96973
-1.35258
-1.43097
1.6822
-0.0919745
-0.788436
0.183345
-1.73372
-1.61015
-1.8566
-0.168871
-1.0913
0.915941
-1.60806
-0.75642
-0.278235
0.0691549
0.152927
1.77444
-2.13944
-1.27764
-1.26867
0.914959
2.13666
-1.12147
-0.922706
0.0267477
0.918886
-0.55167
-1.09595
0.821352
-1.49102
2.23856
2.23461
-0.481417
-2.67287
-1.80956
0.648486
-2.81105
0.919665
-0.768711
-0.268499
0.799525
0.121338
-0.905549
-1.21891
-1.99401
-0.164731
-1.01056
-0.139216
0.697571
0.653224
0.58242
-1.62037
1.07594
0.0990375
-0.38005
1.72168
3.28129
0.0490418
3.60885
2.08215
0.248913
-0.204217
-0.804041
0.943103
0.732808
-0.75641
0.619954
-0.596733
-0.997563
1.05752
1.04097
0.963742
0.82297
-0.189035
-1.06628
-0.69933
0.253391
0.181411
1.15186
0.972934
1.18974
0.806904
-0.335267
0.0350769
0.636653
1.67019
4.9868
1.63611
-1.5845
-2.22078
-0.461326
0.13679
0.788662
-0.0852132
-1.4115
-1.12138
0.338641
0.151277
2.11063
0.806574
-0.773395
-0.310933
0.611863
0.659942
0.583945
1.04907
2.18158
0.257217
-0.229581
0.820507
1.32668
2.33564
3.6259
1.63369
1.93631
2.39491
0.546143
-0.524874
-1.27303
-0.98024
0.388076
1.29172
-0.787582
0.405262
1.09491
-0.267244
-0.700836
-1.74304
-0.920529
-0.255146
0.0364193
-0.566008
1.14329
0.763037
2.46335
1.55152
1.56918
3.41999
2.9654
2.57981
2.1512
0.478037
1.07752
-0.160053
-0.191946
0.65014
-3.00819
0.155844
1.07165
-0.816855
-0.323915
-0.671153
0.956555
-1.29819
-1.9253
0.367952
-1.89127
1.64576
0.807255
-0.286318
0.563527
-0.969245
0.455915
1.50636
1.66006
-0.0177534
0.600276
-1.14644
-1.37169
1.44795
0.835991
-0.579168
-0.00698984
-0.0795395
-1.07548
1.3959
-0.25545
-0.213
-1.19063
0.359396
1.21665
-0.429607
1.43643
0.667101
-1.05667
-0.718544
0.327298
1.47809
-1.37677
0.904314
0.331976
1.40892
0.778146
1.75754
0.192342
0.310867
0.240932
0.90969
0.612203
0.255302
-0.00561372
-0.176468
-1.01546
-0.957212
0.317844
0.843219
1.433
0.631996
0.110743
-0.138944
0.895984
-0.470865
-0.130301
1.17737
0.629326
0.207601
2.2131
1.31556
1.39476
1.65252
-0.908057
-1.47197
0.432849
-0.272311
-0.0442773
0.624227
0.371131
2.07289
-0.333705
-0.548593
-0.457951
0.00829272
-0.678477
-0.0101712
0.352557
-0.135448
0.519644
-1.3383
-1.00542
-0.414714
1.34992
0.651621
0.315855
0.765735
-0.135835
-0.820635
-0.0284214
0.337919
1.01266
0.769391
1.91901
0.531077
1.10899
-0.15772
-0.325713
0.762996
1.19171
0.692043
-0.341956
0.412444
0.624447
1.50432
0.908897
1.054
1.13381
-0.21221
-1.12184
1.16204
-1.22345
0.600128
0.0359374
-0.0595545
0.81688
-1.59615
0.029422
0.844245
-0.34846
-0.586419
-1.08485
-0.431541
-0.960865
1.05834
-0.386246
-0.247711
-2.67472
0.370779
0.074855
-0.954705
-0.469368
0.559626
-0.716204
0.635634
-0.967897
0.606824
-0.800452
1.07059
-1.39492
-0.12211
2.04535
-0.116408
-2.50486
-0.0807537
0.567792
-1.37496
-1.72982
-0.792633
0.00458365
0.317769
-0.191146
-1.59212
-0.195548
0.925067
1.96032
-1.01963
-0.459053
0.914936
-0.307737
0.228832
0.371227
0.247906
-1.85173
-0.0882375
1.06377
2.09225
-0.279371
0.91189
0.48737
-0.818538
-0.782586
-2.80988
-0.0321625
-0.705583
-0.902811
0.964536
0.420769
0.388608
-0.927241
-0.0441203
0.535319
-1.24514
-0.112403
0.771575
-2.17996
1.89539
-1.28058
-0.802355
-3.26375
0.42993
-1.91031
-0.756658
-0.537322
0.423657
2.36301
-1.56317
-0.296895
-0.36808
-0.292576
0.00208741
-0.408576
1.42627
-0.33928
0.480955
-1.33136
-0.512734
1.7412
-0.113707
-1.87428
-0.537439
0.599027
1.11973
-0.301254
-0.379693
0.756143
-1.35782
-0.235514
0.348385
0.284039
0.653871
-0.794753
1.987
-0.536209
1.14516
-0.322168
0.566679
2.31697
-2.05208
0.752641
0.255052
-0.729837
-1.00223
0.925494
-0.589137
-0.362515
0.772743
-1.23116
1.43029
-0.289632
0.118605
-0.144213
0.909465
-2.49485
-1.11879
-0.119053
-1.51709
-0.372909
-0.993092
-0.284602
-0.228012
-0.612548
0.057621
0.982305
-1.25209
0.107486
-1.37087
-2.15351
-0.529884
1.2094
0.357803
0.0878556
0.642864
-1.33095
1.21759
-1.3367
-0.519627
0.0923654
-0.687073
1.34362
0.706764
-0.870928
0.417757
-0.323314
-1.15492
0.369009
-0.0505323
-0.608284
-0.244066
1.41241
0.63251
-1.06776
-0.629026
0.528689
-2.13699
2.44374
-0.296067
1.25316
0.264047
-0.164625
-0.222668
-0.134064
-0.652621
0.251849
0.405261
-0.582089
1.12397
-0.0190638
-2.03428
1.29026
0.131623
-0.442232
0.979318
-0.295132
-1.19919
0.114676
1.1246
0.826585
-0.0737417
-0.520938
-0.0122628
1.78846
0.496741
2.01811
-1.42064
-0.570942
-0.350949
0.471926
-0.025868
0.0854121
-0.422696
0.593618
0.357351
0.611895
0.260134
-0.724267
1.86899
-0.711332
1.34082
0.115271
1.46617
1.34827
0.726954
-0.76359
0.124783
-1.86791
-0.233222
-0.794627
-0.531992
1.37943
0.520529
0.484047
0.845679
2.42699
-0.671784
0.309554
-0.992624
1.50198
0.424306
0.0753939
-1.15736
0.138761
-0.426305
0.657559
1.14321
1.95099
0.110318
0.729395
0.165991
-0.0399016
0.061848
0.541332
0.658458
0.227211
-0.649143
-0.186985
-0.278026
-0.975708
-1.60938
0.0465148
0.294323
0.694545
-0.305775
0.760981
-0.246077
0.78378
0.708068
-0.700951
0.823751
-0.276793
-0.399417
1.03969
0.945631
1.27042
1.80216
1.47173
-0.148228
0.628432
0.131388
-0.354397
0.259697
0.104064
0.236103
1.13658
0.647511
2.08217
-0.58115
0.539613
-0.6151
0.598011
-0.861323
-0.212271
-0.96411
-0.143487
-0.826256
-0.0511081
0.960548
-1.69293
-0.549617
0.401997
-0.174963
0.323554
-0.645489
-0.301095
0.629795
-0.839802
2.18348
-1.04568
-0.130372
-0.178673
1.88283
1.00793
0.410657
0.406408
-0.213977
0.188762
-0.094783
-0.364424
-0.282201
0.574255
0.0412842
0.602865
1.50376
-0.243571
-0.727033
0.0102798
-0.808445
0.56939
-0.647318
0.599904
-1.23641
0.99995
2.82503
1.05335
0.06818
1.3474
-0.163617
-1.23558
-1.96692
0.853337
-0.147856
0.454191
-0.291264
0.605769
1.6174
-1.05285
0.560288
-0.344439
-0.273799
1.88114
-0.663053
-1.13371
1.12494
0.954591
0.163955
0.0194096
1.05527
0.671923
0.304132
-0.24027
-1.10063
0.0800012
-0.540918
-3.33835
-1.53011
-0.510734
-0.534693
0.407336
0.876226
0.554223
0.544489
0.848278
0.132049
1.27694
-1.75998
1.31989
-0.572701
0.29225
0.345328
2.0541
-1.9391
0.467545
-0.709946
0.821575
-1.92158
0.26634
0.957515
-0.0200334
0.523837
1.00775
0.922669
0.427257
0.270423
-0.761382
-1.16896
-0.612233
-0.07976
0.163917
1.53857
-0.703886
-0.292304
-1.14103
-2.3703
-1.24897
-1.80502
-1.07724
1.60938
1.28428
0.845649
-0.0532668
0.788727
0.288538
1.89124
-1.054
-0.385369
-0.633134
0.298675
0.751816
-1.31628
-0.879768
-0.730321
-0.175726
-1.84343
-0.505822
2.26828
0.75863
-0.401279
1.58497
1.70574
-0.208476
-2.27129
0.121451
0.314895
-0.495575
1.70981
-0.466218
0.648408
0.68637
0.331494
1.72141
-0.437818
0.102634
-0.616082
1.3497
0.316031
1.25613
-0.0352467
-0.680148
0.480816
-1.32981
0.360098
-0.0141769
-0.835689
0.225828
0.556819
-0.576597
0.472178
-0.942652
-0.689978
0.396708
1.72306
0.255747
0.301686
-0.544523
1.16248
-0.547925
-0.292031
0.706713
0.0556258
1.15609
0.960266
-0.137252
-0.201306
1.13487
0.00287834
0.167555
-0.337738
-1.20201
1.76328
0.838388
-0.782906
0.659827
0.824027
1.27745
-1.95986
1.29758
-0.679965
-0.141776
0.202158
-0.186552
-1.12029
0.0678498
-0.193191
1.62511
-0.0504223
-0.423753
1.59077
0.793013
-0.314199
1.12677
-1.42092
-0.33087
1.05809
1.12789
0.576833
-1.39381
-0.78517
0.632413
-0.313356
1.0925
1.22175
0.261154
-0.899916
-0.752406
-2.51
-0.632264
0.017989
1.08049
0.107827
-1.54314
0.426343
-0.75464
-0.495366
-1.18079
-0.43988
1.13273
0.262455
0.379244
1.40885
0.675549
0.433336
-0.144506
1.05322
0.670152
0.0344225
0.413065
1.11026
-1.07655
-0.337214
0.847438
0.346044
-0.479118
-1.02072
-0.0703816
-0.877373
-0.30121
-1.64251
0.249525
-0.853115
-1.36964
-1.63943
0.759833
-0.69763
-0.0524855
0.572147
0.151249
-1.27842
-0.977565
-0.895482
0.315031
0.739453
-0.16964
0.026675
1.56923
-0.307751
0.98951
0.197111
-0.822397
1.1742
-1.14269
-1.26136
-0.923001
0.0733641
0.389445
-0.713318
-1.99261
0.325196
-1.93163
0.220592
-2.03026
-0.83356
0.0268273
-0.435861
-0.717062
-0.462127
0.308195
-0.989452
0.0731061
-1.23904
0.980554
-0.681027
2.59914
-1.16983
-1.01623
0.575263
-0.293204
-1.2762
-1.73305
0.811516
0.865918
0.787903
-0.972209
0.686728
-1.30537
-1.78122
-0.547807
1.29434
0.823115
0.635077
-0.262728
-0.846865
-0.533611
-0.238422
2.10506
0.0750883
0.494637
0.179841
0.681643
0.149498
1.27623
0.587054
-0.338264
-0.834958
-1.11132
1.48873
-2.42243
-0.371112
-0.666466
-0.911881
-1.59754
-0.00389436
-1.23473
0.316982
0.988137
-0.147251
-1.89455
-1.93215
0.441116
1.37431
-0.959823
-0.750994
0.19312
0.744853
-0.290037
0.332528
0.64098
-0.253754
0.893158
1.1852
1.27644
0.450725
-0.504933
-0.099919
-2.60516
0.629686
-0.348348
-1.03459
-0.483008
0.568462
0.214976
0.218867
1.30851
0.1388
1.0778
-0.405122
1.71433
2.46443
-1.30115
1.47442
-0.915998
0.332281
0.325546
-0.760912
0.416959
-0.86918
0.975171
0.141538
1.43846
0.218608
-2.53327
0.150572
0.355333
0.943735
0.115551
-0.200987
0.0266881
0.39427
1.61746
0.486286
0.81262
0.971211
0.196136
0.29499
0.612308
-2.11084
1.05306
0.0756022
-1.30445
-2.21698
0.0182781
1.00251
-0.353395
1.00444
-1.36729
1.30217
0.247117
-0.147553
-2.64459
0.647928
-0.0381638
1.51407
1.62481
1.95898
2.11492
0.850302
1.36755
3.47026
0.659201
0.137686
1.27835
0.0824314
0.369277
-0.340622
-1.22623
-1.86824
-1.75393
-1.89271
-0.658627
0.309682
-0.346789
-0.800475
-0.439896
-0.619916
0.654592
-0.931275
-2.67907
0.621752
0.343816
1.12664
3.94108
2.27782
2.27355
1.99866
1.32463
2.22922
0.397973
-1.00568
0.022687
-1.59988
-0.424652
-1.98427
-1.72759
0.526435
1.26007
0.08745
-0.983028
-0.0756087
-2.01159
1.01566
-0.43071
0.0920836
-0.517776
-0.305193
-0.0840934
0.0421476
-1.5946
0.274091
3.2113
0.64458
2.48016
1.18382
1.46332
0.319818
0.389102
-1.61722
-1.29048
-2.33689
-0.816405
-1.95221
0.0218543
-0.439035
-0.586053
0.0804878
1.15109
-0.0306139
-0.14252
-1.32506
-0.512591
-0.886657
-1.66295
0.281631
-1.09187
-1.3329
-1.40814
-2.72784
-0.094519
0.439674
-1.48991
-0.116603
1.95281
1.30535
-1.07524
-0.910179
-1.17591
-0.747843
0.609143
1.12183
-0.366454
0.8843
1.01817
-0.473842
-1.43097
-0.910293
-1.23464
-0.248734
-1.97847
-1.38039
-0.595918
-0.643479
-1.64789
1.04833
-1.95776
-0.058317
-0.20714
0.192552
-0.408491
-0.573889
-1.86369
0.548753
-0.575176
-1.19556
0.784357
1.48447
0.440662
0.395576
-1.51388
-0.443526
0.278345
1.80616
1.67975
-0.492788
0.349583
0.402949
-2.2164
-0.648583
-0.0285209
-1.69635
-1.40005
2.01547
-1.30682
-1.93039
-1.83486
-1.5952
-1.05937
-0.148121
-1.70558
-2.72889
0.59562
1.08461
-0.0136608
-0.25697
-1.09665
1.37732
1.84874
-1.19319
0.0156448
1.58502
1.43715
0.675998
-0.564834
-0.670186
-0.867069
0.737935
1.34131
0.427737
1.71894
1.67344
0.997261
-1.14173
1.1316
-0.328758
-0.0576656
-1.19084
-1.07105
0.0542634
-0.758667
0.150502
-0.459221
0.99081
0.645912
1.98556
1.50034
-0.395459
0.375967
-0.11203
-2.39445
0.690927
0.186699
0.0601293
-2.39066
0.0816912
0.552081
1.60234
2.20758
0.844942
-0.033751
0.354113
-1.22141
-0.215771
1.54262
-1.47616
2.25741
-0.180901
0.370319
-0.517005
0.724566
0.576863
1.75254
-0.149746
0.274956
0.421991
1.43153
-0.644525
-1.8126
-0.418719
1.61027
-1.05827
-0.497701
-1.06607
0.444145
1.797
1.57208
0.53735
-0.498215
-1.05337
-1.59515
-1.1291
0.786365
1.095
-0.641016
-0.755322
-1.16274
1.63157
2.22273
-0.439739
-0.098169
2.17835
-1.19043
0.533111
-1.13114
-0.649114
-0.552929
0.57464
1.05941
-0.68909
-0.106708
0.623301
0.454895
1.27842
0.124953
-0.293081
-0.64664
1.8814
-0.263517
1.44958
-0.180845
0.0814197
1.5267
0.613913
0.688791
1.45671
-0.396523
0.529181
0.502472
0.539491
-0.473413
-0.485996
-0.164796
2.22241
-0.227246
0.600754
-0.0311461
0.247581
0.994606
-1.07152
-1.99994
0.541822
0.0980311
0.739474
-0.115674
1.54763
-0.193703
-1.12628
1.26114
-0.389311
-0.393255
0.877821
0.2654
-0.880178
2.37969
0.643161
1.40117
0.69622
0.828702
-0.377224
-0.984804
0.554595
-0.418816
0.5039
0.0313342
-0.00391583
-1.17399
-0.755296
-1.25225
0.401264
-1.86163
-1.08553
-0.0138648
-0.258773
-2.7899
0.151388
1.47339
-0.55216
-1.03873
-1.49945
-1.05007
-0.533879
0.423987
-1.82416
-0.306746
-0.600518
0.266271
1.48287
0.440779
1.117
-0.192648
-0.463433
0.467237
1.48643
-1.11745
-0.5126
-0.971149
-0.836752
0.0656346
0.103203
-0.0291138
-0.397398
-0.44095
1.32182
1.96652
-0.127896
1.03971
-0.213051
-1.03343
-0.179318
0.732619
-0.33315
-0.830129
0.17285
-0.409732
0.376965
0.356966
0.0713733
0.727297
-0.275495
1.40609
0.947287
0.0467225
-0.156908
0.735892
0.178436
-0.507989
0.643574
-0.27851
-0.694467
-0.550595
-1.08406
0.0579618
-0.943318
0.682586
0.476459
-0.371344
1.15351
-1.06984
0.539431
0.12897
-0.524937
0.210487
-1.04243
0.640909
2.34457
-1.17781
-0.377689
0.203197
0.914718
1.37789
-1.98485
-0.792107
-0.627136
-0.845431
0.00512747
-0.686634
0.323299
0.42205
-0.150752
1.17081
1.01237
0.364351
-1.0544
-0.655014
-1.6165
0.698319
-0.685241
-1.40966
-0.804105
-0.40047
-1.65565
0.936253
-1.238
-0.728933
-1.9702
2.39407
0.88347
0.860133
-1.21448
-2.00099
-0.187057
0.376637
-0.405829
0.736377
-0.697622
1.57328
-0.445704
0.662643
1.12136
0.644136
0.294398
-1.39884
-0.171972
-1.00267
-0.372188
0.0159757
-1.1895
-0.660072
-0.0854382
-0.826886
-0.613864
-0.147871
0.69588
1.28223
-0.187127
-0.457944
-0.222975
1.41623
-0.886411
0.563102
0.0602824
-0.885403
0.361142
-0.125976
-0.0983963
0.17384
0.385789
-1.75484
-1.71377
-1.1028
-1.00052
-0.244205
0.128453
-0.825298
-0.45635
0.418453
0.412992
1.39557
0.762811
0.570425
-0.0854486
1.53386
0.57738
0.410344
1.84951
-2.18025
-0.167006
0.167787
1.14153
-0.805524
-1.09348
-1.19413
-1.41358
0.0426816
-0.530298
0.539752
-2.16919
-1.3524
-2.46192
-0.253503
-3.22338
-0.896355
0.106574
-1.90964
0.0616737
-0.237903
-0.283066
-0.346857
-0.0818917
-0.0404929
-1.06866
0.353883
-0.222222
1.67512
-1.23458
-0.261428
0.0116624
0.828525
0.311171
0.212289
0.0947125
0.563248
0.343364
2.13814
1.10379
-0.627893
0.122037
-0.43982
0.608262
-0.839716
-0.556818
-1.62917
-1.6001
0.395208
-1.20025
-2.16482
1.37796
0.777648
0.223452
1.18077
-0.683784
1.39133
-0.056764
-1.76131
-1.64697
0.817551
-0.75842
1.48435
0.166761
3.06274
-0.707446
4.92541
3.0597
0.512191
0.640297
1.13959
0.90187
0.632592
0.80055
0.477972
-0.875298
-1.47428
-2.2482
0.0264742
-0.27645
0.890673
-0.379817
2.35721
-0.466347
-1.22183
-0.888214
-0.214793
-0.402692
-0.401378
0.579148
0.445633
1.26115
2.39343
1.80283
2.57552
2.32777
1.03355
1.38444
1.00159
0.352934
-0.26242
0.8606
0.527331
-0.55348
-0.0408624
-0.117692
0.320826
-0.0408455
-0.938543
-0.746081
-0.507851
0.359416
-0.192213
-0.615894
0.927772
1.33842
-0.360258
1.76345
1.00968
-0.24016
0.532395
1.05512
1.03867
1.85319
0.94302
0.902872
1.36734
0.708117
0.76688
0.491343
1.15863
-0.427759
1.6468
0.518069
0.936437
1.42798
0.403898
1.81542
0.429141
0.659026
-0.741857
1.32058
1.69119
0.513788
1.01
0.672818
0.710355
1.85182
2.43126
2.10502
2.86459
3.98152
3.24152
1.13781
0.931698
0.790053
1.13975
0.955867
2.53299
2.14191
-0.246752
-2.08028
0.152206
-0.522037
-0.979781
0.0767421
0.23515
2.26312
0.692475
2.9003
1.41614
1.20455
1.93144
1.16841
1.53398
1.57989
0.0883778
0.911526
0.766266
0.556301
-0.0138251
0.078102
0.477965
0.393812
1.07151
-0.597374
0.668037
0.748163
2.05677
-0.136935
0.370355
1.07609
-0.130021
0.411896
-0.771796
-1.73543
-0.979917
0.380747
1.51661
0.0752896
-0.559539
0.184895
-0.986592
-0.584484
0.706849
1.28295
1.55319
-1.32997
-1.86923
-1.4282
-0.200315
1.63233
-0.890668
1.15718
0.340974
2.3484
1.52753
-0.397831
2.03459
-0.186609
-0.533413
0.812871
0.425293
2.19568
0.996333
0.425823
1.65193
0.391692
-0.176658
-1.22907
-1.98563
-2.58918
-2.69749
-3.23345
-0.56135
-0.507966
0.53516
-0.96053
1.43204
0.989874
2.00554
0.568486
-0.833176
-0.189641
-0.281842
-0.187
0.0922683
-1.11689
-2.50633
0.464636
-0.207312
0.4869
-0.623045
-0.0418414
-1.9712
-1.55943
-0.804735
-0.974541
-0.317752
0.685095
-2.72835
-1.61249
-0.186736
0.510324
-0.184371
0.88071
0.375301
-0.961775
0.382816
0.325896
-1.34182
-0.724135
-0.39405
-2.11414
-1.25723
-2.2624
-0.915535
1.14152
1.59162
-0.45213
0.211446
0.75507
-3.17183
-0.944675
0.309656
0.0435664
-1.62749
-1.40851
-0.567544
-0.869611
-1.06714
-0.079554
0.246237
0.50157
-0.229351
1.57496
-0.587452
0.921658
-0.115521
-1.2167
-2.20879
0.46205
-0.149851
-0.00663321
1.19801
-1.53159
-0.251609
0.30195
-1.07238
0.559079
0.783947
-0.767148
-0.125351
-0.587532
-1.49893
0.45219
1.36619
-0.598027
-1.81501
-1.4182
-0.0202997
-1.20791
0.605158
-0.584418
-1.61228
0.64001
1.16065
0.1845
-0.894964
0.109343
-0.546371
-0.51297
-0.0655
-0.930889
-0.89233
-0.275258
-0.824288
-1.60917
0.361414
0.0400589
-0.940079
-1.20781
-0.564297
1.32936
0.0585293
0.592436
-0.123836
-1.98691
-1.98529
-1.7938
-2.01447
-1.39648
-0.739338
-0.229931
-0.926103
-1.90186
-1.34433
-0.226996
-1.92389
1.73519
-0.274407
-0.182843
1.43633
2.13274
-0.932263
1.08777
-0.412679
-1.66277
-2.51137
-1.2641
0.352185
0.673869
-0.805185
0.611907
0.602159
-0.296868
-1.67648
-0.127776
-0.763242
-2.5453
-1.16356
0.0283156
0.239787
0.89825
-0.389399
1.56358
-1.65173
-0.880522
1.25996
1.3131
1.79805
-0.00459464
0.495403
-0.856873
-1.20627
-0.337184
-0.000535865
-0.481177
-0.413759
0.928478
0.718414
0.422595
-1.28021
0.0199995
-0.382607
0.177669
-0.562044
0.793323
-2.22407
-1.17038
-0.871882
-0.884097
-0.427891
-0.609829
0.723687
0.783043
1.12043
0.90556
-0.189628
-0.151438
-0.336048
-0.0288532
-1.26658
-0.490026
1.12572
1.65377
1.73666
-0.253653
1.10158
-0.29954
-0.150445
-0.0250314
-0.0891688
-0.937993
-0.273302
-1.1133
1.335
0.684382
-1.38628
-0.590715
1.29025
1.663
1.09737
-0.548818
-0.497182
1.92687
0.242565
1.14322
1.77429
1.13439
0.187474
-0.732755
0.718023
-0.18727
-1.6559
1.12332
-2.95333
-0.353221
0.586626
-0.423509
0.69444
0.269559
-0.0438452
1.00335
2.32068
2.04239
0.363122
-0.585536
2.74455
0.040347
0.262367
-0.736814
-0.180229
-2.05382
-0.184623
0.423695
-1.42425
0.0389803
-2.40616
0.397693
-0.469147
0.643703
-2.11476
1.14202
-0.11613
-0.243673
-0.386414
-0.947099
0.368555
-0.162649
-1.11293
-0.628278
-0.569715
-0.455468
-1.14523
-0.470625
-1.19093
-0.367893
0.174409
0.634568
-0.3293
-1.71522
-0.20054
-0.604658
1.52108
-0.371191
1.88664
1.04241
-1.84172
0.855074
-0.582771
0.723883
0.241676
0.433995
-1.51706
0.618831
-1.65122
-1.38419
-0.963653
-0.677046
-2.39477
-2.80555
0.230659
0.0313074
1.11182
-0.944031
2.39676
-0.867704
0.558472
0.520855
-1.91506
-0.258952
0.505208
-0.00483035
-1.10011
1.16119
0.945098
1.34813
-0.190565
0.174382
1.84777
0.386058
0.274046
-0.177288
-1.34922
1.23742
0.0654221
-0.301151
0.0454164
-1.17463
-1.24474
1.7767
0.303961
-0.165141
-0.394769
0.791837
0.985522
0.416988
-1.49197
1.25912
-1.62508
0.633361
-0.104219
1.47074
2.27876
1.02986
0.736882
1.80087
-0.39189
-0.220457
2.44513
0.844134
0.46512
0.758377
-0.489827
1.21267
-0.0184326
0.205724
2.16594
0.467399
0.263582
-1.19967
1.25312
0.791344
0.534019
0.839663
0.602956
-1.69944
-0.19302
-0.167842
0.461444
0.667135
1.77114
0.90662
2.3407
0.643721
3.0801
3.22396
1.2237
1.6002
2.01428
1.10344
1.61829
2.43556
1.1833
2.42578
0.507195
0.589307
-0.475379
-0.702328
0.0482135
-0.199037
-1.59138
0.452044
0.37403
1.03516
-0.560131
0.979912
1.19426
2.61078
1.63401
0.0905155
1.72264
2.58695
1.21762
1.64799
2.94669
3.66316
1.93279
1.86103
1.19563
2.06584
1.33882
0.421125
1.67099
0.742652
1.3801
1.34568
-0.303655
-0.965091
0.705218
1.28054
-1.28137
0.412479
-1.61152
0.0155903
-1.78203
-0.46825
1.27838
0.898286
-1.4938
0.729947
-0.75376
0.996174
0.0548639
1.24981
-0.361902
0.287428
0.589559
0.0881051
-0.0489941
1.61385
1.56308
0.277712
1.64454
0.550194
0.933549
-0.572501
0.812977
1.71968
0.749757
0.989139
0.552265
-0.0427888
-1.07025
-1.92845
-0.734467
-1.12452
-1.6564
0.54249
-2.07491
-0.206377
-0.887099
-1.31605
1.26798
-1.18808
-0.600552
-0.432343
-0.459419
1.4273
-0.509566
0.506266
0.956227
0.0543245
-0.508152
0.11792
-2.06868
-0.312968
-1.86672
0.546812
-0.962861
-1.3922
-0.397999
1.14477
-1.46573
1.21612
-0.101873
0.536931
-1.06457
-0.602819
1.8327
0.573692
1.00419
0.16721
-0.459801
1.74458
-1.3953
-0.189275
-1.5502
1.00751
-0.0341268
0.442187
1.09104
0.0551513
-0.164125
1.07074
-0.252605
-0.0523656
-0.124437
0.493714
-0.0309177
-0.904788
-0.386126
-0.910929
0.840151
-0.786305
-1.18237
-1.04594
1.54028
0.271435
0.562895
0.363124
-0.344173
0.999456
-0.305236
1.25513
1.13693
0.330154
0.837932
1.97071
-0.0249621
1.21881
1.17423
1.26593
0.463301
0.846618
-0.79099
0.344644
0.116171
0.43544
0.493254
1.94325
0.285732
0.81197
-1.63639
-1.52534
-1.57335
-1.72435
0.342435
-1.77199
0.474217
1.32313
-0.788391
2.49677
-0.803993
-1.07563
-0.340983
0.853165
2.09465
-0.859577
-0.911175
0.711259
-0.910024
-1.42972
-0.0463865
-0.0679531
-0.818397
-0.120373
1.002
-1.75884
0.225137
0.0205062
0.0558712
-0.811363
-0.102077
0.640481
-0.401954
0.295797
0.421018
0.510414
0.514935
1.81258
1.85621
-1.14234
-0.47283
-0.737855
0.940324
-0.532734
3.12014
-0.513998
0.950466
0.200522
-0.478218
-0.341477
-0.687741
-1.13127
0.63768
0.636515
-0.889364
0.250857
0.622479
0.36901
0.0642612
-1.35447
1.71762
-0.540267
2.3515
-0.281634
-0.161125
-0.272397
0.650188
1.23863
2.0071
1.9041
0.620576
-0.152675
-0.75414
-0.958797
-1.64866
1.06469
1.4962
-1.59955
0.00331096
-0.0723284
-1.58788
1.68535
0.415763
-1.38009
-0.289994
-0.325002
1.00164
-0.442753
1.24351
0.232144
-1.55147
-1.03703
0.382349
-1.87007
-1.14926
0.51961
2.26427
-0.787468
0.795451
-0.387267
1.58092
0.213225
-0.054373
-1.06333
-1.35636
-1.25965
-1.47015
-0.118011
1.18353
-1.03908
0.463102
0.435152
-0.0694774
-1.33347
0.529823
1.35311
0.191526
1.3605
-0.428823
-0.850361
0.552
-0.0393496
-1.16137
-1.43933
0.391166
1.45075
1.60487
1.06805
2.54522
-0.726391
-0.130541
-0.524086
-0.877228
-1.43823
-1.67342
1.32923
-0.176896
0.079962
-0.667509
0.369408
0.16058
-0.797898
-0.878689
-0.751399
-1.82232
-1.86586
0.0207933
-1.18087
-0.722872
-1.33058
-1.48457
-1.91982
-0.15807
1.41807
-1.1396
-0.0448956
0.583959
1.55027
0.935435
0.402432
-1.1446
-0.886618
-1.01489
-1.83655
1.69372
-0.705812
1.06706
-0.726627
1.84188
0.435636
-3.5939
-2.19268
0.223635
-1.38753
-0.911822
-2.77797
-1.76365
-0.611404
-0.309231
0.140936
-0.990802
0.168114
-0.399486
0.736362
-0.841559
-1.09718
-0.99123
-0.939463
-1.24575
1.15481
-1.89119
1.46961
-0.0451045
-0.479032
0.372866
0.512083
0.0574865
1.08186
-1.63809
-1.88771
0.757876
-0.607748
-2.2923
-0.941236
-2.02616
0.44807
0.13511
0.086672
-0.618291
1.0205
-0.502576
-0.146203
0.506475
0.436723
0.488771
0.127845
0.846568
-1.1374
0.535486
-1.17001
-1.67524
1.12079
0.0311919
0.586598
0.540159
0.655287
-1.69101
-0.995399
1.71197
0.843238
1.48232
1.50585
2.19636
0.614102
-1.0095
-1.96167
-2.22793
-1.66626
-1.29545
-0.230317
-0.58129
-1.31171
1.03777
-0.442158
-0.021233
0.802007
0.767929
1.26876
-0.0483427
0.100167
-0.138017
-0.597631
0.345405
1.75047
-0.797248
-1.18291
1.44363
3.2309
0.878504
1.73725
1.71976
0.761019
1.49489
0.417969
0.404779
0.0801442
0.114102
0.370135
-0.579918
0.226513
-0.938515
-1.16691
-0.540294
1.89059
0.535204
1.79505
1.10954
0.142906
-1.45398
0.545434
0.626852
0.0208666
-1.66148
0.514493
-0.286106
1.0211
1.66497
0.750653
1.23596
0.988506
-0.226339
0.726147
-1.9953
-0.971371
2.24456
0.00741151
2.08886
-0.334214
-1.40628
0.0127791
1.08312
0.79078
-0.0237501
0.571293
0.0214527
-0.0486184
0.812773
1.33003
1.90873
-0.391105
-2.91565
-0.64463
0.383208
1.21978
0.184878
0.811863
0.452235
1.53064
1.02314
2.11651
-0.457769
-0.492329
-0.143173
-1.1172
0.457127
-0.421736
-0.541487
-1.11036
0.321768
-1.94444
0.551161
-0.549687
0.501239
1.26236
0.880106
-0.557933
-0.837875
0.893469
-2.86614
-2.26663
0.946834
-1.00538
1.619
-0.389916
0.215903
1.00133
-0.391312
1.44899
-1.51959
-0.663153
0.503664
-0.918748
0.652373
1.63405
0.985889
0.214658
1.82084
-0.123689
0.848884
1.08789
0.528596
-0.437026
-0.124862
-1.08355
0.887676
-0.266358
-1.62178
-0.163508
1.08186
2.20203
1.47275
1.61323
1.0358
0.902193
1.51643
0.845022
-0.830869
-1.22811
-1.83403
0.173302
-0.170827
-1.38708
-0.0692659
-0.699351
-0.458179
1.66713
-1.52021
-0.291748
-0.760741
-0.760444
-0.996134
0.87176
-2.62499
-2.25879
1.39919
-0.470676
2.40333
0.396928
1.27147
0.0719242
-2.63531
0.988755
-1.3981
0.373544
0.530835
-1.53517
-1.46185
0.0508634
-1.20641
-1.3664
-0.294336
0.70832
-1.27865
-2.52393
0.0775628
1.72909
-0.687146
1.16381
-1.75838
-0.944558
-2.30046
-0.636533
2.27685
2.63
0.150494
-1.75936
1.8309
0.470772
-0.309198
1.37845
0.33959
0.281994
-0.613656
-0.291035
-2.10486
-0.572123
-0.4602
0.948913
-0.0406681
0.49121
-0.0100431
-0.103649
0.824731
-0.572328
0.0222984
0.651188
0.424361
-1.46736
0.178107
0.543738
1.66027
-0.521337
-0.107579
0.0742642
-0.596922
0.0898778
-0.185745
1.65834
-1.03221
-0.125311
-0.726934
-0.682021
0.584862
-0.49881
1.44173
0.159377
-1.83276
-1.92274
-0.562106
-0.305634
0.251297
-1.78625
-0.41586
-1.85046
-1.6064
-1.93093
-2.05053
0.862675
-2.92539
-0.948339
0.785824
0.365561
-1.31053
0.669462
-0.645551
-2.69263
-0.591052
-0.233066
0.231063
0.502068
-0.597584
-0.178151
0.544812
0.313871
-1.0803
0.0939535
0.329625
0.521867
0.400681
-0.123275
0.0391015
-1.6516
-0.36299
-0.604389
0.519526
0.659261
-1.70141
0.708325
-0.242537
0.492393
-1.34226
0.134982
-0.147416
0.00250608
-1.29621
1.60283
1.34766
0.607494
-1.38306
1.87721
0.339819
0.884032
0.216459
-0.403196
1.30129
0.520088
-1.52677
-0.961953
-0.531904
-1.80492
0.335962
-0.434278
0.169377
0.163271
-1.18796
0.346939
0.652463
0.171907
1.55858
-0.048428
-0.150319
-0.494548
-0.224325
-0.78934
-1.22371
0.361158
1.54134
0.463505
-0.635689
1.68206
-0.57102
1.08636
-0.298816
-0.333814
-3.95168
-0.253966
-2.00485
-0.816573
-1.34828
0.310603
-1.51833
-1.39006
0.737134
-1.72706
-1.35468
0.524259
-1.78063
0.956786
0.341941
-0.272399
0.562765
-1.26784
-0.773265
0.806289
0.0174245
-0.262146
-0.206035
-1.617
-1.27402
-1.04791
0.40882
1.55011
-0.971394
-0.338998
0.778479
0.279988
-0.956729
-0.0742053
0.791778
0.75756
-0.735095
-0.870311
-0.653354
0.0855256
-1.23652
-1.26336
0.814143
3.07078
0.672941
0.571757
0.172885
-0.893415
0.0045634
0.145641
-0.0111325
-1.52561
-0.896984
0.864897
-0.264656
0.599375
0.993606
-0.517566
0.153243
-1.31999
-1.60569
1.14899
0.101949
0.573333
-2.22722
0.99453
0.618565
-1.49332
0.0831672
0.116562
1.3046
-1.33524
-0.379215
0.45961
-0.791748
0.62297
1.41926
0.762049
1.83638
0.043214
-0.628655
-1.35507
0.779818
1.78318
-1.01376
0.274948
0.123064
-1.52801
-0.966559
0.76111
-1.05042
-1.153
-0.967348
1.40394
0.893694
-0.436727
0.910632
1.24796
0.572439
-0.759912
0.53703
-0.226103
-0.169981
-1.45418
-0.354847
0.0424138
-0.16542
0.952993
1.15842
0.816521
-0.876623
-0.663562
-1.78193
-0.752012
-0.0795194
-1.21675
-0.864566
0.278196
-0.126227
0.997522
-1.08706
0.0796074
0.903343
-0.559223
0.741253
0.799822
0.406464
0.967025
-0.445266
-1.25535
0.0594968
-0.7905
0.485072
0.85654
-0.0706546
0.282085
-1.28132
-2.3512
-0.111841
-1.14319
1.3995
0.636198
-0.53577
-1.55702
-0.225689
-0.316584
-0.207621
-0.125435
-0.209604
0.407536
-0.557792
0.550973
0.587157
1.83577
0.878887
-0.296015
1.93014
0.701685
0.0457534
-0.60459
-0.0626511
2.07478
-2.64514
0.408408
-0.718346
-0.972679
2.08545
0.136947
2.06398
1.26578
1.62757
1.05314
0.769911
-0.769124
1.44552
0.154519
-1.83995
0.37192
0.258156
0.721842
1.20864
-0.734025
-0.36862
-0.473937
-1.31325
1.35095
0.0368979
-1.50123
-2.76412
-0.788889
-1.11849
0.940564
1.42913
-1.32792
-1.46701
-0.31972
-1.67067
0.846691
-1.36373
-0.948324
-0.0197776
0.127992
0.205514
-0.291211
-0.62185
1.17053
1.04634
0.468963
-0.195885
-1.90073
-1.47039
1.56543
1.41923
-1.3174
0.952738
0.450052
1.58322
0.437249
0.323076
-0.196703
0.32246
-0.759855
1.41285
-1.32276
1.17221
-0.134338
-0.0234724
2.58653
1.6528
0.709022
-1.42577
0.0332036
2.4621
0.275374
0.450114
1.14047
0.888413
2.43319
-0.573569
0.497246
0.623937
-2.24442
-1.51203
1.01438
1.45276
1.67206
-0.803071
0.566782
1.54096
-0.457669
0.816088
0.580508
1.17382
0.472023
0.118645
-0.0892686
1.5069
1.86378
1.50368
-0.172021
-1.97906
0.507089
1.27946
0.354667
0.993509
0.742591
0.0607827
-0.537763
-2.85305
-2.71275
-0.997904
1.69726
-2.07646
0.691443
-0.767729
1.00746
1.3711
0.0942513
0.251478
0.233458
1.41418
0.560069
-0.785419
-0.632861
-1.4062
-0.222541
1.1551
-0.809657
-0.0163569
2.28465
1.9773
0.416216
0.51363
-0.610804
-1.35452
-0.703427
-0.950441
-1.39155
-0.706063
-2.24944
-0.686871
-0.376093
1.67395
-0.103446
-0.0742008
0.390163
0.405143
1.21047
-0.569356
0.610788
-0.119983
0.40716
-0.654142
-0.208924
-1.28698
-0.073333
-0.284733
-0.628889
2.29429
3.90854
1.04774
-0.212328
-0.314116
0.238614
-0.189019
-0.236576
-0.232048
-0.40043
-0.909435
2.05288
0.0271279
-0.165903
0.0175856
0.639065
-0.333383
-1.01719
0.885028
-1.37734
0.0830817
-0.662761
-0.372629
-2.16882
-2.68086
-1.49993
-1.23975
1.72405
1.99404
1.65128
-0.820999
-0.411747
0.377138
0.352912
-0.49377
0.917981
-1.49582
-2.43422
0.316754
-0.615098
0.264521
-0.630269
-0.891264
0.162669
-0.0696252
1.21576
1.19798
-2.42629
0.183708
0.12359
0.866793
-0.684598
-2.13423
-2.10225
-1.31494
1.26636
4.29383
1.68364
1.0803
-0.978103
0.576854
0.373981
-0.0520357
-0.932967
-1.47959
-2.43983
-0.67941
-1.85963
1.24697
0.515915
0.0155919
0.211946
0.458995
1.08749
0.865729
1.04448
0.733115
-0.556876
-0.236871
0.834227
-1.41662
-2.059
-0.698275
0.812425
2.72228
0.972188
-0.232543
0.807313
1.43688
-0.242577
-0.83987
0.0708312
-1.41042
-1.1252
-2.27721
0.742289
-0.587086
-1.69929
0.225226
-0.129347
0.646786
-1.00845
0.320157
0.898508
-1.34897
-0.632924
-0.526282
-0.789793
-1.4159
-3.42021
-1.62625
0.419085
3.00792
1.64449
-1.83493
0.623378
1.12721
-0.307877
1.34267
-0.106165
0.478375
-0.758592
-0.173988
0.184606
1.47507
-1.03088
0.536137
-0.0143875
1.0268
0.417033
-0.374503
1.18515
1.32338
0.323066
0.550744
-0.909527
-1.74446
-2.09205
-1.79359
-0.708234
4.00009
0.99016
1.57139
-0.630229
0.754188
2.91685
0.860885
-0.32302
-0.511815
-1.87504
-1.56992
-0.542099
-0.106995
1.05401
1.19394
-0.600281
0.787545
-0.268416
0.557848
-0.0361633
-1.87342
-1.00944
-0.657458
-0.137646
0.459137
-2.85757
-3.41533
1.12255
0.276016
2.1872
1.50821
-0.887871
1.3325
-0.12228
0.336943
-1.11793
0.18525
-1.40263
0.0867591
-0.12362
0.868757
-0.24354
-0.348927
-1.14108
-0.57988
0.306973
0.654046
1.46847
-0.184161
-0.0170041
0.296509
-1.12612
-0.363602
-1.44406
-1.57908
-0.0369625
0.978445
2.75752
0.207407
1.21787
0.840855
0.537708
0.350469
-0.320752
1.86267
-0.0861595
0.293517
-0.594741
-1.38063
0.202712
1.41285
0.506668
0.937484
-0.324783
-0.472219
-0.968629
-0.567193
-0.555761
-0.195375
0.0971117
-0.987033
0.175303
-0.423741
-0.540277
0.32132
1.41199
0.625756
2.25574
0.468584
0.326138
2.02802
2.50142
0.212511
-2.82229
2.52409
-0.507231
0.411631
-0.332055
-0.960702
-0.442531
0.921338
-0.733525
-1.20713
1.77326
-0.794815
-1.13841
0.297135
-1.1648
-1.27885
-1.37663
0.502801
0.820105
-0.14933
1.50452
-0.945229
0.528196
-0.216301
1.03659
-0.715796
0.316803
-1.38932
-1.71428
0.203838
-1.14808
1.70789
0.901643
1.58146
0.90074
0.154907
0.996313
0.280362
-0.74459
-0.269363
1.89253
-0.195089
-0.419291
-0.547834
-1.79795
-0.92272
2.5099
0.78754
1.3324
0.497841
1.73521
0.112393
-1.02052
1.12504
-0.230839
-1.11783
1.96722
-0.954897
-0.972736
-0.466157
-0.928443
-0.687548
-0.0137045
0.436434
0.987825
-0.874992
-0.576921
1.59605
0.303211
-1.74124
-2.27503
-0.266597
0.382176
1.16172
0.732523
1.44373
-0.379913
0.691537
0.62756
-0.348011
0.264264
1.0962
0.498696
0.262125
0.994987
-0.192451
0.508128
0.113793
0.939199
0.155362
-1.09686
-0.352299
-0.333904
-0.526038
-0.723122
0.0754241
-0.0986149
-1.04325
-1.63703
-0.463554
-1.22375
2.94288
-0.375029
1.30848
1.29546
1.52399
1.12607
0.33302
-0.606671
-1.66479
0.169472
-0.148449
-0.136235
0.773036
-1.51059
-0.660448
1.10286
0.149286
0.398579
-1.20252
0.451023
0.807842
-0.66723
-0.416836
-0.830723
-2.11683
-0.572378
-1.53134
-0.873103
0.712469
1.66493
0.325286
1.15426
1.61125
0.117353
0.806358
1.60634
-1.549
-1.50474
0.119128
0.371556
0.0354333
0.0830505
0.144205
-0.236564
-1.25385
-0.897724
0.63402
0.570282
1.09956
0.203655
0.520297
-0.818312
0.258198
-2.29777
0.0773899
-1.76305
-0.507592
-1.18964
0.260014
0.911897
0.445582
0.165991
0.539078
-0.203751
-0.221978
0.231571
0.650877
0.811699
0.543257
0.774961
0.779229
-0.55691
-1.42275
0.451811
-0.387009
-0.411318
1.30914
-0.121081
-0.607257
-0.74854
0.411982
-0.808235
-1.27531
-0.740759
-0.878795
1.28624
-1.76649
-0.234585
-0.285285
1.46443
0.42443
-1.53748
-0.282906
0.816719
-0.492648
0.628258
-0.337577
-1.18787
0.539154
0.32066
-0.0885907
-0.272113
-1.84024
0.193778
0.256863
0.590191
-0.268865
-0.348557
-0.979453
0.719786
-1.43006
-1.37457
-0.748198
-1.2448
0.214205
0.867863
-0.284949
-0.781427
-2.12771
-1.85148
-0.260923
-0.0855487
0.555953
0.260935
1.04493
0.284443
-1.30848
0.652268
-0.162916
0.980684
-0.4581
-0.837431
-0.0137947
0.277674
-1.10381
-0.211753
0.697934
-0.16738
-0.340312
-0.880623
0.344725
-0.0259927
-0.656983
-1.75084
-0.560723
0.809382
1.01842
0.693595
-0.320841
0.322411
0.934489
-0.118324
-0.722173
0.899982
0.117592
-0.602203
-0.49457
1.23781
-0.240245
1.80463
0.410053
1.78848
0.827876
1.0361
-0.588105
0.44016
-0.322859
-0.53474
-1.00525
-0.752058
-0.337322
-1.57535
-1.02304
-0.0407358
-0.659755
-0.497364
0.442011
0.191835
-0.498873
-0.478942
-0.832311
-0.834382
-1.11344
0.0366908
-1.20742
-0.762495
-1.60692
0.113042
2.31497
-1.30737
0.647643
0.59548
0.983646
0.0335456
-0.213517
0.795943
0.485234
1.21043
-1.98853
0.825002
0.039953
-0.147563
0.882249
1.22341
0.378293
-0.0780231
-0.782683
-0.252749
-0.854804
-0.237848
-1.32435
0.195732
1.71415
-1.06862
0.098752
-1.92752
1.64975
0.00777476
1.53451
0.449617
0.460993
0.374715
1.38311
0.0427442
0.724896
1.08821
0.669891
0.363755
2.39845
0.992616
-0.24935
-0.696652
0.693975
-1.15118
-1.09027
0.409026
-0.659846
0.693503
0.397647
-0.0908653
0.123874
-1.31925
0.506489
-0.335753
-0.894236
0.493965
-1.38276
-0.736497
-1.16004
1.96442
-0.566057
-0.571016
-1.31427
-0.455317
1.57991
-0.956783
-2.81803
-0.0969617
-0.602191
0.145725
-0.931511
2.10455
0.168715
-0.863032
-0.781079
-1.15045
0.0994253
0.575165
1.33787
1.26614
-0.992462
0.535932
0.950725
-1.13211
-1.15998
1.36824
-1.4433
-0.526213
-0.833866
2.00619
0.0189331
-0.110262
0.889505
-1.15105
0.193208
-1.31354
0.471696
-1.46096
0.254003
-0.602498
-0.345634
-0.375793
-1.30149
0.154607
0.00297859
1.07907
0.425047
-0.859509
-0.140741
0.355967
2.5854
0.723578
-1.3396
-2.09966
-0.355337
1.41645
3.03012
1.49357
-0.417635
0.230783
-1.97254
-0.79451
-1.21868
-1.50731
-0.00714779
-0.520992
-1.38822
1.47802
1.1924
-1.0539
0.359538
-0.0787082
-1.74528
1.03471
1.03869
0.492384
0.283358
0.876098
0.469225
0.663471
-1.26694
-0.363157
0.4981
0.238468
-0.899399
1.00588
0.844959
0.151238
-1.15365
0.358579
0.709599
-1.22024
-0.0892434
1.00651
1.71573
-0.375939
-0.691575
-0.585267
-2.35599
0.686245
1.17755
-0.801837
-0.744574
0.245336
0.638187
0.283362
-0.733544
1.28444
0.189464
0.988722
0.683065
-0.366891
0.36051
0.429293
0.860973
-1.55531
1.5428
1.95221
-0.213714
1.25703
0.399454
-0.03273
-0.37421
-1.18909
0.150139
-0.527752
-0.405546
-1.19089
0.33849
-1.20961
1.50631
1.19106
-1.7965
1.26794
0.362259
0.929944
0.152528
0.069068
-1.03683
-1.26061
1.19601
0.589865
-0.0353772
1.16738
1.00666
-0.344458
-0.581361
0.362292
0.139318
-1.6151
0.239823
0.143866
-0.890793
-0.830318
-0.0514956
-0.350733
1.27661
1.69141
-1.96602
0.603002
0.41585
-0.423755
-0.319574
-0.0924609
0.454542
-0.466684
0.660273
-0.934853
0.772297
0.310897
0.914717
-0.50475
0.122688
0.186909
1.0647
0.629876
-0.147125
2.22341
-0.594658
-1.31792
0.904488
-1.27448
-1.66232
0.870905
0.0364445
-0.173591
0.486193
-1.39347
1.07861
1.68541
2.27016
0.600053
0.723177
-0.0659086
-0.231647
0.146265
-1.28774
0.930438
-0.362905
0.551801
-0.342038
-0.354343
-0.214942
0.556773
0.595907
0.18931
0.0330428
0.0538999
1.03325
1.40787
-1.40312
1.46154
1.14287
1.03578
2.19915
-0.862903
-0.041906
-0.313192
1.17372
-0.257105
0.54657
-0.430876
0.358497
1.25399
0.220185
0.861034
0.791527
1.6085
-1.09891
0.165043
0.893475
0.0789659
1.20253
1.03038
-0.443303
-0.420297
0.648321
1.48632
0.622328
-0.0476129
0.996438
0.286849
0.0352451
-0.0824206
0.702239
-0.43557
1.50203
-2.72584
0.794399
-0.0188872
-0.918846
0.984031
-0.713672
-1.00207
-1.96371
0.114471
2.02383
0.275572
0.859313
0.0982022
-0.182253
-0.214931
-0.0290795
0.232377
2.5713
2.07514
2.47892
0.0349934
1.03738
1.28612
-0.307074
-1.64533
0.145664
1.21904
2.20203
0.438313
-0.0194788
-0.219694
-0.235817
-0.724706
-0.539164
1.42689
-0.0746476
0.810441
-1.46947
0.625157
0.929548
-0.617655
0.397138
0.719805
0.508763
-0.838949
-0.129045
0.730966
0.540792
-1.66181
-0.385011
0.238347
1.66422
-0.372835
0.213882
-0.722596
0.752974
-0.0767886
-0.338603
0.678358
-1.37893
-1.09135
-0.25712
-0.561898
-1.90767
-0.0329111
-1.38287
0.0954043
1.33961
1.79859
-1.28053
-1.58439
0.653679
-0.710436
-1.31296
0.358769
1.3034
0.104045
1.16247
0.336633
0.334494
0.178427
-0.239089
0.0107482
-0.856744
-0.0395783
-2.45987
-1.36344
-1.97852
0.470814
0.394616
-2.09816
0.566345
-1.32857
-2.29958
-2.42403
-0.775079
1.38078
0.00112211
-0.823508
-2.04866
-2.46312
-1.74624
0.5327
0.253296
0.297806
-2.19122
0.730053
-1.00261
1.97466
0.481257
-0.554157
-0.3258
-0.280123
-1.22688
-1.09668
-1.30198
1.19995
-1.53911
-0.31851
-1.48622
0.383085
-1.5905
-1.53726
-0.618662
-1.68858
0.972464
0.139596
-3.20744
-2.00334
-3.82494
-2.13528
0.0658728
1.17884
-0.486261
-0.558645
-0.266457
0.701147
0.578368
0.144343
0.732798
-0.27033
-0.152169
1.74935
-0.254738
-0.117368
-0.24695
-1.71692
0.787577
0.156876
-0.909669
-0.804448
-1.89643
-1.20687
1.03224
-1.4347
1.34195
-0.21501
0.183951
0.822221
0.00911226
1.16984
1.61861
0.493553
-0.73843
-0.152132
0.175248
2.33217
0.885997
-0.00518882
0.881711
-2.48758
-1.02913
0.0521064
-1.27616
-0.534831
-1.39883
0.0534811
-0.685787
-0.993575
-1.8028
-0.589935
0.451485
2.37954
0.640776
-0.281978
-0.354556
-1.13859
1.15578
0.602285
-0.24441
1.25781
0.237826
0.747192
-0.537601
-1.47057
-1.78284
-0.372692
-2.40137
-0.724726
0.581331
0.586286
1.28461
-0.364815
-0.900494
-0.430073
-1.42363
-2.02205
-2.15598
0.963875
-0.0140982
-0.267137
0.4416
0.157516
0.689252
-0.215595
1.00768
0.643264
-0.215467
-1.44122
0.0179517
-1.21106
-1.34252
0.992511
1.70692
-1.11944
-0.163646
-1.6789
-1.9813
-1.13088
-0.774867
0.59748
1.80189
-1.17413
-0.755166
-2.239
1.12741
0.404734
2.34937
0.568913
0.455311
-0.413012
2.14654
1.10964
0.0719573
2.07271
-0.248391
0.166001
0.981296
-1.02927
0.440067
0.652419
0.842216
-0.0689697
-0.228735
-3.16449
-2.7116
-3.77004
-2.2462
-1.65688
-1.84189
-3.40155
-1.08486
-2.14718
0.853654
1.66918
-0.558623
0.113557
-1.12776
1.72841
-0.81615
-1.08319
0.740234
1.78576
0.666726
0.0311819
-0.247123
-1.85129
-1.16925
1.82538
-0.0934531
0.778461
-1.38577
-1.78541
-1.77125
-2.95816
-3.11184
-5.0675
-2.49168
-1.83781
-0.174326
1.79276
0.239335
0.0724035
-0.0126912
0.505715
4.29405
2.27995
-0.592458
0.424211
-0.430822
-0.816172
-1.30729
0.845068
-0.302574
1.09795
1.91298
-0.766196
-1.13493
0.83729
-0.141953
-0.0465681
-0.269188
-0.364669
-0.627678
-0.743215
-1.68783
1.05973
2.84069
1.05828
1.23487
0.32013
1.00847
0.100157
-0.287415
-0.295519
-0.0112548
0.593687
-0.243059
-0.417263
-0.237222
0.124962
-0.337355
0.415493
0.695792
2.28667
1.61956
1.98739
-0.839054
-0.0543148
-1.14188
-0.0454677
-0.134118
1.42665
1.80082
1.14367
1.48869
0.865845
1.48448
0.224266
1.08159
-1.04341
0.390679
-0.659041
0.605687
-1.01675
-1.33612
0.0431232
0.795681
1.44165
-0.0363291
1.73067
0.319766
0.375678
1.89244
0.393246
0.0722326
1.06367
1.42622
0.064212
2.5286
0.692386
1.6659
0.466079
1.89252
1.84902
0.347766
1.69621
0.710868
0.970692
0.815205
-1.75241
0.188129
-0.356849
-0.94134
0.0123894
-0.739161
-0.275452
-1.76438
2.06738
0.864866
1.3932
0.407008
-0.23297
0.839791
0.330851
-0.14573
0.292998
0.773245
-0.440904
1.94631
0.226676
1.10611
1.27822
0.167933
0.623892
2.72255
0.415932
-1.14743
1.84902
-0.343859
-1.434
-0.900004
0.730409
-0.715748
-0.1588
-0.663438
-1.606
-0.815446
0.741087
2.44273
1.0592
1.27529
1.84264
1.5171
1.22394
1.32485
1.60451
1.44878
-0.223678
0.411448
0.113499
1.64794
0.324744
0.622787
-0.0364843
-0.857599
-1.99309
-0.740838
0.179109
-0.308618
0.123185
0.37299
-0.736439
0.386815
0.205881
-0.580293
3.00683
0.955439
1.7511
2.67418
-0.253764
0.752586
-0.221069
0.202774
1.97518
0.143725
1.94787
-0.178085
0.532132
2.01308
-0.187792
-1.23662
0.644512
0.706676
2.129
-1.48834
2.34678
1.22662
1.68961
-1.18999
-1.50625
1.10523
0.703528
-0.000261282
-1.06226
1.04032
0.624635
0.341694
1.65674
1.35042
1.32304
0.66159
0.840782
3.11688
-0.142176
-1.94471
-1.21147
0.569113
-0.598784
-0.147013
0.477779
0.25686
0.854249
1.79705
0.665758
-0.106657
0.208998
1.20286
0.0408988
-0.0581893
-1.97113
-0.844826
-0.0833997
-0.655692
-1.22351
-0.430721
0.764616
-0.409942
0.681286
0.613221
-1.00288
-1.06558
-0.923267
-1.34061
-0.979515
-0.683432
1.18037
-1.0913
-1.54857
2.19169
0.357403
0.662741
-0.524741
0.110717
0.561479
-0.665547
0.144947
0.264454
-2.1301
-0.384809
-0.0954875
-1.1197
-0.959949
-0.710694
0.402276
0.266959
-0.253747
-0.143915
-0.177472
0.856954
-0.378787
0.395157
0.110295
0.100786
0.0269735
-0.595705
1.36226
2.03297
-0.382452
1.00514
-1.0254
2.48053
-1.71901
0.760492
-0.641849
0.00434355
-1.52716
-1.28133
-0.963218
-0.274504
-1.59612
-1.56331
-2.03334
0.294
-0.143288
-1.5434
-0.0986389
-2.06529
-0.431202
-0.99393
-0.0179536
0.136214
0.262678
-0.948059
-0.921877
-1.15773
1.06419
-0.307144
-0.69022
-1.41956
-1.04572
1.77416
-0.122983
-1.85438
-0.944908
1.00855
0.459208
2.09485
1.15242
0.536728
0.262001
1.61532
-0.126526
-0.231959
-0.793589
1.23223
1.89844
0.277481
-0.510842
0.615473
0.193449
-0.821778
1.25491
0.350856
0.862778
0.118131
-0.197748
-1.32167
0.365639
0.409008
-0.486967
0.327266
-0.457239
0.176722
0.207907
0.0107065
-1.26027
0.452899
1.73345
1.59134
-0.89111
-0.96385
1.19494
-0.930245
-1.60755
-1.29711
0.328194
-1.65266
-1.67324
0.846595
-0.257334
2.11531
-0.806667
-0.205793
-1.4515
-0.0189278
1.21473
-0.212832
0.703233
-0.396333
-1.12038
0.721705
-0.565287
2.98092
0.0637581
-1.54476
-0.178778
0.258599
0.732242
-0.645034
-0.146874
1.56785
0.831224
-1.35101
0.405079
-1.70456
-1.53884
-0.639197
-0.613345
-2.49327
-1.28432
-0.508989
-0.950156
-0.519348
-0.81363
-1.62327
-0.296882
0.241951
1.04315
1.61323
1.4604
-1.17091
-1.27424
0.844461
-1.14965
-0.325066
1.50525
1.71528
0.832392
1.01626
-1.04607
2.23161
-0.555017
-0.00222245
0.423662
1.99604
-1.66535
-1.16565
-1.47369
-0.235417
1.41687
1.44156
-1.64883
-0.70192
1.03011
0.648294
-0.218417
0.819854
0.10033
-1.06438
-1.65311
-0.852367
0.694444
-0.618153
-1.48622
0.126059
-1.45193
-1.0186
-1.23567
-1.86772
-0.605497
1.17796
0.349999
0.298338
-0.44154
0.998214
2.2497
-0.438072
-1.30818
-0.315054
-1.36693
-0.335427
-0.303952
0.956512
-0.367562
0.0519447
0.194673
0.0740911
0.595085
0.145733
1.05752
-1.0532
0.350777
1.08517
-0.734902
0.928225
0.932695
-1.34668
-1.75837
-1.45818
-0.906371
-0.794225
0.0275559
0.13104
-0.55779
-0.995148
-0.474551
-0.381984
-0.648625
-0.958597
0.978075
0.26379
0.932814
-0.660197
0.299646
-0.992517
0.870134
0.109394
-1.64178
0.71222
-0.534413
0.609453
1.70367
-1.55813
-0.216897
-0.19339
-1.02043
-0.0489382
2.58799
0.292863
1.37071
0.793639
1.33013
-0.402732
-1.00332
0.956127
-1.0846
0.56822
-0.625387
0.445229
0.574216
0.109772
0.0492694
-0.310827
-0.501441
-0.518688
1.11401
-0.0746273
-0.242607
0.625691
1.59894
-0.808328
0.825272
0.354329
0.436605
0.106129
-0.285656
0.706052
0.105394
-0.509805
0.794504
0.826245
0.962486
-1.78084
-0.811274
0.794355
-0.0741422
0.35562
-0.972665
0.933596
1.69127
2.11975
1.64721
1.50783
0.0757367
-0.232096
-1.61371
0.527234
1.08857
1.18329
-0.89303
-0.874428
0.451634
1.69173
0.591983
0.751819
0.561824
1.80593
-0.321897
1.48342
0.794698
-0.937873
-0.378745
0.98188
-1.58266
1.25818
1.24063
0.78087
-0.469271
-0.713113
-0.721981
2.33854
0.351286
1.37506
0.653289
-0.0345116
-0.551799
1.16061
1.21178
1.17802
1.47771
1.06486
1.61
2.11236
0.990923
1.4578
2.15838
1.76973
0.382164
0.118794
-0.307229
0.614763
-0.358622
-0.532417
0.891842
1.09512
-0.506268
1.43858
-0.463428
0.0475638
-0.20915
0.406605
-0.0189426
1.85782
1.6485
1.59004
0.424873
-0.0949863
-0.159043
0.545396
0.343269
-0.918353
-0.753698
-0.544049
-0.280994
0.531135
2.71232
1.65781
-0.0531707
-0.812033
-0.368362
-0.47598
1.19117
3.13459
1.06598
-1.17251
0.453376
-0.963434
0.882564
2.83789
2.19334
0.932377
2.38981
0.727348
-2.53424
-0.74439
-0.346897
0.39363
0.303763
0.584729
0.763886
0.512752
1.2696
-1.224
-1.47003
0.663225
1.29565
1.44607
-1.16503
1.26336
0.632205
1.33387
-1.21734
0.857974
0.648528
0.831719
1.00239
1.33091
1.38799
1.53392
1.00619
-1.80209
-3.61321
-5.53495
-0.904684
-0.313411
-0.531251
-1.10164
-2.74864
-1.0263
-0.164577
0.915583
-0.889153
1.87768
1.53537
-0.656356
-0.712741
-0.0609181
-0.688992
0.193981
-2.74655
-0.146145
0.868867
0.548048
0.873638
1.15599
-0.25232
-0.05226
-2.96506
-3.10152
-1.20937
-1.34988
-2.50144
-1.29841
-1.15443
-2.22926
-2.60437
1.20529
-0.673749
0.04504
0.540474
-0.120485
0.578218
0.582441
1.91909
-0.996312
-0.111742
0.608845
-0.589379
0.462561
0.588532
-0.0877681
-1.82463
-1.02482
-0.875025
0.633838
-1.49814
-4.49455
-1.21009
-1.34435
-2.0413
0.152495
-0.427906
0.919374
0.123063
-0.182684
-0.0623602
0.96922
2.3979
-0.498229
-0.821328
-1.17718
-0.677152
0.621804
0.0231847
-0.23465
-0.656155
-0.34128
-0.776464
-0.789556
1.23379
0.253597
0.757504
-0.553636
-1.65413
-2.25488
-0.810601
-2.31994
-1.97768
0.310232
-1.64989
0.814174
-0.816729
-1.44824
0.888147
0.015034
0.302197
1.75931
-1.31165
-0.100199
-1.3193
-0.536689
-0.667068
-1.25253
0.66037
-1.20878
-2.69605
-2.23757
0.19918
-1.71407
-1.03726
-0.121857
-2.14258
-2.71808
-1.25375
0.717179
-1.70199
1.81383
0.120066
-1.2762
0.365887
0.749122
-1.10785
0.37342
-1.37387
-1.04851
0.988646
-0.868155
-0.0505371
-0.573327
2.20533
-0.708659
-0.491541
-0.0235851
-0.54478
-2.07965
0.550362
1.67612
-1.03005
-0.236121
-0.634784
-0.745714
-1.74586
-0.18451
-1.771
1.54924
-0.784776
0.361391
-0.350779
0.894538
1.47249
0.117356
0.189831
0.803562
-1.56382
0.965639
1.48804
-0.549345
-1.50171
-1.07511
1.81985
-0.993412
-1.00483
0.787644
0.588644
0.939312
-0.474414
0.072999
-0.82125
-1.41568
-0.0471205
-0.995242
-1.09927
-0.36533
-0.524734
-0.953419
0.478485
-0.383124
0.974575
-0.497539
-1.46249
2.18447
-0.0779516
0.0936129
2.12538
-1.10432
-1.29454
0.354507
-0.157179
1.031
0.464639
1.07171
0.0885616
-0.505943
-0.415608
0.713441
1.18948
1.14907
1.32993
-0.657172
-1.2931
0.972618
-3.57887
0.27028
0.0388803
0.11764
-0.634738
-2.51828
0.576781
0.359722
2.03212
-0.571556
0.110301
1.75667
1.36865
-1.2443
0.470044
1.22773
0.655276
0.428776
1.62883
-0.52861
1.35418
0.942255
-0.219084
-1.2335
-0.752377
-0.524567
-0.297041
-1.20958
1.07623
-0.24283
-0.343296
0.449356
1.73809
-0.456184
-0.0147505
-0.357579
-1.31669
-0.425941
0.145516
0.111475
0.857525
-1.9407
1.27187
-0.203386
2.03352
0.539064
1.09978
0.608401
0.775293
1.56075
0.724242
0.927401
-1.11274
1.98809
0.129967
0.952788
0.78899
-1.4494
-0.865642
-1.62417
-0.693627
-1.34978
-0.873635
-1.32533
0.77881
1.81603
-0.137529
0.153112
0.166336
-0.501642
-0.941102
2.26917
2.40203
-0.355915
0.410792
0.257638
1.99514
0.786077
0.0200765
-0.417152
0.0591082
-0.415677
-0.396618
1.81084
-0.641854
-0.0480403
-1.7109
0.997506
0.237
0.802945
0.263308
0.099926
-0.465016
0.135325
-0.0294417
1.48861
-0.697254
-1.03846
-1.55523
0.654956
0.11294
-0.411281
-0.543756
-0.418172
-1.27373
-1.33695
0.0298493
1.65494
0.270805
-0.00627454
-0.423723
-0.326781
-1.72845
1.18191
-1.03554
-1.37569
0.508913
-1.03047
-0.22782
-0.350441
0.376911
0.511282
0.663925
-2.1802
-1.46074
-0.725329
0.94722
1.21686
0.180159
-0.382513
0.34795
-1.80552
-1.15351
2.71065
0.410808
0.103849
1.15175
0.224155
2.11838
-0.549055
0.226113
1.01766
0.411683
0.869766
0.907997
-1.03293
0.0326752
-1.34093
1.48745
0.470417
-1.2128
-1.10663
0.45107
-0.764981
-0.075723
0.488724
-0.28776
-1.39497
-1.32586
-0.895974
-1.26391
-1.24219
0.365254
0.190654
0.41064
-0.195706
-1.54213
2.12423
1.16799
1.21454
1.60302
-0.975747
1.75251
2.64895
0.051973
-0.351129
0.0870501
-0.444369
-0.32503
-1.47162
2.28112
0.134725
-1.1343
-1.20649
-1.54172
1.54743
-0.22836
0.605254
0.864069
-0.0650614
-0.343685
0.34564
-1.09713
-0.555471
0.608012
0.276582
-1.3342
1.29634
1.33398
-0.443184
0.587677
0.472785
-0.590325
-1.02312
-1.58274
-0.288298
1.99506
1.4492
-1.13725
-0.665327
1.55304
1.04653
0.592093
-0.167499
-0.511467
0.967997
1.3745
-0.414549
-0.30149
1.06172
0.504831
0.0312646
